<?xml version="1.0" encoding="UTF-8"?>
<!-- This network was created in GeNIe Academic, which can be used for academic teaching and research purposes only -->
<smile version="1.0" id="finalbanglatrain" numsamples="10000" discsamples="10000">
	<nodes>
		<cpt id="Age">
			<state id="above_35" />
			<state id="between_22_to_35_years" />
			<state id="s15_to_22_years" />
			<probabilities>0.1183431952662722 0.5502958579881657 0.3313609467455621</probabilities>
		</cpt>
		<cpt id="Gender">
			<state id="Female" />
			<state id="Male" />
			<probabilities>0.3254437869822485 0.6745562130177515</probabilities>
		</cpt>
		<cpt id="Addicted_person_in_family">
			<state id="No" />
			<state id="Not_sure" />
			<state id="Yes" />
			<probabilities>0.7218934911242604 0.09467455621301775 0.1834319526627219</probabilities>
		</cpt>
		<cpt id="Living_with_drug_user">
			<state id="No" />
			<state id="Not_sure" />
			<state id="Yes" />
			<parents>Gender Addicted_person_in_family</parents>
			<probabilities>0.9837398373983739 0.008130081300813007 0.008130081300813007 0.08333333333333333 0.5833333333333334 0.3333333333333333 0.1025641025641026 0.02564102564102564 0.8717948717948719 0.6305220883534137 0.004016064257028112 0.3654618473895582 0.07692307692307693 0.3846153846153846 0.5384615384615385 0.2166666666666667 0.01666666666666667 0.7666666666666667</probabilities>
		</cpt>
		<cpt id="Frequency_of_drugs">
			<state id="Never_Not_applicable" />
			<state id="Occasionally" />
			<state id="Once_twice_a_week" />
			<state id="Regularly" />
			<parents>Living_with_drug_user</parents>
			<probabilities>0.7346938775510203 0.163265306122449 0.08163265306122448 0.02040816326530612 0.40625 0.40625 0.15625 0.03125 0.265625 0.234375 0.234375 0.265625</probabilities>
		</cpt>
		<cpt id="Conflict_with_law">
			<state id="No" />
			<state id="Yes" />
			<parents>Frequency_of_drugs</parents>
			<probabilities>0.9347826086956521 0.06521739130434782 0.5882352941176471 0.4117647058823529 0.5416666666666666 0.4583333333333333 0.3684210526315789 0.631578947368421</probabilities>
		</cpt>
		<cpt id="Case_in_court">
			<state id="No" />
			<state id="Yes" />
			<parents>Conflict_with_law Addicted_person_in_family</parents>
			<probabilities>0.9948979591836734 0.00510204081632653 0.9545454545454546 0.04545454545454546 0.8421052631578947 0.1578947368421053 0.76 0.24 0.5 0.5 0.1666666666666667 0.8333333333333333</probabilities>
		</cpt>
		<cpt id="Education">
			<state id="HSC_A_levels" />
			<state id="Postgraduate_MSc_PhD" />
			<state id="Primary_Education" />
			<state id="SSC_O_levels" />
			<state id="Undergraduate" />
			<parents>Age Case_in_court</parents>
			<probabilities>0.4428571428571428 0.2285714285714286 0.01428571428571429 0.01428571428571429 0.3 0.025 0.025 0.15 0.275 0.525 0.07209302325581396 0.1767441860465116 0.002325581395348837 0.002325581395348837 0.7465116279069768 0.4666666666666667 0.02222222222222222 0.02222222222222222 0.1333333333333333 0.3555555555555556 0.324 0.004 0.004 0.08400000000000001 0.584 0.4 0.025 0.15 0.275 0.15</probabilities>
		</cpt>
		<cpt id="Enjoyable_amount_of_drugs">
			<state id="I_have_no_idea" />
			<state id="Multiple_drugs" />
			<state id="One_drug" />
			<parents>Case_in_court Frequency_of_drugs</parents>
			<probabilities>0.9666666666666667 0.01111111111111111 0.02222222222222222 0.3448275862068966 0.2413793103448276 0.4137931034482759 0.1666666666666667 0.3888888888888888 0.4444444444444444 0.0303030303030303 0.6666666666666666 0.303030303030303 0.1111111111111111 0.1111111111111111 0.7777777777777778 0.05555555555555556 0.7222222222222222 0.2222222222222222 0.04761904761904762 0.4761904761904762 0.4761904761904762 0.03333333333333333 0.3333333333333334 0.6333333333333333</probabilities>
		</cpt>
		<cpt id="Ever_taken_drug">
			<state id="No" />
			<state id="Yes" />
			<parents>Enjoyable_amount_of_drugs Frequency_of_drugs</parents>
			<probabilities>0.9540229885057471 0.04597701149425287 0.2 0.8 0.125 0.875 0.5 0.5 0.25 0.75 0.2727272727272727 0.7272727272727273 0.1 0.9 0.1 0.9 0.5 0.5 0.03571428571428571 0.9642857142857142 0.04166666666666666 0.9583333333333333 0.3333333333333333 0.6666666666666666</probabilities>
		</cpt>
		<cpt id="Family_relationship">
			<state id="Average" />
			<state id="Communcaiton_gap" />
			<state id="Satisfactory" />
			<parents>Education Ever_taken_drug</parents>
			<probabilities>0.3787878787878788 0.01515151515151515 0.6060606060606061 0.7142857142857142 0.07142857142857142 0.2142857142857143 0.1111111111111111 0.02777777777777778 0.8611111111111112 0.4285714285714285 0.1428571428571428 0.4285714285714285 0.3333333333333333 0.3333333333333333 0.3333333333333333 0.4444444444444444 0.4444444444444444 0.1111111111111111 0.4444444444444444 0.1111111111111111 0.4444444444444444 0.1428571428571428 0.7142857142857142 0.1428571428571428 0.09836065573770492 0.04918032786885246 0.8524590163934427 0.6363636363636364 0.02272727272727273 0.3409090909090909</probabilities>
		</cpt>
		<cpt id="Spend_most_time_with">
			<state id="Alone" />
			<state id="Family_Relatives" />
			<state id="Friends" />
			<parents>Family_relationship</parents>
			<probabilities>0.2203389830508475 0.06779661016949153 0.711864406779661 0.25 0.08333333333333333 0.6666666666666666 0.1020408163265306 0.3979591836734693 0.4999999999999999</probabilities>
		</cpt>
		<cpt id="Financials_of_family">
			<state id="Lower_Class" />
			<state id="Medium" />
			<state id="Upper_Class" />
			<parents>Spend_most_time_with</parents>
			<probabilities>0.3846153846153846 0.5 0.1153846153846154 0.3181818181818182 0.25 0.4318181818181818 0.2525252525252525 0.6262626262626263 0.1212121212121212</probabilities>
		</cpt>
		<cpt id="num_of_friends">
			<state id="Few_14" />
			<state id="Many_more_than_5" />
			<state id="Zero" />
			<parents>Education</parents>
			<probabilities>0.2857142857142857 0.6857142857142857 0.02857142857142857 0.4912280701754386 0.4912280701754386 0.01754385964912281 0.4444444444444444 0.1111111111111111 0.4444444444444444 0.4444444444444444 0.3333333333333333 0.2222222222222222 0.2571428571428572 0.7142857142857143 0.02857142857142857</probabilities>
		</cpt>
		<cpt id="Smoking">
			<state id="No_I_dont" />
			<state id="Yes_every_day" />
			<state id="Yes_occasionally" />
			<parents>Gender Frequency_of_drugs</parents>
			<probabilities>0.8333333333333333 0.008333333333333331 0.1583333333333333 0.1666666666666667 0.04166666666666666 0.7916666666666666 0.06666666666666667 0.4666666666666667 0.4666666666666667 0.05555555555555555 0.5555555555555556 0.3888888888888889 0.4339622641509434 0.2830188679245283 0.2830188679245283 0.1111111111111111 0.6666666666666666 0.2222222222222222 0.05 0.8500000000000001 0.1 0.02222222222222222 0.8888888888888887 0.08888888888888886</probabilities>
		</cpt>
		<cpt id="Withdrawal_symptoms">
			<state id="I_have_no_idea" />
			<state id="No" />
			<state id="Yes" />
			<parents>Conflict_with_law Smoking</parents>
			<probabilities>0.9345238095238095 0.05952380952380952 0.005952380952380952 0.2888888888888889 0.2888888888888889 0.4222222222222222 0.6153846153846154 0.2692307692307693 0.1153846153846154 0.04761904761904762 0.761904761904762 0.1904761904761905 0.2173913043478261 0.1739130434782609 0.6086956521739131 0.02222222222222222 0.6888888888888889 0.2888888888888889</probabilities>
		</cpt>
		<cpt id="Friends_influence">
			<state id="No_they_dont" />
			<state id="Yes_often_they_do" />
			<parents>Ever_taken_drug</parents>
			<probabilities>0.8631578947368421 0.1368421052631579 0.3378378378378378 0.6621621621621622</probabilities>
		</cpt>
		<cpt id="Would_try_drugs">
			<state id="i_dont_know_confused" />
			<state id="Ill_try" />
			<state id="no_ill_not" />
			<parents>Enjoyable_amount_of_drugs num_of_friends Smoking</parents>
			<probabilities>0.253968253968254 0.01587301587301587 0.7301587301587301 0.1111111111111111 0.7777777777777777 0.1111111111111111 0.8148148148148148 0.1481481481481481 0.03703703703703703 0.2314814814814815 0.009259259259259259 0.7592592592592592 0.4444444444444444 0.1111111111111111 0.4444444444444444 0.2142857142857143 0.4285714285714285 0.3571428571428571 0.1666666666666667 0.6666666666666667 0.1666666666666667 0.6666666666666667 0.1666666666666667 0.1666666666666667 0.1666666666666667 0.1666666666666667 0.6666666666666666 0.3333333333333333 0.3333333333333333 0.3333333333333333 0.5 0.25 0.25 0.1111111111111111 0.1111111111111111 0.7777777777777778 0.1666666666666667 0.1666666666666667 0.6666666666666666 0.02380952380952381 0.9523809523809523 0.02380952380952381 0.03333333333333333 0.3333333333333334 0.6333333333333333 0.1666666666666667 0.6666666666666667 0.1666666666666667 0.1111111111111111 0.7777777777777777 0.1111111111111111 0.3333333333333333 0.3333333333333333 0.3333333333333333 0.4444444444444444 0.4444444444444444 0.1111111111111111 0.0303030303030303 0.8484848484848484 0.1212121212121212 0.3333333333333333 0.08333333333333333 0.5833333333333334 0.1666666666666667 0.1666666666666667 0.6666666666666666 0.05882352941176471 0.8823529411764706 0.05882352941176471 0.3333333333333333 0.5833333333333334 0.08333333333333333 0.3333333333333333 0.3333333333333333 0.3333333333333333 0.1666666666666667 0.6666666666666667 0.1666666666666667 0.3333333333333333 0.3333333333333333 0.3333333333333333</probabilities>
		</cpt>
	</nodes>
	<extensions>
		<genie version="1.0" app="GeNIe 5.0.4708.0 ACADEMIC" name="Greedy(goodaccuracy)">
			<node id="Age">
				<name>Age</name>
				<interior color="e5f6f7" />
				<outline color="000080" />
				<font color="000000" name="Arial" size="8" />
				<position>1010 64 1082 112</position>
			</node>
			<node id="Gender">
				<name>Gender</name>
				<interior color="e5f6f7" />
				<outline color="000080" />
				<font color="000000" name="Arial" size="8" />
				<position>211 312 283 360</position>
			</node>
			<node id="Education">
				<name>Education</name>
				<interior color="e5f6f7" />
				<outline color="000080" />
				<font color="000000" name="Arial" size="8" />
				<position>917 200 989 248</position>
			</node>
			<node id="Enjoyable_amount_of_drugs">
				<name>Enjoyable_amount_of_drugs</name>
				<interior color="e5f6f7" />
				<outline color="000080" />
				<font color="000000" name="Arial" size="8" />
				<position>337 660 409 708</position>
			</node>
			<node id="Conflict_with_law">
				<name>Conflict_with_law</name>
				<interior color="e5f6f7" />
				<outline color="000080" />
				<font color="000000" name="Arial" size="8" />
				<position>309 412 381 460</position>
			</node>
			<node id="Spend_most_time_with">
				<name>Spend_most_time_with</name>
				<interior color="e5f6f7" />
				<outline color="000080" />
				<font color="000000" name="Arial" size="8" />
				<position>827 352 899 400</position>
			</node>
			<node id="Family_relationship">
				<name>Family_relationship</name>
				<interior color="e5f6f7" />
				<outline color="000080" />
				<font color="000000" name="Arial" size="8" />
				<position>727 217 799 265</position>
			</node>
			<node id="Financials_of_family">
				<name>Financials_of_family</name>
				<interior color="e5f6f7" />
				<outline color="000080" />
				<font color="000000" name="Arial" size="8" />
				<position>927 615 999 663</position>
			</node>
			<node id="Addicted_person_in_family">
				<name>Addicted_person_in_family</name>
				<interior color="e5f6f7" />
				<outline color="000080" />
				<font color="000000" name="Arial" size="8" />
				<position>10 320 82 368</position>
			</node>
			<node id="num_of_friends">
				<name>num_of_friends</name>
				<interior color="e5f6f7" />
				<outline color="000080" />
				<font color="000000" name="Arial" size="8" />
				<position>461 46 533 94</position>
			</node>
			<node id="Withdrawal_symptoms">
				<name>Withdrawal_symptoms</name>
				<interior color="e5f6f7" />
				<outline color="000080" />
				<font color="000000" name="Arial" size="8" />
				<position>168 521 240 569</position>
			</node>
			<node id="Case_in_court">
				<name>Case_in_court</name>
				<interior color="e5f6f7" />
				<outline color="000080" />
				<font color="000000" name="Arial" size="8" />
				<position>672 465 744 513</position>
			</node>
			<node id="Living_with_drug_user">
				<name>Living_with_drug_user</name>
				<interior color="e5f6f7" />
				<outline color="000080" />
				<font color="000000" name="Arial" size="8" />
				<position>63 456 135 504</position>
			</node>
			<node id="Smoking">
				<name>Smoking</name>
				<interior color="e5f6f7" />
				<outline color="000080" />
				<font color="000000" name="Arial" size="8" />
				<position>190 99 262 147</position>
			</node>
			<node id="Ever_taken_drug">
				<name>Ever_taken_drug</name>
				<interior color="e5f6f7" />
				<outline color="000080" />
				<font color="000000" name="Arial" size="8" />
				<position>556 108 628 156</position>
			</node>
			<node id="Friends_influence">
				<name>Friends_influence</name>
				<interior color="e5f6f7" />
				<outline color="000080" />
				<font color="000000" name="Arial" size="8" />
				<position>796 89 868 137</position>
			</node>
			<node id="Would_try_drugs">
				<name>Would_try_drugs</name>
				<interior color="e5f6f7" />
				<outline color="000080" />
				<font color="000000" name="Arial" size="8" />
				<position>329 143 401 191</position>
			</node>
			<node id="Frequency_of_drugs">
				<name>Frequency_of_drugs</name>
				<interior color="e5f6f7" />
				<outline color="000080" />
				<font color="000000" name="Arial" size="8" />
				<position>361 307 433 355</position>
			</node>
			<textbox>
				<caption>Input file: finalbanglatrain\nData rows: 169\nElapsed time: 0.047s\n\nLearning algorithm: Greedy ThickThinning\nAlgorithm parameters:\nMax parent count: 4\nBackground knowledge was provided:\n  forbidden arcs: 49\n  nodes assigned to tiers: 3\n\nScore: -3496.74\nEM Log Likelihood: -2931.46</caption>
				<font color="000000" name="Arial" size="8" />
				<position>37 597 235 779</position>
			</textbox>
		</genie>
	</extensions>
</smile>
