<?xml version="1.0" encoding="UTF-8"?>
<!-- This network was created in GeNIe Academic, which can be used for academic teaching and research purposes only -->
<smile version="1.0" id="finalbanglatrain" numsamples="10000" discsamples="10000">
	<nodes>
		<cpt id="Age">
			<state id="above_35" />
			<state id="between_22_to_35_years" />
			<state id="s15_to_22_years" />
			<probabilities>0.1183431952662722 0.5443786982248521 0.3372781065088757</probabilities>
		</cpt>
		<cpt id="Gender">
			<state id="Female" />
			<state id="Male" />
			<probabilities>0.3313609467455621 0.6686390532544378</probabilities>
		</cpt>
		<cpt id="Enjoyable_amount_of_drugs">
			<state id="I_have_no_idea" />
			<state id="Multiple_drugs" />
			<state id="One_drug" />
			<probabilities>0.5976331360946745 0.1834319526627219 0.2189349112426036</probabilities>
		</cpt>
		<cpt id="Would_try_drugs">
			<state id="i_dont_know_confused" />
			<state id="Ill_try" />
			<state id="no_ill_not" />
			<probabilities>0.2307692307692308 0.3431952662721893 0.4260355029585799</probabilities>
		</cpt>
		<cpt id="Smoking">
			<state id="No_I_dont" />
			<state id="Yes_every_day" />
			<state id="Yes_occasionally" />
			<parents>Gender Would_try_drugs</parents>
			<probabilities>0.75 0.08333333333333333 0.1666666666666667 0.1 0.2 0.7000000000000001 0.7647058823529411 0.02941176470588235 0.2058823529411765 0.2222222222222222 0.4074074074074074 0.3703703703703703 0.02083333333333333 0.875 0.1041666666666667 0.5 0.2631578947368421 0.2368421052631579</probabilities>
		</cpt>
		<cpt id="Withdrawal_symptoms">
			<state id="I_have_no_idea" />
			<state id="No" />
			<state id="Yes" />
			<parents>Enjoyable_amount_of_drugs Smoking</parents>
			<probabilities>0.9137931034482758 0.06896551724137931 0.01724137931034483 0.3 0.2 0.5 0.6086956521739131 0.2608695652173913 0.1304347826086956 0.6666666666666667 0.1666666666666667 0.1666666666666667 0.2631578947368421 0.1052631578947368 0.631578947368421 0.09090909090909091 0.7272727272727273 0.1818181818181818 0.08333333333333333 0.8333333333333334 0.08333333333333333 0.25 0.3571428571428571 0.3928571428571428 0.1666666666666667 0.5 0.3333333333333333</probabilities>
		</cpt>
		<cpt id="Case_in_court">
			<state id="No" />
			<state id="Yes" />
			<parents>Withdrawal_symptoms</parents>
			<probabilities>0.9659090909090909 0.03409090909090909 0.8 0.2 0.7317073170731707 0.2682926829268293</probabilities>
		</cpt>
		<cpt id="Addicted_person_in_family">
			<state id="No" />
			<state id="Not_sure" />
			<state id="Yes" />
			<parents>Case_in_court</parents>
			<probabilities>0.7891156462585034 0.08843537414965986 0.1224489795918367 0.2727272727272727 0.1363636363636364 0.5909090909090909</probabilities>
		</cpt>
		<cpt id="Education">
			<state id="HSC_A_levels" />
			<state id="Postgraduate_MSc_PhD" />
			<state id="Primary_Education" />
			<state id="SSC_O_levels" />
			<state id="Undergraduate" />
			<parents>Age Addicted_person_in_family Case_in_court</parents>
			<probabilities>0.65 0.15 0.025 0.025 0.15 0.06666666666666667 0.06666666666666667 0.4 0.4 0.06666666666666667 0.24 0.24 0.04000000000000001 0.04000000000000001 0.4400000000000001 0.1 0.1 0.1 0.6 0.1 0.06666666666666667 0.4 0.06666666666666667 0.06666666666666667 0.4 0.04000000000000001 0.04000000000000001 0.04000000000000001 0.04000000000000001 0.8400000000000001 0.03098591549295775 0.2 0.002816901408450704 0.002816901408450704 0.7633802816901409 0.5499999999999999 0.04999999999999999 0.04999999999999999 0.2999999999999999 0.04999999999999999 0.03333333333333333 0.03333333333333333 0.03333333333333333 0.03333333333333333 0.8666666666666667 0.1 0.1 0.1 0.1 0.6 0.42 0.12 0.02 0.02 0.42 0.4399999999999999 0.03999999999999999 0.03999999999999999 0.03999999999999999 0.4399999999999999 0.355 0.005000000000000001 0.005000000000000001 0.005000000000000001 0.63 0.6000000000000001 0.1 0.1 0.1 0.1 0.04000000000000001 0.04000000000000001 0.04000000000000001 0.4400000000000001 0.4400000000000001 0.1 0.1 0.1 0.6 0.1 0.525 0.025 0.025 0.15 0.275 0.3666666666666666 0.03333333333333333 0.2 0.2 0.2</probabilities>
		</cpt>
		<cpt id="num_of_friends">
			<state id="Few_14" />
			<state id="Many_more_than_5" />
			<state id="Zero" />
			<parents>Addicted_person_in_family</parents>
			<probabilities>0.3360655737704918 0.6557377049180328 0.00819672131147541 0.125 0.6875 0.1875 0.2580645161290323 0.6774193548387096 0.06451612903225806</probabilities>
		</cpt>
		<cpt id="Ever_taken_drug">
			<state id="No" />
			<state id="Yes" />
			<parents>Smoking</parents>
			<probabilities>0.9032258064516129 0.09677419354838709 0.2238805970149254 0.7761194029850746 0.65 0.35</probabilities>
		</cpt>
		<cpt id="Satisfied_with_workplace">
			<state id="No" />
			<state id="Yes" />
			<parents>Ever_taken_drug</parents>
			<probabilities>0.2989690721649484 0.7010309278350515 0.4861111111111111 0.5138888888888888</probabilities>
		</cpt>
		<cpt id="Frequency_of_drugs">
			<state id="Never_Not_applicable" />
			<state id="Occasionally" />
			<state id="Once_twice_a_week" />
			<state id="Regularly" />
			<parents>num_of_friends Satisfied_with_workplace Case_in_court Ever_taken_drug</parents>
			<probabilities>0.8653846153846154 0.09615384615384616 0.01923076923076923 0.01923076923076923 0.225 0.625 0.025 0.125 0.125 0.125 0.625 0.125 0.08333333333333333 0.08333333333333333 0.08333333333333333 0.75 0.9625 0.0125 0.0125 0.0125 0.0625 0.0625 0.8125 0.0625 0.0625 0.0625 0.0625 0.8125 0.08333333333333333 0.4166666666666666 0.08333333333333333 0.4166666666666666 0.875 0.01785714285714286 0.01785714285714286 0.08928571428571427 0.05263157894736842 0.3157894736842105 0.4210526315789473 0.2105263157894737 0.75 0.08333333333333333 0.08333333333333333 0.08333333333333333 0.08333333333333333 0.08333333333333333 0.75 0.08333333333333333 0.9602272727272727 0.02840909090909091 0.005681818181818182 0.005681818181818182 0.12 0.5600000000000001 0.16 0.16 0.08333333333333333 0.75 0.08333333333333333 0.08333333333333333 0.03571428571428571 0.3214285714285714 0.4642857142857142 0.1785714285714285 0.625 0.125 0.125 0.125 0.08333333333333333 0.08333333333333333 0.75 0.08333333333333333 0.25 0.25 0.25 0.25 0.125 0.125 0.125 0.625 0.125 0.625 0.125 0.125 0.25 0.25 0.25 0.25 0.25 0.25 0.25 0.25 0.125 0.125 0.125 0.625</probabilities>
		</cpt>
		<cpt id="Conflict_with_law">
			<state id="No" />
			<state id="Yes" />
			<parents>Withdrawal_symptoms Frequency_of_drugs</parents>
			<probabilities>0.9928571428571428 0.007142857142857143 0.9500000000000001 0.05 0.6000000000000001 0.4 0.4 0.6000000000000001 0.8333333333333333 0.1666666666666667 0.4285714285714285 0.5714285714285714 0.4444444444444444 0.5555555555555556 0.6000000000000001 0.4 0.75 0.25 0.4545454545454546 0.5454545454545454 0.6666666666666666 0.3333333333333333 0.2222222222222222 0.7777777777777777</probabilities>
		</cpt>
		<cpt id="Family_relationship">
			<state id="Average" />
			<state id="Communcaiton_gap" />
			<state id="Satisfactory" />
			<parents>Education Ever_taken_drug</parents>
			<probabilities>0.3888888888888889 0.01388888888888889 0.5972222222222222 0.7142857142857142 0.07142857142857142 0.2142857142857143 0.1111111111111111 0.02777777777777778 0.8611111111111112 0.4285714285714285 0.1428571428571428 0.4285714285714285 0.3333333333333333 0.3333333333333333 0.3333333333333333 0.4444444444444444 0.4444444444444444 0.1111111111111111 0.4444444444444444 0.1111111111111111 0.4444444444444444 0.1666666666666667 0.6666666666666666 0.1666666666666667 0.09836065573770492 0.04918032786885246 0.8524590163934427 0.6511627906976745 0.02325581395348837 0.3255813953488372</probabilities>
		</cpt>
		<cpt id="Financials_of_family">
			<state id="Lower_Class" />
			<state id="Medium" />
			<state id="Upper_Class" />
			<parents>Addicted_person_in_family</parents>
			<probabilities>0.2459016393442623 0.5573770491803279 0.1967213114754098 0.4375 0.5 0.0625 0.3548387096774194 0.3870967741935484 0.2580645161290323</probabilities>
		</cpt>
		<cpt id="Living_with_drug_user">
			<state id="No" />
			<state id="Not_sure" />
			<state id="Yes" />
			<parents>Addicted_person_in_family Frequency_of_drugs</parents>
			<probabilities>0.8559670781893005 0.00411522633744856 0.1399176954732511 0.7666666666666667 0.01666666666666667 0.2166666666666667 0.4888888888888889 0.02222222222222222 0.4888888888888889 0.1333333333333333 0.03333333333333333 0.8333333333333335 0.08333333333333333 0.8333333333333334 0.08333333333333333 0.05555555555555555 0.5555555555555556 0.3888888888888889 0.06666666666666667 0.2666666666666667 0.6666666666666667 0.2666666666666667 0.06666666666666667 0.6666666666666667 0.3939393939393939 0.0303030303030303 0.5757575757575758 0.1212121212121212 0.0303030303030303 0.8484848484848485 0.05555555555555555 0.05555555555555555 0.8888888888888888 0.04761904761904762 0.04761904761904762 0.9047619047619047</probabilities>
		</cpt>
		<cpt id="Friends_influence">
			<state id="No_they_dont" />
			<state id="Yes_often_they_do" />
			<parents>Ever_taken_drug</parents>
			<probabilities>0.865979381443299 0.134020618556701 0.3333333333333333 0.6666666666666666</probabilities>
		</cpt>
	</nodes>
	<extensions>
		<genie version="1.0" app="GeNIe 5.0.4708.0 ACADEMIC" name="finalbanglatrain">
			<node id="Age">
				<name>Age</name>
				<interior color="e5f6f7" />
				<outline color="000080" />
				<font color="000000" name="Arial" size="8" />
				<position>10 10 82 58</position>
			</node>
			<node id="Gender">
				<name>Gender</name>
				<interior color="e5f6f7" />
				<outline color="000080" />
				<font color="000000" name="Arial" size="8" />
				<position>10 72 82 120</position>
			</node>
			<node id="Education">
				<name>Education</name>
				<interior color="e5f6f7" />
				<outline color="000080" />
				<font color="000000" name="Arial" size="8" />
				<position>475 10 547 58</position>
			</node>
			<node id="Enjoyable_amount_of_drugs">
				<name>Enjoyable_amount_of_drugs</name>
				<interior color="e5f6f7" />
				<outline color="000080" />
				<font color="000000" name="Arial" size="8" />
				<position>10 134 82 182</position>
			</node>
			<node id="Conflict_with_law">
				<name>Conflict_with_law</name>
				<interior color="e5f6f7" />
				<outline color="000080" />
				<font color="000000" name="Arial" size="8" />
				<position>661 10 733 58</position>
			</node>
			<node id="Family_relationship">
				<name>Family_relationship</name>
				<interior color="e5f6f7" />
				<outline color="000080" />
				<font color="000000" name="Arial" size="8" />
				<position>568 10 640 58</position>
			</node>
			<node id="Financials_of_family">
				<name>Financials_of_family</name>
				<interior color="e5f6f7" />
				<outline color="000080" />
				<font color="000000" name="Arial" size="8" />
				<position>475 72 547 120</position>
			</node>
			<node id="Addicted_person_in_family">
				<name>Addicted_person_in_family</name>
				<interior color="e5f6f7" />
				<outline color="000080" />
				<font color="000000" name="Arial" size="8" />
				<position>278 272 350 320</position>
			</node>
			<node id="num_of_friends">
				<name>num_of_friends</name>
				<interior color="e5f6f7" />
				<outline color="000080" />
				<font color="000000" name="Arial" size="8" />
				<position>475 134 547 182</position>
			</node>
			<node id="Withdrawal_symptoms">
				<name>Withdrawal_symptoms</name>
				<interior color="e5f6f7" />
				<outline color="000080" />
				<font color="000000" name="Arial" size="8" />
				<position>196 10 268 58</position>
			</node>
			<node id="Satisfied_with_workplace">
				<name>Satisfied_with_workplace</name>
				<interior color="e5f6f7" />
				<outline color="000080" />
				<font color="000000" name="Arial" size="8" />
				<position>289 10 361 58</position>
			</node>
			<node id="Case_in_court">
				<name>Case_in_court</name>
				<interior color="e5f6f7" />
				<outline color="000080" />
				<font color="000000" name="Arial" size="8" />
				<position>289 72 361 120</position>
			</node>
			<node id="Living_with_drug_user">
				<name>Living_with_drug_user</name>
				<interior color="e5f6f7" />
				<outline color="000080" />
				<font color="000000" name="Arial" size="8" />
				<position>661 72 733 120</position>
			</node>
			<node id="Smoking">
				<name>Smoking</name>
				<interior color="e5f6f7" />
				<outline color="000080" />
				<font color="000000" name="Arial" size="8" />
				<position>187 452 259 500</position>
			</node>
			<node id="Ever_taken_drug">
				<name>Ever_taken_drug</name>
				<interior color="e5f6f7" />
				<outline color="000080" />
				<font color="000000" name="Arial" size="8" />
				<position>441 375 513 423</position>
			</node>
			<node id="Friends_influence">
				<name>Friends_influence</name>
				<interior color="e5f6f7" />
				<outline color="000080" />
				<font color="000000" name="Arial" size="8" />
				<position>289 134 361 182</position>
			</node>
			<node id="Would_try_drugs">
				<name>Would_try_drugs</name>
				<interior color="e5f6f7" />
				<outline color="000080" />
				<font color="000000" name="Arial" size="8" />
				<position>122 249 194 297</position>
			</node>
			<node id="Frequency_of_drugs">
				<name>Frequency_of_drugs</name>
				<interior color="e5f6f7" />
				<outline color="000080" />
				<font color="000000" name="Arial" size="8" />
				<position>568 72 640 120</position>
			</node>
			<textbox>
				<caption>Input file: finalbanglatrain\nData rows: 169\nElapsed time: 0.906s\n\nLearning algorithm: Bayesian Search\nAlgorithm parameters:\nIterations: 100\nMax parent count: 4\nSample size: 100\nLink probability: 0.05\nPrior link probability: 0.01\nSeed: 42\nMax search time: 5000\nScore by accuracy (5-fold), class variable: Frequency_of_drugs\nBackground knowledge was provided:\n  forbidden arcs: 48\n  nodes assigned to tiers: 2\n\nBest accuracy in iteration 82: 0.769231 (130/169)\nEM Log Likelihood: -3041.25</caption>
				<font color="000000" name="Arial" size="8" />
				<position>53 448 366 728</position>
			</textbox>
		</genie>
	</extensions>
</smile>
