<?xml version="1.0" encoding="UTF-8"?>
<!-- This network was created in GeNIe Academic, which can be used for academic teaching and research purposes only -->
<smile version="1.0" id="finalall" numsamples="10000" discsamples="10000">
	<nodes>
		<cpt id="﻿Age">
			<state id="between_22_to_35_years" />
			<state id="above_35" />
			<state id="s15_to_22_years" />
			<probabilities>0.5781990521327015 0.1090047393364929 0.3127962085308057</probabilities>
			<property id="DSL_OUTCOME_ORDER">1</property>
		</cpt>
		<cpt id="Gender">
			<state id="Male" />
			<state id="Female" />
			<probabilities>0.6729857819905214 0.3270142180094787</probabilities>
			<property id="DSL_OUTCOME_ORDER">1</property>
		</cpt>
		<cpt id="Financials_of_family">
			<state id="Medium" />
			<state id="Lower_Class" />
			<state id="Upper_Class" />
			<probabilities>0.5071090047393365 0.2985781990521327 0.1943127962085308</probabilities>
			<property id="DSL_OUTCOME_ORDER">1</property>
		</cpt>
		<cpt id="Education">
			<state id="Undergraduate" />
			<state id="HSC_A_levels" />
			<state id="Postgraduate_MSc_PhD" />
			<state id="Primary_Education" />
			<state id="SSC_O_levels" />
			<parents>﻿Age Financials_of_family</parents>
			<probabilities>0.7661016949152543 0.1220338983050848 0.1050847457627119 0.003389830508474577 0.003389830508474577 0.7567567567567568 0.08108108108108109 0.1081081081081081 0.02702702702702703 0.02702702702702703 0.5428571428571429 0.07857142857142858 0.3642857142857143 0.007142857142857144 0.007142857142857144 0.4727272727272728 0.3818181818181818 0.1090909090909091 0.01818181818181818 0.01818181818181818 0.3333333333333333 0.2222222222222222 0.1111111111111111 0.1111111111111111 0.2222222222222222 0.6400000000000001 0.04000000000000001 0.24 0.04000000000000001 0.04000000000000001 0.43 0.505 0.005000000000000001 0.005000000000000001 0.05500000000000001 0.6222222222222221 0.06666666666666667 0.01111111111111111 0.06666666666666667 0.2333333333333333 0.4727272727272728 0.4727272727272728 0.01818181818181818 0.01818181818181818 0.01818181818181818</probabilities>
			<property id="DSL_OUTCOME_ORDER">1</property>
		</cpt>
		<cpt id="Enjoyable_amount_of_drugs">
			<state id="Multiple_drugs" />
			<state id="I_have_no_idea" />
			<state id="One_drug" />
			<parents>﻿Age</parents>
			<probabilities>0.139344262295082 0.6147540983606558 0.2459016393442623 0.6521739130434783 0.08695652173913043 0.2608695652173913 0.1515151515151515 0.6818181818181819 0.1666666666666667</probabilities>
			<property id="DSL_OUTCOME_ORDER">1</property>
		</cpt>
		<cpt id="Conflict_with_law">
			<state id="Yes" />
			<state id="No" />
			<probabilities>0.2464454976303318 0.7535545023696683</probabilities>
			<property id="DSL_OUTCOME_ORDER">1</property>
		</cpt>
		<cpt id="num_of_friends">
			<state id="Many_more_than_5" />
			<state id="Few_14" />
			<state id="Zero" />
			<probabilities>0.6587677725118484 0.2985781990521327 0.04265402843601896</probabilities>
			<property id="DSL_OUTCOME_ORDER">1</property>
		</cpt>
		<cpt id="friends_houses_at_night">
			<state id="Yes_often_I_do" />
			<state id="No_I_dont" />
			<state id="Sometimes" />
			<probabilities>0.2180094786729858 0.2559241706161138 0.5260663507109005</probabilities>
			<property id="DSL_OUTCOME_ORDER">1</property>
		</cpt>
		<cpt id="Spend_most_time_with">
			<state id="Friends" />
			<state id="Alone" />
			<state id="Family_Relatives" />
			<parents>Education num_of_friends friends_houses_at_night</parents>
			<probabilities>0.84 0.08 0.08 0.35 0.15 0.5 0.6875 0.1666666666666667 0.1458333333333333 0.9047619047619047 0.04761904761904762 0.04761904761904762 0.3333333333333333 0.3333333333333333 0.3333333333333333 0.7058823529411764 0.1176470588235294 0.1764705882352941 0.3333333333333333 0.3333333333333333 0.3333333333333333 0.08333333333333333 0.5833333333333334 0.3333333333333333 0.1666666666666667 0.6666666666666667 0.1666666666666667 0.9333333333333335 0.03333333333333333 0.03333333333333333 0.619047619047619 0.04761904761904762 0.3333333333333333 0.8431372549019608 0.0196078431372549 0.1372549019607843 0.3333333333333333 0.3333333333333333 0.3333333333333333 0.3333333333333333 0.04761904761904762 0.619047619047619 0.5 0.3333333333333333 0.1666666666666667 0.3333333333333333 0.3333333333333333 0.3333333333333333 0.3333333333333333 0.3333333333333333 0.3333333333333333 0.1666666666666667 0.1666666666666667 0.6666666666666667 0.3333333333333333 0.08333333333333333 0.5833333333333334 0.3333333333333333 0.08333333333333333 0.5833333333333334 0.1904761904761905 0.04761904761904762 0.761904761904762 0.3333333333333333 0.3333333333333333 0.3333333333333333 0.1666666666666667 0.6666666666666667 0.1666666666666667 0.3 0.3 0.4 0.3333333333333333 0.3333333333333333 0.3333333333333333 0.3333333333333333 0.3333333333333333 0.3333333333333333 0.3333333333333333 0.3333333333333333 0.3333333333333333 0.3333333333333333 0.3333333333333333 0.3333333333333333 0.3333333333333333 0.3333333333333333 0.3333333333333333 0.3333333333333333 0.3333333333333333 0.3333333333333333 0.3333333333333333 0.3333333333333333 0.3333333333333333 0.3333333333333333 0.3333333333333333 0.3333333333333333 0.1666666666666667 0.6666666666666667 0.1666666666666667 0.1666666666666667 0.6666666666666667 0.1666666666666667 0.1666666666666667 0.6666666666666667 0.1666666666666667 0.3333333333333333 0.3333333333333333 0.3333333333333333 0.3333333333333333 0.3333333333333333 0.3333333333333333 0.1666666666666667 0.1666666666666667 0.6666666666666667 0.7777777777777778 0.1111111111111111 0.1111111111111111 0.6666666666666666 0.1666666666666667 0.1666666666666667 0.3333333333333333 0.3333333333333333 0.3333333333333333 0.8333333333333334 0.08333333333333333 0.08333333333333333 0.1666666666666667 0.6666666666666667 0.1666666666666667 0.1666666666666667 0.6666666666666667 0.1666666666666667 0.3333333333333333 0.3333333333333333 0.3333333333333333</probabilities>
			<property id="DSL_OUTCOME_ORDER">1</property>
		</cpt>
		<cpt id="Failure_in_life">
			<state id="Yes" />
			<state id="No" />
			<probabilities>0.5165876777251185 0.4834123222748816</probabilities>
			<property id="DSL_OUTCOME_ORDER">1</property>
		</cpt>
		<cpt id="Suicidal_thoughts">
			<state id="Yes" />
			<state id="No" />
			<probabilities>0.3222748815165877 0.6777251184834123</probabilities>
			<property id="DSL_OUTCOME_ORDER">1</property>
		</cpt>
		<cpt id="Mental_emotional_problem">
			<state id="Both" />
			<state id="Anxiety" />
			<state id="Depression" />
			<state id="Not_any" />
			<state id="Others" />
			<parents>﻿Age Failure_in_life Suicidal_thoughts num_of_friends</parents>
			<probabilities>0.3142857142857143 0.02857142857142857 0.6 0.02857142857142857 0.02857142857142857 0.1375 0.1375 0.7000000000000001 0.0125 0.0125 0.2 0.2 0.2 0.2 0.2 0.21875 0.21875 0.40625 0.03125 0.125 0.09999999999999999 0.6 0.2666666666666667 0.01666666666666667 0.01666666666666667 0.1 0.1 0.1 0.6 0.1 0.24 0.04000000000000001 0.6400000000000001 0.04000000000000001 0.04000000000000001 0.2 0.2 0.2 0.2 0.2 0.06666666666666667 0.06666666666666667 0.4 0.4 0.06666666666666667 0.1764705882352941 0.3235294117647059 0.1470588235294118 0.2352941176470588 0.1176470588235294 0.01111111111111111 0.7333333333333334 0.1222222222222223 0.01111111111111111 0.1222222222222223 0.2 0.2 0.2 0.2 0.2 0.2 0.5333333333333332 0.2 0.03333333333333333 0.03333333333333333 0.5499999999999999 0.2999999999999999 0.04999999999999999 0.04999999999999999 0.04999999999999999 0.2 0.2 0.2 0.2 0.2 0.2399999999999999 0.4399999999999999 0.03999999999999999 0.03999999999999999 0.2399999999999999 0.1 0.6000000000000001 0.1 0.1 0.1 0.2 0.2 0.2 0.2 0.2 0.06666666666666665 0.7333333333333333 0.06666666666666665 0.06666666666666665 0.06666666666666665 0.3999999999999999 0.3999999999999999 0.06666666666666665 0.06666666666666665 0.06666666666666665 0.2 0.2 0.2 0.2 0.2 0.06666666666666667 0.4 0.06666666666666667 0.4 0.06666666666666667 0.04999999999999999 0.5499999999999999 0.2999999999999999 0.04999999999999999 0.04999999999999999 0.1 0.1 0.1 0.6 0.1 0.1571428571428572 0.08571428571428573 0.7285714285714286 0.01428571428571429 0.01428571428571429 0.3142857142857143 0.02857142857142857 0.6 0.02857142857142857 0.02857142857142857 0.06666666666666665 0.06666666666666665 0.7333333333333333 0.06666666666666665 0.06666666666666665 0.1333333333333334 0.1333333333333334 0.688888888888889 0.02222222222222223 0.02222222222222223 0.06666666666666667 0.4 0.4 0.06666666666666667 0.06666666666666667 0.2 0.2 0.2 0.2 0.2 0.4 0.025 0.275 0.025 0.275 0.2 0.2 0.2 0.2 0.2 0.6000000000000001 0.1 0.1 0.1 0.1 0.1818181818181818 0.2272727272727273 0.09090909090909091 0.09090909090909091 0.4090909090909091 0.04999999999999999 0.5499999999999999 0.2999999999999999 0.04999999999999999 0.04999999999999999 0.4 0.06666666666666667 0.4 0.06666666666666667 0.06666666666666667</probabilities>
			<property id="DSL_OUTCOME_ORDER">1</property>
		</cpt>
		<cpt id="Family_relationship">
			<state id="Satisfactory" />
			<state id="Average" />
			<state id="Communcaiton_gap" />
			<parents>﻿Age Education</parents>
			<probabilities>0.6931818181818182 0.2840909090909091 0.02272727272727273 0.5641025641025641 0.4102564102564102 0.02564102564102564 0.75 0.2 0.05 0.1666666666666667 0.1666666666666667 0.6666666666666667 0.6666666666666666 0.1666666666666667 0.1666666666666667 0.2777777777777777 0.6944444444444443 0.02777777777777777 0.3333333333333333 0.619047619047619 0.04761904761904762 0.5833333333333334 0.3333333333333333 0.08333333333333333 0.1666666666666667 0.6666666666666667 0.1666666666666667 0.1111111111111111 0.4444444444444444 0.4444444444444444 0.6060606060606061 0.303030303030303 0.09090909090909091 0.3461538461538461 0.576923076923077 0.07692307692307693 0.3333333333333333 0.3333333333333333 0.3333333333333333 0.1666666666666667 0.1666666666666667 0.6666666666666667 0.1666666666666667 0.1666666666666667 0.6666666666666666</probabilities>
			<property id="DSL_OUTCOME_ORDER">1</property>
		</cpt>
		<cpt id="Case_in_court">
			<state id="Yes" />
			<state id="No" />
			<parents>Conflict_with_law</parents>
			<probabilities>0.4423076923076923 0.5576923076923077 0.02515723270440252 0.9748427672955975</probabilities>
			<property id="DSL_OUTCOME_ORDER">1</property>
		</cpt>
		<cpt id="Living_with_drug_user">
			<state id="Yes" />
			<state id="No" />
			<state id="Not_sure" />
			<probabilities>0.3601895734597157 0.5924170616113744 0.04739336492890996</probabilities>
			<property id="DSL_OUTCOME_ORDER">1</property>
		</cpt>
		<cpt id="Addicted_person_in_family">
			<state id="Yes" />
			<state id="No" />
			<state id="Not_sure" />
			<parents>Case_in_court Living_with_drug_user</parents>
			<probabilities>0.7777777777777777 0.1111111111111111 0.1111111111111111 0.1666666666666667 0.7916666666666669 0.04166666666666667 0.1111111111111111 0.1111111111111111 0.7777777777777777 0.293103448275862 0.603448275862069 0.103448275862069 0.0423728813559322 0.923728813559322 0.03389830508474576 0.03703703703703703 0.03703703703703703 0.9259259259259258</probabilities>
			<property id="DSL_OUTCOME_ORDER">1</property>
		</cpt>
		<cpt id="Friends_influence">
			<state id="Yes_often_they_do" />
			<state id="No_they_dont" />
			<probabilities>0.3649289099526067 0.6350710900473934</probabilities>
			<property id="DSL_OUTCOME_ORDER">1</property>
		</cpt>
		<cpt id="Ever_taken_drug">
			<state id="Yes" />
			<state id="No" />
			<parents>Enjoyable_amount_of_drugs Conflict_with_law Friends_influence</parents>
			<probabilities>0.9411764705882353 0.05882352941176471 0.75 0.25 0.9333333333333333 0.06666666666666667 0.6666666666666666 0.3333333333333333 0.8333333333333333 0.1666666666666667 0.6666666666666666 0.3333333333333333 0.2666666666666667 0.7333333333333333 0.08163265306122448 0.9183673469387754 0.9583333333333333 0.04166666666666666 0.7272727272727273 0.2727272727272727 0.9230769230769231 0.07692307692307693 0.8333333333333333 0.1666666666666667</probabilities>
			<property id="DSL_OUTCOME_ORDER">1</property>
		</cpt>
		<cpt id="Withdrawal_symptoms">
			<state id="Yes" />
			<state id="No" />
			<state id="I_have_no_idea" />
			<parents>Ever_taken_drug</parents>
			<probabilities>0.3917525773195876 0.3711340206185567 0.2371134020618557 0.08771929824561403 0.1491228070175439 0.763157894736842</probabilities>
			<property id="DSL_OUTCOME_ORDER">1</property>
		</cpt>
		<cpt id="Satisfied_with_workplace">
			<state id="Yes" />
			<state id="No" />
			<probabilities>0.6255924170616114 0.3744075829383887</probabilities>
			<property id="DSL_OUTCOME_ORDER">1</property>
		</cpt>
		<cpt id="Would_try_drugs">
			<state id="Ill_try" />
			<state id="i_dont_know_confused" />
			<state id="no_ill_not" />
			<parents>Enjoyable_amount_of_drugs Satisfied_with_workplace</parents>
			<probabilities>0.5 0.04166666666666666 0.4583333333333333 0.7222222222222222 0.1666666666666667 0.1111111111111111 0.1647058823529412 0.2235294117647059 0.611764705882353 0.1351351351351351 0.5405405405405406 0.3243243243243243 0.7391304347826086 0.08695652173913043 0.1739130434782609 0.7916666666666666 0.125 0.08333333333333333</probabilities>
			<property id="DSL_OUTCOME_ORDER">1</property>
		</cpt>
		<cpt id="Frequency_of_drugs">
			<state id="Regularly" />
			<state id="Never_Not_applicable" />
			<state id="Occasionally" />
			<state id="Once_twice_a_week" />
			<parents>Enjoyable_amount_of_drugs Living_with_drug_user Ever_taken_drug</parents>
			<probabilities>0.4125 0.0125 0.1125 0.4625 0.25 0.05 0.65 0.05 0.05882352941176471 0.1176470588235294 0.4705882352941176 0.3529411764705882 0.125 0.125 0.125 0.625 0.125 0.125 0.625 0.125 0.25 0.25 0.25 0.25 0.04166666666666666 0.2083333333333333 0.7083333333333333 0.04166666666666666 0.01136363636363636 0.9204545454545455 0.01136363636363636 0.05681818181818182 0.02083333333333333 0.2708333333333333 0.4375 0.2708333333333333 0.003125 0.978125 0.015625 0.003125 0.0625 0.0625 0.3125 0.5625 0.0625 0.5625 0.3125 0.0625 0.2403846153846154 0.009615384615384616 0.3942307692307693 0.3557692307692308 0.75 0.08333333333333333 0.08333333333333333 0.08333333333333333 0.01666666666666667 0.15 0.6166666666666667 0.2166666666666667 0.3125 0.3125 0.3125 0.0625 0.75 0.08333333333333333 0.08333333333333333 0.08333333333333333 0.125 0.625 0.125 0.125</probabilities>
			<property id="DSL_OUTCOME_ORDER">1</property>
		</cpt>
		<cpt id="Smoking">
			<state id="Yes_every_day" />
			<state id="No_I_dont" />
			<state id="Yes_occasionally" />
			<parents>Gender Withdrawal_symptoms Ever_taken_drug Would_try_drugs Frequency_of_drugs</parents>
			<probabilities>0.9166666666666669 0.04166666666666667 0.04166666666666667 0.8333333333333334 0.08333333333333333 0.08333333333333333 0.9333333333333332 0.03333333333333333 0.03333333333333333 0.9259259259259258 0.03703703703703703 0.03703703703703703 0.3333333333333333 0.3333333333333333 0.3333333333333333 0.3333333333333333 0.3333333333333333 0.3333333333333333 0.8333333333333334 0.08333333333333333 0.08333333333333333 0.3333333333333333 0.3333333333333333 0.3333333333333333 0.3333333333333333 0.3333333333333333 0.3333333333333333 0.6666666666666667 0.1666666666666667 0.1666666666666667 0.4444444444444444 0.4444444444444444 0.1111111111111111 0.3333333333333333 0.3333333333333333 0.3333333333333333 0.3333333333333333 0.3333333333333333 0.3333333333333333 0.6666666666666667 0.1666666666666667 0.1666666666666667 0.3333333333333333 0.3333333333333333 0.3333333333333333 0.3333333333333333 0.3333333333333333 0.3333333333333333 0.3333333333333333 0.3333333333333333 0.3333333333333333 0.7777777777777777 0.1111111111111111 0.1111111111111111 0.3333333333333333 0.3333333333333333 0.3333333333333333 0.3333333333333333 0.3333333333333333 0.3333333333333333 0.3333333333333333 0.3333333333333333 0.3333333333333333 0.5555555555555556 0.05555555555555555 0.3888888888888889 0.3333333333333333 0.3333333333333333 0.3333333333333333 0.3333333333333333 0.3333333333333333 0.3333333333333333 0.8333333333333334 0.08333333333333333 0.08333333333333333 0.1666666666666667 0.6666666666666667 0.1666666666666667 0.6666666666666666 0.1666666666666667 0.1666666666666667 0.9047619047619049 0.04761904761904762 0.04761904761904762 0.3333333333333333 0.3333333333333333 0.3333333333333333 0.3333333333333333 0.3333333333333333 0.3333333333333333 0.5833333333333334 0.08333333333333333 0.3333333333333333 0.1666666666666667 0.6666666666666667 0.1666666666666667 0.6666666666666667 0.1666666666666667 0.1666666666666667 0.3333333333333333 0.3333333333333333 0.3333333333333333 0.3333333333333333 0.1666666666666667 0.5 0.3333333333333333 0.08333333333333333 0.5833333333333334 0.3333333333333333 0.3333333333333333 0.3333333333333333 0.08333333333333333 0.08333333333333333 0.8333333333333334 0.3333333333333333 0.3333333333333333 0.3333333333333333 0.3333333333333333 0.3333333333333333 0.3333333333333333 0.3333333333333333 0.3333333333333333 0.3333333333333333 0.3333333333333333 0.3333333333333333 0.3333333333333333 0.3333333333333333 0.3333333333333333 0.3333333333333333 0.3333333333333333 0.3333333333333333 0.3333333333333333 0.3333333333333333 0.3333333333333333 0.3333333333333333 0.4 0.2 0.4 0.3333333333333333 0.3333333333333333 0.3333333333333333 0.6666666666666667 0.1666666666666667 0.1666666666666667 0.8666666666666668 0.06666666666666668 0.06666666666666668 0.3333333333333333 0.3333333333333333 0.3333333333333333 0.4666666666666667 0.06666666666666667 0.4666666666666667 0.888888888888889 0.05555555555555556 0.05555555555555556 0.3333333333333333 0.3333333333333333 0.3333333333333333 0.3333333333333333 0.3333333333333333 0.3333333333333333 0.4444444444444444 0.1111111111111111 0.4444444444444444 0.7777777777777777 0.1111111111111111 0.1111111111111111 0.3333333333333333 0.3333333333333333 0.3333333333333333 0.1111111111111111 0.7777777777777777 0.1111111111111111 0.3333333333333333 0.3333333333333333 0.3333333333333333 0.3333333333333333 0.3333333333333333 0.3333333333333333 0.3333333333333333 0.3333333333333333 0.3333333333333333 0.8333333333333334 0.08333333333333333 0.08333333333333333 0.6666666666666667 0.1666666666666667 0.1666666666666667 0.3333333333333333 0.3333333333333333 0.3333333333333333 0.3333333333333333 0.3333333333333333 0.3333333333333333 0.1875 0.3125 0.5 0.5833333333333334 0.08333333333333333 0.3333333333333333 0.3333333333333333 0.3333333333333333 0.3333333333333333 0.1666666666666667 0.1666666666666667 0.6666666666666666 0.05263157894736842 0.8421052631578947 0.1052631578947368 0.3333333333333333 0.3333333333333333 0.3333333333333333 0.3333333333333333 0.3333333333333333 0.3333333333333333 0.6666666666666667 0.1666666666666667 0.1666666666666667 0.3333333333333333 0.3333333333333333 0.3333333333333333 0.1111111111111111 0.1111111111111111 0.7777777777777778 0.3333333333333333 0.3333333333333333 0.3333333333333333 0.3333333333333333 0.3333333333333333 0.3333333333333333 0.3333333333333333 0.3333333333333333 0.3333333333333333 0.3333333333333333 0.3333333333333333 0.3333333333333333 0.6666666666666667 0.1666666666666667 0.1666666666666667 0.3333333333333333 0.3333333333333333 0.3333333333333333 0.3333333333333333 0.3333333333333333 0.3333333333333333 0.1666666666666667 0.1666666666666667 0.6666666666666666 0.3333333333333333 0.3333333333333333 0.3333333333333333 0.3333333333333333 0.3333333333333333 0.3333333333333333 0.3333333333333333 0.3333333333333333 0.3333333333333333 0.3333333333333333 0.3333333333333333 0.3333333333333333 0.3333333333333333 0.3333333333333333 0.3333333333333333 0.3333333333333333 0.3333333333333333 0.3333333333333333 0.3333333333333333 0.3333333333333333 0.3333333333333333 0.3333333333333333 0.3333333333333333 0.3333333333333333 0.3333333333333333 0.3333333333333333 0.3333333333333333 0.1666666666666667 0.1666666666666667 0.6666666666666666 0.3333333333333333 0.3333333333333333 0.3333333333333333 0.3333333333333333 0.3333333333333333 0.3333333333333333 0.1666666666666667 0.1666666666666667 0.6666666666666666 0.3333333333333333 0.3333333333333333 0.3333333333333333 0.3333333333333333 0.3333333333333333 0.3333333333333333 0.1666666666666667 0.1666666666666667 0.6666666666666666 0.4444444444444444 0.1111111111111111 0.4444444444444444 0.3333333333333333 0.3333333333333333 0.3333333333333333 0.1666666666666667 0.1666666666666667 0.6666666666666666 0.3333333333333333 0.3333333333333333 0.3333333333333333 0.3333333333333333 0.3333333333333333 0.3333333333333333 0.6666666666666667 0.1666666666666667 0.1666666666666667 0.3333333333333333 0.3333333333333333 0.3333333333333333 0.1666666666666667 0.1666666666666667 0.6666666666666666 0.3333333333333333 0.3333333333333333 0.3333333333333333 0.3333333333333333 0.3333333333333333 0.3333333333333333 0.1666666666666667 0.1666666666666667 0.6666666666666666 0.3333333333333333 0.3333333333333333 0.3333333333333333 0.3333333333333333 0.3333333333333333 0.3333333333333333 0.3333333333333333 0.3333333333333333 0.3333333333333333 0.1666666666666667 0.6666666666666667 0.1666666666666667 0.3333333333333333 0.3333333333333333 0.3333333333333333 0.3333333333333333 0.3333333333333333 0.3333333333333333 0.1666666666666667 0.1666666666666667 0.6666666666666666 0.06666666666666667 0.6666666666666667 0.2666666666666667 0.1666666666666667 0.1666666666666667 0.6666666666666666 0.3333333333333333 0.3333333333333333 0.3333333333333333 0.3333333333333333 0.3333333333333333 0.3333333333333333 0.3333333333333333 0.3333333333333333 0.3333333333333333 0.3333333333333333 0.3333333333333333 0.3333333333333333 0.4444444444444444 0.1111111111111111 0.4444444444444444 0.3333333333333333 0.3333333333333333 0.3333333333333333 0.3333333333333333 0.3333333333333333 0.3333333333333333 0.3333333333333333 0.3333333333333333 0.3333333333333333 0.3333333333333333 0.3333333333333333 0.3333333333333333 0.3333333333333333 0.3333333333333333 0.3333333333333333 0.3333333333333333 0.3333333333333333 0.3333333333333333 0.3333333333333333 0.3333333333333333 0.3333333333333333 0.1111111111111111 0.1111111111111111 0.7777777777777778 0.6666666666666667 0.1666666666666667 0.1666666666666667 0.04761904761904762 0.619047619047619 0.3333333333333333 0.3333333333333333 0.3333333333333333 0.3333333333333333 0.3333333333333333 0.3333333333333333 0.3333333333333333 0.3333333333333333 0.3333333333333333 0.3333333333333333 0.02380952380952381 0.8095238095238095 0.1666666666666667 0.3333333333333333 0.3333333333333333 0.3333333333333333 0.3333333333333333 0.3333333333333333 0.3333333333333333 0.3333333333333333 0.3333333333333333 0.3333333333333333 0.01388888888888889 0.9722222222222223 0.01388888888888889 0.1666666666666667 0.6666666666666667 0.1666666666666667 0.3333333333333333 0.3333333333333333 0.3333333333333333</probabilities>
			<property id="DSL_OUTCOME_ORDER">1</property>
		</cpt>
	</nodes>
	<extensions>
		<genie version="1.0" app="GeNIe 5.0.4708.0 ACADEMIC" name="Peter_Clark">
			<node id="﻿Age">
				<name>﻿Age</name>
				<interior color="e5f6f7" />
				<outline color="000080" />
				<font color="000000" name="Arial" size="8" />
				<position>475 22 547 70</position>
				<barchart active="true" width="128" height="72" />
			</node>
			<node id="Gender">
				<name>Gender</name>
				<interior color="e5f6f7" />
				<outline color="000080" />
				<font color="000000" name="Arial" size="8" />
				<position>68 625 140 673</position>
				<barchart active="true" width="128" height="64" />
			</node>
			<node id="Education">
				<name>Education</name>
				<interior color="e5f6f7" />
				<outline color="000080" />
				<font color="000000" name="Arial" size="8" />
				<position>548 173 620 221</position>
				<barchart active="true" width="128" height="108" />
			</node>
			<node id="Enjoyable_amount_of_drugs">
				<name>Enjoyable_amount_of_drugs</name>
				<interior color="e5f6f7" />
				<outline color="000080" />
				<font color="000000" name="Arial" size="8" />
				<position>306 135 378 183</position>
				<barchart active="true" width="128" height="72" />
			</node>
			<node id="Conflict_with_law">
				<name>Conflict_with_law</name>
				<interior color="e5f6f7" />
				<outline color="000080" />
				<font color="000000" name="Arial" size="8" />
				<position>479 428 551 476</position>
				<barchart active="true" width="128" height="64" />
			</node>
			<node id="Spend_most_time_with">
				<name>Spend_most_time_with</name>
				<interior color="e5f6f7" />
				<outline color="000080" />
				<font color="000000" name="Arial" size="8" />
				<position>626 441 698 489</position>
				<barchart active="true" width="128" height="72" />
			</node>
			<node id="Failure_in_life">
				<name>Failure_in_life</name>
				<interior color="e5f6f7" />
				<outline color="000080" />
				<font color="000000" name="Arial" size="8" />
				<position>852 89 924 137</position>
				<barchart active="true" width="128" height="64" />
			</node>
			<node id="Mental_emotional_problem">
				<name>Mental_emotional_problem</name>
				<interior color="e5f6f7" />
				<outline color="000080" />
				<font color="000000" name="Arial" size="8" />
				<position>825 239 897 287</position>
				<barchart active="true" width="128" height="108" />
			</node>
			<node id="Suicidal_thoughts">
				<name>Suicidal_thoughts</name>
				<interior color="e5f6f7" />
				<outline color="000080" />
				<font color="000000" name="Arial" size="8" />
				<position>1032 243 1104 291</position>
				<barchart active="true" width="128" height="64" />
			</node>
			<node id="Family_relationship">
				<name>Family_relationship</name>
				<interior color="e5f6f7" />
				<outline color="000080" />
				<font color="000000" name="Arial" size="8" />
				<position>444 317 516 365</position>
				<barchart active="true" width="128" height="72" />
			</node>
			<node id="Financials_of_family">
				<name>Financials_of_family</name>
				<interior color="e5f6f7" />
				<outline color="000080" />
				<font color="000000" name="Arial" size="8" />
				<position>675 42 747 90</position>
				<barchart active="true" width="128" height="72" />
			</node>
			<node id="Addicted_person_in_family">
				<name>Addicted_person_in_family</name>
				<interior color="e5f6f7" />
				<outline color="000080" />
				<font color="000000" name="Arial" size="8" />
				<position>577 672 649 720</position>
				<barchart active="true" width="128" height="72" />
			</node>
			<node id="num_of_friends">
				<name>num_of_friends</name>
				<interior color="e5f6f7" />
				<outline color="000080" />
				<font color="000000" name="Arial" size="8" />
				<position>653 295 725 343</position>
				<barchart active="true" width="128" height="72" />
			</node>
			<node id="Withdrawal_symptoms">
				<name>Withdrawal_symptoms</name>
				<interior color="e5f6f7" />
				<outline color="000080" />
				<font color="000000" name="Arial" size="8" />
				<position>416 669 488 717</position>
				<barchart active="true" width="128" height="72" />
			</node>
			<node id="friends_houses_at_night">
				<name>friends_houses_at_night</name>
				<interior color="e5f6f7" />
				<outline color="000080" />
				<font color="000000" name="Arial" size="8" />
				<position>835 370 907 418</position>
				<barchart active="true" width="128" height="72" />
			</node>
			<node id="Satisfied_with_workplace">
				<name>Satisfied_with_workplace</name>
				<interior color="e5f6f7" />
				<outline color="000080" />
				<font color="000000" name="Arial" size="8" />
				<position>119 91 191 139</position>
				<barchart active="true" width="128" height="64" />
			</node>
			<node id="Case_in_court">
				<name>Case_in_court</name>
				<interior color="e5f6f7" />
				<outline color="000080" />
				<font color="000000" name="Arial" size="8" />
				<position>645 542 717 590</position>
				<barchart active="true" width="128" height="64" />
			</node>
			<node id="Living_with_drug_user">
				<name>Living_with_drug_user</name>
				<interior color="e5f6f7" />
				<outline color="000080" />
				<font color="000000" name="Arial" size="8" />
				<position>438 530 510 578</position>
				<barchart active="true" width="128" height="72" />
			</node>
			<node id="Smoking">
				<name>Smoking</name>
				<interior color="e5f6f7" />
				<outline color="000080" />
				<font color="000000" name="Arial" size="8" />
				<position>260 661 332 709</position>
				<barchart active="true" width="128" height="72" />
			</node>
			<node id="Ever_taken_drug">
				<name>Ever_taken_drug</name>
				<interior color="e5f6f7" />
				<outline color="000080" />
				<font color="000000" name="Arial" size="8" />
				<position>296 425 368 473</position>
				<barchart active="true" width="128" height="64" />
			</node>
			<node id="Friends_influence">
				<name>Friends_influence</name>
				<interior color="e5f6f7" />
				<outline color="000080" />
				<font color="000000" name="Arial" size="8" />
				<position>66 347 138 395</position>
				<barchart active="true" width="128" height="64" />
			</node>
			<node id="Would_try_drugs">
				<name>Would_try_drugs</name>
				<interior color="e5f6f7" />
				<outline color="000080" />
				<font color="000000" name="Arial" size="8" />
				<position>120 234 192 282</position>
				<barchart active="true" width="128" height="72" />
			</node>
			<node id="Frequency_of_drugs">
				<name>Frequency_of_drugs</name>
				<interior color="e5f6f7" />
				<outline color="000080" />
				<font color="000000" name="Arial" size="8" />
				<position>69 510 141 558</position>
				<barchart active="true" width="128" height="90" />
			</node>
			<textbox>
				<caption>Input file: finalall\nData rows: 169\nElapsed time: 0.078s\n\nLearning algorithm: PC\nAlgorithm parameters:\nMax adjacency: 4\nSignificance: 0.01\nMax search time: 0\nBackground knowledge was provided:\n  forbidden arcs: 49\n  nodes assigned to tiers: 24\n\nEM Log Likelihood: -3738.84</caption>
				<font color="000000" name="Arial" size="8" />
				<position>1002 393 1189 589</position>
			</textbox>
		</genie>
	</extensions>
</smile>
