<?xml version="1.0" encoding="UTF-8"?>
<!-- This network was created in GeNIe Academic, which can be used for academic teaching and research purposes only -->
<smile version="1.0" id="finalall" numsamples="10000" discsamples="10000">
	<nodes>
		<cpt id="Ever_taken_drug">
			<state id="Yes" />
			<state id="No" />
			<probabilities>0.4597156398104266 0.5402843601895735</probabilities>
			<property id="DSL_OUTCOME_ORDER">1</property>
		</cpt>
		<cpt id="Withdrawal_symptoms">
			<state id="Yes" />
			<state id="I_have_no_idea" />
			<state id="No" />
			<parents>Ever_taken_drug</parents>
			<probabilities>0.3917525773195876 0.2371134020618557 0.3711340206185567 0.08771929824561403 0.763157894736842 0.1491228070175439</probabilities>
			<property id="DSL_OUTCOME_ORDER">1</property>
		</cpt>
		<cpt id="Conflict_with_law">
			<state id="Yes" />
			<state id="No" />
			<parents>Withdrawal_symptoms Ever_taken_drug</parents>
			<probabilities>0.5263157894736842 0.4736842105263158 0.3 0.7000000000000001 0.3478260869565217 0.6521739130434783 0.005681818181818182 0.9943181818181819 0.4722222222222222 0.5277777777777778 0.2352941176470588 0.7647058823529411</probabilities>
			<property id="DSL_OUTCOME_ORDER">1</property>
		</cpt>
		<cpt id="Case_in_court">
			<state id="Yes" />
			<state id="No" />
			<parents>Conflict_with_law</parents>
			<probabilities>0.4423076923076923 0.5576923076923077 0.02515723270440252 0.9748427672955975</probabilities>
			<property id="DSL_OUTCOME_ORDER">1</property>
		</cpt>
		<cpt id="Education">
			<state id="Undergraduate" />
			<state id="HSC_A_levels" />
			<state id="Postgraduate_MSc_PhD" />
			<state id="Primary_Education" />
			<state id="SSC_O_levels" />
			<parents>Case_in_court</parents>
			<probabilities>0.4357142857142857 0.2571428571428571 0.007142857142857143 0.1142857142857143 0.1857142857142857 0.6497297297297298 0.2010810810810811 0.1254054054054054 0.001081081081081081 0.0227027027027027</probabilities>
			<property id="DSL_OUTCOME_ORDER">1</property>
		</cpt>
		<cpt id="Gender">
			<state id="Male" />
			<state id="Female" />
			<probabilities>0.6729857819905214 0.3270142180094787</probabilities>
			<property id="DSL_OUTCOME_ORDER">1</property>
		</cpt>
		<cpt id="Enjoyable_amount_of_drugs">
			<state id="Multiple_drugs" />
			<state id="I_have_no_idea" />
			<state id="One_drug" />
			<parents>Case_in_court Ever_taken_drug</parents>
			<probabilities>0.4666666666666667 0.01666666666666667 0.5166666666666667 0.3703703703703703 0.03703703703703703 0.5925925925925926 0.358974358974359 0.2435897435897436 0.3974358974358974 0.01886792452830189 0.9716981132075472 0.009433962264150943</probabilities>
			<property id="DSL_OUTCOME_ORDER">1</property>
		</cpt>
		<cpt id="Family_relationship">
			<state id="Satisfactory" />
			<state id="Average" />
			<state id="Communcaiton_gap" />
			<parents>Education Ever_taken_drug</parents>
			<probabilities>0.3728813559322034 0.6101694915254238 0.01694915254237288 0.8493150684931506 0.0958904109589041 0.0547945205479452 0.15 0.75 0.1 0.6133333333333334 0.3733333333333334 0.01333333333333333 0.5 0.375 0.125 0.8333333333333334 0.1458333333333333 0.02083333333333333 0.08333333333333333 0.3333333333333333 0.5833333333333334 0.3333333333333333 0.3333333333333333 0.3333333333333333 0.1428571428571428 0.1428571428571428 0.7142857142857142 0.4444444444444444 0.4444444444444444 0.1111111111111111</probabilities>
			<property id="DSL_OUTCOME_ORDER">1</property>
		</cpt>
		<cpt id="Spend_most_time_with">
			<state id="Friends" />
			<state id="Family_Relatives" />
			<state id="Alone" />
			<parents>Family_relationship</parents>
			<probabilities>0.5289256198347108 0.371900826446281 0.09917355371900827 0.7200000000000001 0.06666666666666667 0.2133333333333333 0.6 0.06666666666666667 0.3333333333333333</probabilities>
			<property id="DSL_OUTCOME_ORDER">1</property>
		</cpt>
		<cpt id="Suicidal_thoughts">
			<state id="Yes" />
			<state id="No" />
			<parents>Enjoyable_amount_of_drugs</parents>
			<probabilities>0.5476190476190476 0.4523809523809523 0.2131147540983607 0.7868852459016393 0.4042553191489361 0.5957446808510638</probabilities>
			<property id="DSL_OUTCOME_ORDER">1</property>
		</cpt>
		<cpt id="Financials_of_family">
			<state id="Upper_Class" />
			<state id="Medium" />
			<state id="Lower_Class" />
			<parents>Education</parents>
			<probabilities>0.1742424242424243 0.5075757575757576 0.3181818181818182 0.1590909090909091 0.7045454545454546 0.1363636363636364 0.4782608695652174 0.3043478260869565 0.2173913043478261 0.08333333333333333 0.08333333333333333 0.8333333333333334 0.03333333333333333 0.2333333333333334 0.7333333333333334</probabilities>
			<property id="DSL_OUTCOME_ORDER">1</property>
		</cpt>
		<cpt id="Living_with_drug_user">
			<state id="Yes" />
			<state id="Not_sure" />
			<state id="No" />
			<parents>Enjoyable_amount_of_drugs</parents>
			<probabilities>0.5476190476190476 0.02380952380952381 0.4285714285714285 0.2131147540983607 0.04918032786885246 0.7377049180327869 0.5744680851063829 0.06382978723404255 0.3617021276595744</probabilities>
			<property id="DSL_OUTCOME_ORDER">1</property>
		</cpt>
		<cpt id="Addicted_person_in_family">
			<state id="Yes" />
			<state id="No" />
			<state id="Not_sure" />
			<parents>Case_in_court Living_with_drug_user</parents>
			<probabilities>0.7777777777777777 0.1111111111111111 0.1111111111111111 0.1111111111111111 0.1111111111111111 0.7777777777777777 0.1666666666666667 0.7916666666666669 0.04166666666666667 0.293103448275862 0.603448275862069 0.103448275862069 0.03703703703703703 0.03703703703703703 0.9259259259259258 0.0423728813559322 0.923728813559322 0.03389830508474576</probabilities>
			<property id="DSL_OUTCOME_ORDER">1</property>
		</cpt>
		<cpt id="num_of_friends">
			<state id="Many_more_than_5" />
			<state id="Few_14" />
			<state id="Zero" />
			<parents>Education</parents>
			<probabilities>0.7045454545454546 0.2651515151515151 0.0303030303030303 0.7045454545454546 0.2727272727272727 0.02272727272727273 0.5138888888888888 0.4722222222222222 0.01388888888888889 0.08333333333333333 0.3333333333333333 0.5833333333333334 0.3333333333333333 0.4444444444444444 0.2222222222222222</probabilities>
			<property id="DSL_OUTCOME_ORDER">1</property>
		</cpt>
		<cpt id="friends_houses_at_night">
			<state id="Yes_often_I_do" />
			<state id="No_I_dont" />
			<state id="Sometimes" />
			<parents>Ever_taken_drug</parents>
			<probabilities>0.3505154639175257 0.1237113402061856 0.5257731958762887 0.1052631578947368 0.3684210526315789 0.5263157894736842</probabilities>
			<property id="DSL_OUTCOME_ORDER">1</property>
		</cpt>
		<cpt id="Frequency_of_drugs">
			<state id="Regularly" />
			<state id="Never_Not_applicable" />
			<state id="Occasionally" />
			<state id="Once_twice_a_week" />
			<parents>Enjoyable_amount_of_drugs Living_with_drug_user Ever_taken_drug</parents>
			<probabilities>0.4125 0.0125 0.1125 0.4625 0.25 0.05 0.65 0.05 0.125 0.125 0.625 0.125 0.25 0.25 0.25 0.25 0.05882352941176471 0.1176470588235294 0.4705882352941176 0.3529411764705882 0.125 0.125 0.125 0.625 0.04166666666666666 0.2083333333333333 0.7083333333333333 0.04166666666666666 0.01136363636363636 0.9204545454545455 0.01136363636363636 0.05681818181818182 0.0625 0.0625 0.3125 0.5625 0.0625 0.5625 0.3125 0.0625 0.02083333333333333 0.2708333333333333 0.4375 0.2708333333333333 0.003125 0.978125 0.015625 0.003125 0.2403846153846154 0.009615384615384616 0.3942307692307693 0.3557692307692308 0.75 0.08333333333333333 0.08333333333333333 0.08333333333333333 0.75 0.08333333333333333 0.08333333333333333 0.08333333333333333 0.125 0.625 0.125 0.125 0.01666666666666667 0.15 0.6166666666666667 0.2166666666666667 0.3125 0.3125 0.3125 0.0625</probabilities>
			<property id="DSL_OUTCOME_ORDER">1</property>
		</cpt>
		<cpt id="Smoking">
			<state id="Yes_every_day" />
			<state id="No_I_dont" />
			<state id="Yes_occasionally" />
			<parents>Gender Withdrawal_symptoms Frequency_of_drugs</parents>
			<probabilities>0.9166666666666669 0.04166666666666667 0.04166666666666667 0.7948717948717948 0.02564102564102564 0.1794871794871795 0.8888888888888887 0.08888888888888886 0.02222222222222222 0.9259259259259258 0.03703703703703703 0.03703703703703703 0.7222222222222222 0.05555555555555556 0.2222222222222222 0.175 0.5750000000000001 0.25 0.5757575757575758 0.0303030303030303 0.3939393939393939 0.9166666666666669 0.04166666666666667 0.04166666666666667 0.8666666666666668 0.06666666666666668 0.06666666666666668 0.2222222222222222 0.2222222222222222 0.5555555555555556 0.5333333333333333 0.1333333333333333 0.3333333333333333 0.7272727272727273 0.09090909090909091 0.1818181818181818 0.4444444444444444 0.1111111111111111 0.4444444444444444 0.3333333333333333 0.3333333333333333 0.3333333333333333 0.08333333333333333 0.08333333333333333 0.8333333333333334 0.4444444444444444 0.1111111111111111 0.4444444444444444 0.6666666666666667 0.1666666666666667 0.1666666666666667 0.007751937984496122 0.8914728682170542 0.1007751937984496 0.1666666666666667 0.6666666666666667 0.1666666666666667 0.2666666666666667 0.06666666666666667 0.6666666666666667 0.4444444444444444 0.1111111111111111 0.4444444444444444 0.04166666666666666 0.5416666666666666 0.4166666666666667 0.08333333333333333 0.08333333333333333 0.8333333333333334 0.4444444444444444 0.1111111111111111 0.4444444444444444</probabilities>
			<property id="DSL_OUTCOME_ORDER">1</property>
		</cpt>
		<cpt id="Friends_influence">
			<state id="Yes_often_they_do" />
			<state id="No_they_dont" />
			<parents>Ever_taken_drug</parents>
			<probabilities>0.6391752577319587 0.3608247422680412 0.131578947368421 0.8684210526315789</probabilities>
			<property id="DSL_OUTCOME_ORDER">1</property>
		</cpt>
		<cpt id="Would_try_drugs">
			<state id="Ill_try" />
			<state id="i_dont_know_confused" />
			<state id="no_ill_not" />
			<parents>Enjoyable_amount_of_drugs num_of_friends Smoking</parents>
			<probabilities>0.9122807017543861 0.07017543859649124 0.01754385964912281 0.1666666666666667 0.1666666666666667 0.6666666666666666 0.3095238095238095 0.02380952380952381 0.6666666666666666 0.25 0.5 0.25 0.3333333333333333 0.3333333333333333 0.3333333333333333 0.08333333333333333 0.3333333333333333 0.5833333333333334 0.7777777777777777 0.1111111111111111 0.1111111111111111 0.6666666666666667 0.1666666666666667 0.1666666666666667 0.3333333333333333 0.3333333333333333 0.3333333333333333 0.1739130434782609 0.4347826086956522 0.3913043478260869 0.07142857142857142 0.2380952380952381 0.6904761904761905 0.4 0.2 0.4 0.6666666666666666 0.1666666666666667 0.1666666666666667 0.01333333333333333 0.2933333333333333 0.6933333333333332 0.1481481481481481 0.8148148148148148 0.03703703703703703 0.1666666666666667 0.6666666666666667 0.1666666666666667 0.6666666666666667 0.1666666666666667 0.1666666666666667 0.1111111111111111 0.1111111111111111 0.7777777777777778 0.9090909090909092 0.04545454545454546 0.04545454545454546 0.1666666666666667 0.1666666666666667 0.6666666666666666 0.6666666666666667 0.2666666666666667 0.06666666666666667 0.8717948717948717 0.02564102564102564 0.1025641025641025 0.4444444444444444 0.4444444444444444 0.1111111111111111 0.06666666666666667 0.4666666666666667 0.4666666666666667 0.4444444444444444 0.1111111111111111 0.4444444444444444 0.3333333333333333 0.3333333333333333 0.3333333333333333 0.3333333333333333 0.3333333333333333 0.3333333333333333</probabilities>
			<property id="DSL_OUTCOME_ORDER">1</property>
		</cpt>
	</nodes>
	<extensions>
		<genie version="1.0" app="GeNIe 5.0.4708.0 ACADEMIC" name="Greedy_Thick_Thinning">
			<node id="Gender">
				<name>Gender</name>
				<interior color="e5f6f7" />
				<outline color="000080" />
				<font color="000000" name="Arial" size="8" />
				<position>43 388 115 436</position>
				<barchart active="true" width="128" height="64" />
			</node>
			<node id="Education">
				<name>Education</name>
				<interior color="e5f6f7" />
				<outline color="000080" />
				<font color="000000" name="Arial" size="8" />
				<position>768 232 840 280</position>
				<barchart active="true" width="128" height="108" />
			</node>
			<node id="Enjoyable_amount_of_drugs">
				<name>Enjoyable_amount_of_drugs</name>
				<interior color="e5f6f7" />
				<outline color="000080" />
				<font color="000000" name="Arial" size="8" />
				<position>454 288 526 336</position>
				<barchart active="true" width="128" height="86" />
			</node>
			<node id="Conflict_with_law">
				<name>Conflict_with_law</name>
				<interior color="e5f6f7" />
				<outline color="000080" />
				<font color="000000" name="Arial" size="8" />
				<position>560 109 632 157</position>
				<barchart active="true" width="128" height="64" />
			</node>
			<node id="Spend_most_time_with">
				<name>Spend_most_time_with</name>
				<interior color="e5f6f7" />
				<outline color="000080" />
				<font color="000000" name="Arial" size="8" />
				<position>1109 431 1181 479</position>
				<barchart active="true" width="128" height="86" />
			</node>
			<node id="Suicidal_thoughts">
				<name>Suicidal_thoughts</name>
				<interior color="e5f6f7" />
				<outline color="000080" />
				<font color="000000" name="Arial" size="8" />
				<position>611 414 683 462</position>
				<barchart active="true" width="128" height="64" />
			</node>
			<node id="Family_relationship">
				<name>Family_relationship</name>
				<interior color="e5f6f7" />
				<outline color="000080" />
				<font color="000000" name="Arial" size="8" />
				<position>1029 260 1101 308</position>
				<barchart active="true" width="128" height="72" />
			</node>
			<node id="Financials_of_family">
				<name>Financials_of_family</name>
				<interior color="e5f6f7" />
				<outline color="000080" />
				<font color="000000" name="Arial" size="8" />
				<position>930 374 1002 422</position>
				<barchart active="true" width="128" height="72" />
			</node>
			<node id="Addicted_person_in_family">
				<name>Addicted_person_in_family</name>
				<interior color="e5f6f7" />
				<outline color="000080" />
				<font color="000000" name="Arial" size="8" />
				<position>103 221 175 269</position>
				<barchart active="true" width="128" height="72" />
			</node>
			<node id="num_of_friends">
				<name>num_of_friends</name>
				<interior color="e5f6f7" />
				<outline color="000080" />
				<font color="000000" name="Arial" size="8" />
				<position>842 509 914 557</position>
				<barchart active="true" width="128" height="72" />
			</node>
			<node id="Withdrawal_symptoms">
				<name>Withdrawal_symptoms</name>
				<interior color="e5f6f7" />
				<outline color="000080" />
				<font color="000000" name="Arial" size="8" />
				<position>270 38 342 86</position>
				<barchart active="true" width="128" height="72" />
			</node>
			<node id="friends_houses_at_night">
				<name>friends_houses_at_night</name>
				<interior color="e5f6f7" />
				<outline color="000080" />
				<font color="000000" name="Arial" size="8" />
				<position>1051 130 1123 178</position>
				<barchart active="true" width="128" height="86" />
			</node>
			<node id="Case_in_court">
				<name>Case_in_court</name>
				<interior color="e5f6f7" />
				<outline color="000080" />
				<font color="000000" name="Arial" size="8" />
				<position>352 179 424 227</position>
				<barchart active="true" width="128" height="64" />
			</node>
			<node id="Living_with_drug_user">
				<name>Living_with_drug_user</name>
				<interior color="e5f6f7" />
				<outline color="000080" />
				<font color="000000" name="Arial" size="8" />
				<position>298 350 370 398</position>
				<barchart active="true" width="128" height="72" />
			</node>
			<node id="Smoking">
				<name>Smoking</name>
				<interior color="e5f6f7" />
				<outline color="000080" />
				<font color="000000" name="Arial" size="8" />
				<position>144 515 216 563</position>
				<barchart active="true" width="128" height="72" />
			</node>
			<node id="Ever_taken_drug">
				<name>Ever_taken_drug</name>
				<interior color="e5f6f7" />
				<outline color="000080" />
				<font color="000000" name="Arial" size="8" />
				<position>835 13 907 61</position>
				<barchart active="true" width="128" height="54" />
			</node>
			<node id="Friends_influence">
				<name>Friends_influence</name>
				<interior color="e5f6f7" />
				<outline color="000080" />
				<font color="000000" name="Arial" size="8" />
				<position>1052 28 1124 76</position>
				<barchart active="true" width="128" height="64" />
			</node>
			<node id="Would_try_drugs">
				<name>Would_try_drugs</name>
				<interior color="e5f6f7" />
				<outline color="000080" />
				<font color="000000" name="Arial" size="8" />
				<position>471 611 543 659</position>
				<barchart active="true" width="269" height="72" />
			</node>
			<node id="Frequency_of_drugs">
				<name>Frequency_of_drugs</name>
				<interior color="e5f6f7" />
				<outline color="000080" />
				<font color="000000" name="Arial" size="8" />
				<position>409 483 481 531</position>
				<barchart active="true" width="183" height="90" />
			</node>
			<textbox>
				<caption>Input file: finalall\nData rows: 169\nElapsed time: 0.063s\n\nLearning algorithm: Greedy ThickThinning\nAlgorithm parameters:\nMax parent count: 4\nBackground knowledge was provided:\n  forbidden arcs: 49\n  nodes assigned to tiers: 24\n\nScore: -4308.85\nEM Log Likelihood: -3660.4</caption>
				<font color="000000" name="Arial" size="8" />
				<position>1091 553 1289 735</position>
			</textbox>
		</genie>
	</extensions>
</smile>
