<?xml version="1.0" encoding="UTF-8"?>
<!-- This network was created in GeNIe Academic, which can be used for academic teaching and research purposes only -->
<smile version="1.0" id="finalbanglatrain" numsamples="10000" discsamples="10000">
	<nodes>
		<cpt id="Age">
			<state id="above_35" />
			<state id="between_22_to_35_years" />
			<state id="s15_to_22_years" />
			<probabilities>0.1183431952662722 0.5502958579881657 0.3313609467455621</probabilities>
		</cpt>
		<cpt id="Gender">
			<state id="Female" />
			<state id="Male" />
			<probabilities>0.3254437869822485 0.6745562130177515</probabilities>
		</cpt>
		<cpt id="Conflict_with_law">
			<state id="No" />
			<state id="Yes" />
			<probabilities>0.7455621301775148 0.2544378698224852</probabilities>
		</cpt>
		<cpt id="Enjoyable_amount_of_drugs">
			<state id="I_have_no_idea" />
			<state id="Multiple_drugs" />
			<state id="One_drug" />
			<probabilities>0.591715976331361 0.1893491124260355 0.2189349112426036</probabilities>
		</cpt>
		<cpt id="Addicted_person_in_family">
			<state id="No" />
			<state id="Not_sure" />
			<state id="Yes" />
			<parents>Enjoyable_amount_of_drugs</parents>
			<probabilities>0.85 0.05 0.1 0.5625 0.21875 0.21875 0.5135135135135136 0.1081081081081081 0.3783783783783784</probabilities>
		</cpt>
		<cpt id="Living_with_drug_user">
			<state id="No" />
			<state id="Not_sure" />
			<state id="Yes" />
			<parents>Addicted_person_in_family</parents>
			<probabilities>0.7506775067750678 0.002710027100271003 0.2466124661246613 0.0625 0.4375 0.5 0.1666666666666667 0.01041666666666667 0.8229166666666666</probabilities>
		</cpt>
		<cpt id="Frequency_of_drugs">
			<state id="Never_Not_applicable" />
			<state id="Occasionally" />
			<state id="Once_twice_a_week" />
			<state id="Regularly" />
			<parents>Conflict_with_law Living_with_drug_user</parents>
			<probabilities>0.8518518518518519 0.09876543209876543 0.03703703703703703 0.01234567901234568 0.45 0.45 0.05 0.05 0.3658536585365854 0.2439024390243902 0.2439024390243902 0.1463414634146342 0.1764705882352941 0.4705882352941176 0.2941176470588235 0.05882352941176471 0.3125 0.3125 0.3125 0.0625 0.08695652173913043 0.2173913043478261 0.2173913043478261 0.4782608695652174</probabilities>
		</cpt>
		<cpt id="Ever_taken_drug">
			<state id="No" />
			<state id="Yes" />
			<parents>Frequency_of_drugs</parents>
			<probabilities>0.9239130434782609 0.07608695652173914 0.1470588235294118 0.8529411764705882 0.04166666666666666 0.9583333333333333 0.2105263157894737 0.7894736842105263</probabilities>
		</cpt>
		<cpt id="Smoking">
			<state id="No_I_dont" />
			<state id="Yes_every_day" />
			<state id="Yes_occasionally" />
			<parents>Gender Frequency_of_drugs</parents>
			<probabilities>0.8333333333333333 0.008333333333333331 0.1583333333333333 0.1666666666666667 0.04166666666666666 0.7916666666666666 0.06666666666666667 0.4666666666666667 0.4666666666666667 0.05555555555555555 0.5555555555555556 0.3888888888888889 0.4339622641509434 0.2830188679245283 0.2830188679245283 0.1111111111111111 0.6666666666666666 0.2222222222222222 0.05 0.8500000000000001 0.1 0.02222222222222222 0.8888888888888887 0.08888888888888886</probabilities>
		</cpt>
		<cpt id="Would_try_drugs">
			<state id="i_dont_know_confused" />
			<state id="Ill_try" />
			<state id="no_ill_not" />
			<parents>Enjoyable_amount_of_drugs Smoking</parents>
			<probabilities>0.2321428571428571 0.01785714285714286 0.75 0.4285714285714285 0.1904761904761905 0.3809523809523809 0.4347826086956522 0.3043478260869565 0.2608695652173913 0.1111111111111111 0.4444444444444444 0.4444444444444444 0.1052631578947368 0.8421052631578947 0.05263157894736842 0.02777777777777778 0.2777777777777778 0.6944444444444444 0.3333333333333333 0.3333333333333333 0.3333333333333333 0.03571428571428571 0.8928571428571428 0.07142857142857142 0.3333333333333333 0.3333333333333333 0.3333333333333333</probabilities>
		</cpt>
		<cpt id="Education">
			<state id="HSC_A_levels" />
			<state id="Postgraduate_MSc_PhD" />
			<state id="Primary_Education" />
			<state id="SSC_O_levels" />
			<state id="Undergraduate" />
			<parents>Ever_taken_drug Would_try_drugs</parents>
			<probabilities>0.3172413793103449 0.1103448275862069 0.006896551724137933 0.006896551724137933 0.5586206896551725 0.35 0.1833333333333333 0.01666666666666667 0.09999999999999999 0.35 0.143859649122807 0.1087719298245614 0.003508771929824561 0.02105263157894737 0.7228070175438597 0.3818181818181818 0.1090909090909091 0.01818181818181818 0.1090909090909091 0.3818181818181818 0.1020408163265306 0.1224489795918367 0.02040816326530612 0.08163265306122448 0.673469387755102 0.325 0.0125 0.075 0.1375 0.45</probabilities>
		</cpt>
		<cpt id="Live_with">
			<state id="Hostel_Hall" />
			<state id="With_Family_Relatives" />
			<probabilities>0.378698224852071 0.6213017751479289</probabilities>
		</cpt>
		<cpt id="Spend_most_time_with">
			<state id="Alone" />
			<state id="Family_Relatives" />
			<state id="Friends" />
			<probabilities>0.1538461538461539 0.2603550295857988 0.5857988165680473</probabilities>
		</cpt>
		<cpt id="Failure_in_life">
			<state id="No" />
			<state id="Yes" />
			<probabilities>0.4792899408284024 0.5207100591715976</probabilities>
		</cpt>
		<cpt id="Mental_emotional_problem">
			<state id="Anxiety" />
			<state id="Both" />
			<state id="Depression" />
			<state id="Not_any" />
			<state id="Others" />
			<probabilities>0.3076923076923077 0.1834319526627219 0.3609467455621302 0.0650887573964497 0.08284023668639053</probabilities>
		</cpt>
		<cpt id="Suicidal_thoughts">
			<state id="No" />
			<state id="Yes" />
			<parents>Enjoyable_amount_of_drugs Failure_in_life</parents>
			<probabilities>0.9259259259259258 0.07407407407407407 0.6304347826086957 0.3695652173913043 0.5 0.5 0.5 0.5 0.7692307692307693 0.2307692307692308 0.4583333333333333 0.5416666666666666</probabilities>
		</cpt>
		<cpt id="Family_relationship">
			<state id="Average" />
			<state id="Communcaiton_gap" />
			<state id="Satisfactory" />
			<parents>Education Ever_taken_drug</parents>
			<probabilities>0.3787878787878788 0.01515151515151515 0.6060606060606061 0.7142857142857142 0.07142857142857142 0.2142857142857143 0.1111111111111111 0.02777777777777778 0.8611111111111112 0.4285714285714285 0.1428571428571428 0.4285714285714285 0.3333333333333333 0.3333333333333333 0.3333333333333333 0.4444444444444444 0.4444444444444444 0.1111111111111111 0.4444444444444444 0.1111111111111111 0.4444444444444444 0.1428571428571428 0.7142857142857142 0.1428571428571428 0.09836065573770492 0.04918032786885246 0.8524590163934427 0.6363636363636364 0.02272727272727273 0.3409090909090909</probabilities>
		</cpt>
		<cpt id="Financials_of_family">
			<state id="Lower_Class" />
			<state id="Medium" />
			<state id="Upper_Class" />
			<parents>Education Living_with_drug_user</parents>
			<probabilities>0.01587301587301588 0.7777777777777779 0.2063492063492064 0.6666666666666667 0.1666666666666667 0.1666666666666667 0.2857142857142857 0.5714285714285714 0.1428571428571428 0.07142857142857142 0.2857142857142857 0.6428571428571428 0.3333333333333333 0.3333333333333333 0.3333333333333333 0.6666666666666667 0.2666666666666667 0.06666666666666667 0.6666666666666667 0.1666666666666667 0.1666666666666667 0.3333333333333333 0.3333333333333333 0.3333333333333333 0.6666666666666667 0.1666666666666667 0.1666666666666667 0.7777777777777777 0.1111111111111111 0.1111111111111111 0.5833333333333334 0.3333333333333333 0.08333333333333333 0.6666666666666667 0.2666666666666667 0.06666666666666667 0.2459016393442623 0.5901639344262295 0.1639344262295082 0.08333333333333333 0.8333333333333334 0.08333333333333333 0.3902439024390244 0.3902439024390244 0.2195121951219512</probabilities>
		</cpt>
		<cpt id="Control_use_of_drug">
			<state id="No_Its_not_possible" />
			<state id="Yes_Its_possible" />
			<probabilities>0.242603550295858 0.757396449704142</probabilities>
		</cpt>
		<cpt id="num_of_friends">
			<state id="Few_14" />
			<state id="Many_more_than_5" />
			<state id="Zero" />
			<parents>Control_use_of_drug</parents>
			<probabilities>0.4878048780487805 0.4878048780487805 0.02439024390243903 0.2421875 0.7109375 0.046875</probabilities>
		</cpt>
		<cpt id="Withdrawal_symptoms">
			<state id="I_have_no_idea" />
			<state id="No" />
			<state id="Yes" />
			<parents>Smoking Would_try_drugs</parents>
			<probabilities>0.8888888888888887 0.08888888888888886 0.02222222222222222 0.3333333333333333 0.5833333333333334 0.08333333333333333 0.8636363636363636 0.1136363636363636 0.02272727272727273 0.4166666666666666 0.1666666666666667 0.4166666666666666 0.2666666666666667 0.2222222222222222 0.5111111111111112 0.09090909090909091 0.4545454545454546 0.4545454545454546 0.8717948717948717 0.1025641025641025 0.02564102564102564 0.25 0.5833333333333333 0.1666666666666667 0.125 0.5625 0.3125</probabilities>
		</cpt>
		<cpt id="friends_houses_at_night">
			<state id="No_I_dont" />
			<state id="Sometimes" />
			<state id="Yes_often_I_do" />
			<probabilities>0.2603550295857988 0.5266272189349113 0.2130177514792899</probabilities>
		</cpt>
		<cpt id="Satisfied_with_workplace">
			<state id="No" />
			<state id="Yes" />
			<probabilities>0.3905325443786982 0.6094674556213018</probabilities>
		</cpt>
		<cpt id="Case_in_court">
			<state id="No" />
			<state id="Yes" />
			<parents>Conflict_with_law Addicted_person_in_family</parents>
			<probabilities>0.9948979591836734 0.00510204081632653 0.9545454545454546 0.04545454545454546 0.8421052631578947 0.1578947368421053 0.76 0.24 0.5 0.5 0.1666666666666667 0.8333333333333333</probabilities>
		</cpt>
		<cpt id="Friends_influence">
			<state id="No_they_dont" />
			<state id="Yes_often_they_do" />
			<parents>Ever_taken_drug</parents>
			<probabilities>0.8631578947368421 0.1368421052631579 0.3378378378378378 0.6621621621621622</probabilities>
		</cpt>
	</nodes>
	<extensions>
		<genie version="1.0" app="GeNIe 5.0.4708.0 ACADEMIC" name="leastaccuracy">
			<node id="Age">
				<name>Age</name>
				<interior color="e5f6f7" />
				<outline color="000080" />
				<font color="000000" name="Arial" size="8" />
				<position>303 571 375 619</position>
			</node>
			<node id="Gender">
				<name>Gender</name>
				<interior color="e5f6f7" />
				<outline color="000080" />
				<font color="000000" name="Arial" size="8" />
				<position>10 72 82 120</position>
			</node>
			<node id="Education">
				<name>Education</name>
				<interior color="e5f6f7" />
				<outline color="000080" />
				<font color="000000" name="Arial" size="8" />
				<position>568 10 640 58</position>
			</node>
			<node id="Enjoyable_amount_of_drugs">
				<name>Enjoyable_amount_of_drugs</name>
				<interior color="e5f6f7" />
				<outline color="000080" />
				<font color="000000" name="Arial" size="8" />
				<position>10 134 82 182</position>
			</node>
			<node id="Live_with">
				<name>Live_with</name>
				<interior color="e5f6f7" />
				<outline color="000080" />
				<font color="000000" name="Arial" size="8" />
				<position>10 196 82 244</position>
			</node>
			<node id="Conflict_with_law">
				<name>Conflict_with_law</name>
				<interior color="e5f6f7" />
				<outline color="000080" />
				<font color="000000" name="Arial" size="8" />
				<position>10 258 82 306</position>
			</node>
			<node id="Spend_most_time_with">
				<name>Spend_most_time_with</name>
				<interior color="e5f6f7" />
				<outline color="000080" />
				<font color="000000" name="Arial" size="8" />
				<position>10 320 82 368</position>
			</node>
			<node id="Failure_in_life">
				<name>Failure_in_life</name>
				<interior color="e5f6f7" />
				<outline color="000080" />
				<font color="000000" name="Arial" size="8" />
				<position>10 382 82 430</position>
			</node>
			<node id="Mental_emotional_problem">
				<name>Mental_emotional_problem</name>
				<interior color="e5f6f7" />
				<outline color="000080" />
				<font color="000000" name="Arial" size="8" />
				<position>405 693 477 741</position>
			</node>
			<node id="Suicidal_thoughts">
				<name>Suicidal_thoughts</name>
				<interior color="e5f6f7" />
				<outline color="000080" />
				<font color="000000" name="Arial" size="8" />
				<position>103 10 175 58</position>
			</node>
			<node id="Family_relationship">
				<name>Family_relationship</name>
				<interior color="e5f6f7" />
				<outline color="000080" />
				<font color="000000" name="Arial" size="8" />
				<position>661 10 733 58</position>
			</node>
			<node id="Financials_of_family">
				<name>Financials_of_family</name>
				<interior color="e5f6f7" />
				<outline color="000080" />
				<font color="000000" name="Arial" size="8" />
				<position>661 72 733 120</position>
			</node>
			<node id="Addicted_person_in_family">
				<name>Addicted_person_in_family</name>
				<interior color="e5f6f7" />
				<outline color="000080" />
				<font color="000000" name="Arial" size="8" />
				<position>103 72 175 120</position>
			</node>
			<node id="num_of_friends">
				<name>num_of_friends</name>
				<interior color="e5f6f7" />
				<outline color="000080" />
				<font color="000000" name="Arial" size="8" />
				<position>103 134 175 182</position>
			</node>
			<node id="Withdrawal_symptoms">
				<name>Withdrawal_symptoms</name>
				<interior color="e5f6f7" />
				<outline color="000080" />
				<font color="000000" name="Arial" size="8" />
				<position>568 72 640 120</position>
			</node>
			<node id="friends_houses_at_night">
				<name>friends_houses_at_night</name>
				<interior color="e5f6f7" />
				<outline color="000080" />
				<font color="000000" name="Arial" size="8" />
				<position>202 669 274 717</position>
			</node>
			<node id="Satisfied_with_workplace">
				<name>Satisfied_with_workplace</name>
				<interior color="e5f6f7" />
				<outline color="000080" />
				<font color="000000" name="Arial" size="8" />
				<position>326 744 398 792</position>
			</node>
			<node id="Case_in_court">
				<name>Case_in_court</name>
				<interior color="e5f6f7" />
				<outline color="000080" />
				<font color="000000" name="Arial" size="8" />
				<position>196 10 268 58</position>
			</node>
			<node id="Living_with_drug_user">
				<name>Living_with_drug_user</name>
				<interior color="e5f6f7" />
				<outline color="000080" />
				<font color="000000" name="Arial" size="8" />
				<position>196 72 268 120</position>
			</node>
			<node id="Smoking">
				<name>Smoking</name>
				<interior color="e5f6f7" />
				<outline color="000080" />
				<font color="000000" name="Arial" size="8" />
				<position>382 10 454 58</position>
			</node>
			<node id="Ever_taken_drug">
				<name>Ever_taken_drug</name>
				<interior color="e5f6f7" />
				<outline color="000080" />
				<font color="000000" name="Arial" size="8" />
				<position>382 72 454 120</position>
			</node>
			<node id="Friends_influence">
				<name>Friends_influence</name>
				<interior color="e5f6f7" />
				<outline color="000080" />
				<font color="000000" name="Arial" size="8" />
				<position>475 10 547 58</position>
			</node>
			<node id="Would_try_drugs">
				<name>Would_try_drugs</name>
				<interior color="e5f6f7" />
				<outline color="000080" />
				<font color="000000" name="Arial" size="8" />
				<position>475 72 547 120</position>
			</node>
			<node id="Control_use_of_drug">
				<name>Control_use_of_drug</name>
				<interior color="e5f6f7" />
				<outline color="000080" />
				<font color="000000" name="Arial" size="8" />
				<position>269 389 341 437</position>
			</node>
			<node id="Frequency_of_drugs">
				<name>Frequency_of_drugs</name>
				<interior color="e5f6f7" />
				<outline color="000080" />
				<font color="000000" name="Arial" size="8" />
				<position>289 10 361 58</position>
			</node>
			<textbox>
				<caption>Input file: finalbanglatrain\nData rows: 169\nElapsed time: 0.953s\n\nLearning algorithm: Bayesian Search\nAlgorithm parameters:\nIterations: 100\nMax parent count: 4\nSample size: 50\nLink probability: 0.1\nPrior link probability: 0.005\nSeed: 42\nMax search time: 0\nScore by accuracy (8-fold), class variable: Frequency_of_drugs\nBackground knowledge was provided:\n  forbidden arcs: 49\n  nodes assigned to tiers: 3\n\nBest accuracy in iteration 71: 0.751479 (127/169)\nEM Log Likelihood: -3080.79</caption>
				<font color="000000" name="Arial" size="8" />
				<position>10 698 323 978</position>
			</textbox>
		</genie>
	</extensions>
</smile>
