<?xml version="1.0" encoding="UTF-8"?>
<!-- This network was created in GeNIe Academic, which can be used for academic teaching and research purposes only -->
<smile version="1.0" id="finalbanglatrain" numsamples="10000" discsamples="10000">
	<nodes>
		<cpt id="Age">
			<state id="above_35" />
			<state id="between_22_to_35_years" />
			<state id="s15_to_22_years" />
			<probabilities>0.1183431952662722 0.5443786982248521 0.3372781065088757</probabilities>
		</cpt>
		<cpt id="Gender">
			<state id="Female" />
			<state id="Male" />
			<probabilities>0.3313609467455621 0.6686390532544378</probabilities>
		</cpt>
		<cpt id="Satisfied_with_workplace">
			<state id="No" />
			<state id="Yes" />
			<probabilities>0.378698224852071 0.6213017751479289</probabilities>
		</cpt>
		<cpt id="Friends_influence">
			<state id="No_they_dont" />
			<state id="Yes_often_they_do" />
			<parents>Satisfied_with_workplace</parents>
			<probabilities>0.546875 0.453125 0.6952380952380953 0.3047619047619048</probabilities>
		</cpt>
		<cpt id="Living_with_drug_user">
			<state id="No" />
			<state id="Not_sure" />
			<state id="Yes" />
			<parents>Friends_influence</parents>
			<probabilities>0.7314814814814814 0.03703703703703703 0.2314814814814815 0.3114754098360656 0.04918032786885246 0.639344262295082</probabilities>
		</cpt>
		<cpt id="Withdrawal_symptoms">
			<state id="I_have_no_idea" />
			<state id="No" />
			<state id="Yes" />
			<probabilities>0.5207100591715976 0.2366863905325444 0.242603550295858</probabilities>
		</cpt>
		<cpt id="Enjoyable_amount_of_drugs">
			<state id="I_have_no_idea" />
			<state id="Multiple_drugs" />
			<state id="One_drug" />
			<parents>Withdrawal_symptoms</parents>
			<probabilities>0.8295454545454546 0.07954545454545454 0.09090909090909091 0.35 0.25 0.4 0.3414634146341464 0.3414634146341464 0.3170731707317073</probabilities>
		</cpt>
		<cpt id="Ever_taken_drug">
			<state id="No" />
			<state id="Yes" />
			<parents>Enjoyable_amount_of_drugs</parents>
			<probabilities>0.8613861386138614 0.1386138613861386 0.1612903225806452 0.8387096774193548 0.1351351351351351 0.8648648648648649</probabilities>
		</cpt>
		<cpt id="Frequency_of_drugs">
			<state id="Never_Not_applicable" />
			<state id="Occasionally" />
			<state id="Once_twice_a_week" />
			<state id="Regularly" />
			<parents>Living_with_drug_user Ever_taken_drug Friends_influence</parents>
			<probabilities>0.9545454545454546 0.01515151515151515 0.01515151515151515 0.01515151515151515 0.875 0.04166666666666666 0.04166666666666666 0.04166666666666666 0.2321428571428571 0.375 0.375 0.01785714285714286 0.1428571428571428 0.7142857142857142 0.07142857142857142 0.07142857142857142 0.65 0.25 0.05 0.05 0.25 0.25 0.25 0.25 0.25 0.25 0.25 0.25 0.0625 0.5625 0.3125 0.0625 0.6833333333333333 0.15 0.01666666666666667 0.15 0.6944444444444444 0.1388888888888889 0.02777777777777778 0.1388888888888889 0.02083333333333333 0.4375 0.2708333333333333 0.2708333333333333 0.03225806451612903 0.2258064516129032 0.3870967741935484 0.3548387096774194</probabilities>
		</cpt>
		<cpt id="Conflict_with_law">
			<state id="No" />
			<state id="Yes" />
			<parents>Frequency_of_drugs</parents>
			<probabilities>0.946236559139785 0.05376344086021506 0.5882352941176471 0.4117647058823529 0.5652173913043478 0.4347826086956522 0.3684210526315789 0.631578947368421</probabilities>
		</cpt>
		<cpt id="Case_in_court">
			<state id="No" />
			<state id="Yes" />
			<parents>Conflict_with_law</parents>
			<probabilities>0.9765625 0.0234375 0.5365853658536586 0.4634146341463415</probabilities>
		</cpt>
		<cpt id="Addicted_person_in_family">
			<state id="No" />
			<state id="Not_sure" />
			<state id="Yes" />
			<parents>Case_in_court Living_with_drug_user</parents>
			<probabilities>0.946236559139785 0.01075268817204301 0.04301075268817205 0.04761904761904762 0.9047619047619049 0.04761904761904762 0.5833333333333333 0.125 0.2916666666666666 0.7222222222222222 0.05555555555555556 0.2222222222222222 0.1666666666666667 0.6666666666666667 0.1666666666666667 0.125 0.125 0.75</probabilities>
		</cpt>
		<cpt id="Education">
			<state id="HSC_A_levels" />
			<state id="Postgraduate_MSc_PhD" />
			<state id="Primary_Education" />
			<state id="SSC_O_levels" />
			<state id="Undergraduate" />
			<parents>Age Addicted_person_in_family Case_in_court</parents>
			<probabilities>0.65 0.15 0.025 0.025 0.15 0.06666666666666667 0.06666666666666667 0.4 0.4 0.06666666666666667 0.24 0.24 0.04000000000000001 0.04000000000000001 0.4400000000000001 0.1 0.1 0.1 0.6 0.1 0.06666666666666667 0.4 0.06666666666666667 0.06666666666666667 0.4 0.04000000000000001 0.04000000000000001 0.04000000000000001 0.04000000000000001 0.8400000000000001 0.03098591549295775 0.2 0.002816901408450704 0.002816901408450704 0.7633802816901409 0.5499999999999999 0.04999999999999999 0.04999999999999999 0.2999999999999999 0.04999999999999999 0.03333333333333333 0.03333333333333333 0.03333333333333333 0.03333333333333333 0.8666666666666667 0.1 0.1 0.1 0.1 0.6 0.42 0.12 0.02 0.02 0.42 0.4399999999999999 0.03999999999999999 0.03999999999999999 0.03999999999999999 0.4399999999999999 0.355 0.005000000000000001 0.005000000000000001 0.005000000000000001 0.63 0.6000000000000001 0.1 0.1 0.1 0.1 0.04000000000000001 0.04000000000000001 0.04000000000000001 0.4400000000000001 0.4400000000000001 0.1 0.1 0.1 0.6 0.1 0.525 0.025 0.025 0.15 0.275 0.3666666666666666 0.03333333333333333 0.2 0.2 0.2</probabilities>
		</cpt>
		<cpt id="Live_with">
			<state id="Hostel_Hall" />
			<state id="With_Family_Relatives" />
			<probabilities>0.3668639053254438 0.6331360946745562</probabilities>
		</cpt>
		<cpt id="Spend_most_time_with">
			<state id="Alone" />
			<state id="Family_Relatives" />
			<state id="Friends" />
			<probabilities>0.1479289940828402 0.2662721893491124 0.5857988165680473</probabilities>
		</cpt>
		<cpt id="Failure_in_life">
			<state id="No" />
			<state id="Yes" />
			<parents>Case_in_court</parents>
			<probabilities>0.5238095238095238 0.4761904761904762 0.2272727272727273 0.7727272727272727</probabilities>
		</cpt>
		<cpt id="Mental_emotional_problem">
			<state id="Anxiety" />
			<state id="Both" />
			<state id="Depression" />
			<state id="Not_any" />
			<state id="Others" />
			<probabilities>0.3195266272189349 0.1834319526627219 0.3550295857988165 0.05917159763313609 0.08284023668639053</probabilities>
		</cpt>
		<cpt id="Suicidal_thoughts">
			<state id="No" />
			<state id="Yes" />
			<probabilities>0.6923076923076923 0.3076923076923077</probabilities>
		</cpt>
		<cpt id="Financials_of_family">
			<state id="Lower_Class" />
			<state id="Medium" />
			<state id="Upper_Class" />
			<probabilities>0.2840236686390533 0.5207100591715976 0.1952662721893491</probabilities>
		</cpt>
		<cpt id="Family_relationship">
			<state id="Average" />
			<state id="Communcaiton_gap" />
			<state id="Satisfactory" />
			<parents>Financials_of_family Friends_influence</parents>
			<probabilities>0.2592592592592592 0.07407407407407407 0.6666666666666666 0.3809523809523809 0.3333333333333333 0.2857142857142857 0.2982456140350877 0.01754385964912281 0.6842105263157894 0.6774193548387096 0.03225806451612903 0.2903225806451613 0.1733333333333333 0.01333333333333333 0.8133333333333334 0.3333333333333334 0.03333333333333333 0.6333333333333333</probabilities>
		</cpt>
		<cpt id="num_of_friends">
			<state id="Few_14" />
			<state id="Many_more_than_5" />
			<state id="Zero" />
			<parents>Education</parents>
			<probabilities>0.2972972972972973 0.6756756756756757 0.02702702702702703 0.4912280701754386 0.4912280701754386 0.01754385964912281 0.4444444444444444 0.1111111111111111 0.4444444444444444 0.375 0.375 0.25 0.2596153846153846 0.7211538461538461 0.01923076923076923</probabilities>
		</cpt>
		<cpt id="friends_houses_at_night">
			<state id="No_I_dont" />
			<state id="Sometimes" />
			<state id="Yes_often_I_do" />
			<probabilities>0.272189349112426 0.514792899408284 0.2130177514792899</probabilities>
		</cpt>
		<cpt id="Would_try_drugs">
			<state id="i_dont_know_confused" />
			<state id="Ill_try" />
			<state id="no_ill_not" />
			<parents>Family_relationship Frequency_of_drugs</parents>
			<probabilities>0.2631578947368421 0.4210526315789473 0.3157894736842105 0.1 0.45 0.45 0.25 0.6666666666666666 0.08333333333333333 0.03333333333333333 0.9333333333333332 0.03333333333333333 0.08333333333333333 0.08333333333333333 0.8333333333333334 0.4444444444444444 0.4444444444444444 0.1111111111111111 0.1666666666666667 0.1666666666666667 0.6666666666666666 0.05555555555555556 0.888888888888889 0.05555555555555556 0.3098591549295775 0.05633802816901409 0.6338028169014085 0.5 0.4166666666666666 0.08333333333333333 0.0303030303030303 0.7575757575757576 0.2121212121212121 0.05555555555555555 0.2222222222222222 0.7222222222222221</probabilities>
		</cpt>
		<cpt id="Smoking">
			<state id="No_I_dont" />
			<state id="Yes_every_day" />
			<state id="Yes_occasionally" />
			<parents>Enjoyable_amount_of_drugs Withdrawal_symptoms Would_try_drugs</parents>
			<probabilities>0.5185185185185185 0.1111111111111111 0.3703703703703703 0.1666666666666667 0.3333333333333333 0.5 0.9500000000000001 0.025 0.025 0.1111111111111111 0.7777777777777777 0.1111111111111111 0.08333333333333333 0.08333333333333333 0.8333333333333334 0.4444444444444444 0.2222222222222222 0.3333333333333333 0.06666666666666668 0.8666666666666668 0.06666666666666668 0.1111111111111111 0.4444444444444444 0.4444444444444444 0.125 0.625 0.25 0.1111111111111111 0.7777777777777777 0.1111111111111111 0.08333333333333333 0.8333333333333334 0.08333333333333333 0.4444444444444444 0.1111111111111111 0.4444444444444444 0.3333333333333333 0.3333333333333333 0.3333333333333333 0.06666666666666667 0.2666666666666667 0.6666666666666667 0.04761904761904762 0.1904761904761905 0.7619047619047619 0.3333333333333333 0.3333333333333333 0.3333333333333333 0.02564102564102564 0.9487179487179487 0.02564102564102564 0.1111111111111111 0.1111111111111111 0.7777777777777778 0.1666666666666667 0.1666666666666667 0.6666666666666666 0.04166666666666667 0.9166666666666669 0.04166666666666667 0.3333333333333333 0.3333333333333333 0.3333333333333333 0.4444444444444444 0.1111111111111111 0.4444444444444444 0.1 0.8 0.1 0.25 0.5 0.25 0.1666666666666667 0.6666666666666667 0.1666666666666667 0.02777777777777777 0.8611111111111109 0.1111111111111111 0.1666666666666667 0.1666666666666667 0.6666666666666666</probabilities>
		</cpt>
		<cpt id="Control_use_of_drug">
			<state id="No_Its_not_possible" />
			<state id="Yes_Its_possible" />
			<parents>Conflict_with_law</parents>
			<probabilities>0.2109375 0.7890625 0.3414634146341464 0.6585365853658537</probabilities>
		</cpt>
	</nodes>
	<extensions>
		<genie version="1.0" app="GeNIe 5.0.4708.0 ACADEMIC" name="finalbanglatrain">
			<node id="Age">
				<name>Age</name>
				<interior color="e5f6f7" />
				<outline color="000080" />
				<font color="000000" name="Arial" size="8" />
				<position>10 10 82 58</position>
			</node>
			<node id="Gender">
				<name>Gender</name>
				<interior color="e5f6f7" />
				<outline color="000080" />
				<font color="000000" name="Arial" size="8" />
				<position>10 72 82 120</position>
			</node>
			<node id="Education">
				<name>Education</name>
				<interior color="e5f6f7" />
				<outline color="000080" />
				<font color="000000" name="Arial" size="8" />
				<position>661 10 733 58</position>
			</node>
			<node id="Enjoyable_amount_of_drugs">
				<name>Enjoyable_amount_of_drugs</name>
				<interior color="e5f6f7" />
				<outline color="000080" />
				<font color="000000" name="Arial" size="8" />
				<position>103 10 175 58</position>
			</node>
			<node id="Live_with">
				<name>Live_with</name>
				<interior color="e5f6f7" />
				<outline color="000080" />
				<font color="000000" name="Arial" size="8" />
				<position>10 134 82 182</position>
			</node>
			<node id="Conflict_with_law">
				<name>Conflict_with_law</name>
				<interior color="e5f6f7" />
				<outline color="000080" />
				<font color="000000" name="Arial" size="8" />
				<position>382 10 454 58</position>
			</node>
			<node id="Spend_most_time_with">
				<name>Spend_most_time_with</name>
				<interior color="e5f6f7" />
				<outline color="000080" />
				<font color="000000" name="Arial" size="8" />
				<position>10 196 82 244</position>
			</node>
			<node id="Failure_in_life">
				<name>Failure_in_life</name>
				<interior color="e5f6f7" />
				<outline color="000080" />
				<font color="000000" name="Arial" size="8" />
				<position>568 10 640 58</position>
			</node>
			<node id="Mental_emotional_problem">
				<name>Mental_emotional_problem</name>
				<interior color="e5f6f7" />
				<outline color="000080" />
				<font color="000000" name="Arial" size="8" />
				<position>10 258 82 306</position>
			</node>
			<node id="Suicidal_thoughts">
				<name>Suicidal_thoughts</name>
				<interior color="e5f6f7" />
				<outline color="000080" />
				<font color="000000" name="Arial" size="8" />
				<position>10 320 82 368</position>
			</node>
			<node id="Family_relationship">
				<name>Family_relationship</name>
				<interior color="e5f6f7" />
				<outline color="000080" />
				<font color="000000" name="Arial" size="8" />
				<position>196 10 268 58</position>
			</node>
			<node id="Financials_of_family">
				<name>Financials_of_family</name>
				<interior color="e5f6f7" />
				<outline color="000080" />
				<font color="000000" name="Arial" size="8" />
				<position>10 382 82 430</position>
			</node>
			<node id="Addicted_person_in_family">
				<name>Addicted_person_in_family</name>
				<interior color="e5f6f7" />
				<outline color="000080" />
				<font color="000000" name="Arial" size="8" />
				<position>568 72 640 120</position>
			</node>
			<node id="num_of_friends">
				<name>num_of_friends</name>
				<interior color="e5f6f7" />
				<outline color="000080" />
				<font color="000000" name="Arial" size="8" />
				<position>754 10 826 58</position>
			</node>
			<node id="Withdrawal_symptoms">
				<name>Withdrawal_symptoms</name>
				<interior color="e5f6f7" />
				<outline color="000080" />
				<font color="000000" name="Arial" size="8" />
				<position>10 444 82 492</position>
			</node>
			<node id="friends_houses_at_night">
				<name>friends_houses_at_night</name>
				<interior color="e5f6f7" />
				<outline color="000080" />
				<font color="000000" name="Arial" size="8" />
				<position>10 506 82 554</position>
			</node>
			<node id="Satisfied_with_workplace">
				<name>Satisfied_with_workplace</name>
				<interior color="e5f6f7" />
				<outline color="000080" />
				<font color="000000" name="Arial" size="8" />
				<position>10 568 82 616</position>
			</node>
			<node id="Case_in_court">
				<name>Case_in_court</name>
				<interior color="e5f6f7" />
				<outline color="000080" />
				<font color="000000" name="Arial" size="8" />
				<position>475 10 547 58</position>
			</node>
			<node id="Living_with_drug_user">
				<name>Living_with_drug_user</name>
				<interior color="e5f6f7" />
				<outline color="000080" />
				<font color="000000" name="Arial" size="8" />
				<position>196 72 268 120</position>
			</node>
			<node id="Smoking">
				<name>Smoking</name>
				<interior color="e5f6f7" />
				<outline color="000080" />
				<font color="000000" name="Arial" size="8" />
				<position>475 72 547 120</position>
			</node>
			<node id="Ever_taken_drug">
				<name>Ever_taken_drug</name>
				<interior color="e5f6f7" />
				<outline color="000080" />
				<font color="000000" name="Arial" size="8" />
				<position>196 134 268 182</position>
			</node>
			<node id="Friends_influence">
				<name>Friends_influence</name>
				<interior color="e5f6f7" />
				<outline color="000080" />
				<font color="000000" name="Arial" size="8" />
				<position>103 72 175 120</position>
			</node>
			<node id="Would_try_drugs">
				<name>Would_try_drugs</name>
				<interior color="e5f6f7" />
				<outline color="000080" />
				<font color="000000" name="Arial" size="8" />
				<position>382 72 454 120</position>
			</node>
			<node id="Control_use_of_drug">
				<name>Control_use_of_drug</name>
				<interior color="e5f6f7" />
				<outline color="000080" />
				<font color="000000" name="Arial" size="8" />
				<position>475 134 547 182</position>
			</node>
			<node id="Frequency_of_drugs">
				<name>Frequency_of_drugs</name>
				<interior color="e5f6f7" />
				<outline color="000080" />
				<font color="000000" name="Arial" size="8" />
				<position>289 10 361 58</position>
			</node>
			<textbox>
				<caption>Input file: finalbanglatrain\nData rows: 169\nElapsed time: 0.89s\n\nLearning algorithm: Bayesian Search\nAlgorithm parameters:\nIterations: 100\nMax parent count: 4\nSample size: 100\nLink probability: 0.05\nPrior link probability: 0.01\nSeed: 0\nMax search time: 1000\nScore by accuracy (5-fold), class variable: Frequency_of_drugs\nBackground knowledge was provided:\n  forbidden arcs: 48\n  nodes assigned to tiers: 2\n\nBest accuracy in iteration 92: 0.745562 (126/169)\nEM Log Likelihood: -3049.09</caption>
				<font color="000000" name="Arial" size="8" />
				<position>10 636 323 916</position>
			</textbox>
		</genie>
	</extensions>
</smile>
