<?xml version="1.0" encoding="UTF-8"?>
<!-- This network was created in GeNIe Academic, which can be used for academic teaching and research purposes only -->
<smile version="1.0" id="finalbanglatrain" numsamples="10000" discsamples="10000">
	<nodes>
		<cpt id="Age">
			<state id="above_35" />
			<state id="between_22_to_35_years" />
			<state id="s15_to_22_years" />
			<probabilities>0.1183431952662722 0.5502958579881657 0.3313609467455621</probabilities>
		</cpt>
		<cpt id="Gender">
			<state id="Female" />
			<state id="Male" />
			<probabilities>0.3254437869822485 0.6745562130177515</probabilities>
		</cpt>
		<cpt id="Conflict_with_law">
			<state id="No" />
			<state id="Yes" />
			<probabilities>0.7455621301775148 0.2544378698224852</probabilities>
		</cpt>
		<cpt id="Case_in_court">
			<state id="No" />
			<state id="Yes" />
			<parents>Conflict_with_law</parents>
			<probabilities>0.9761904761904762 0.02380952380952381 0.5581395348837209 0.4418604651162791</probabilities>
		</cpt>
		<cpt id="Education">
			<state id="HSC_A_levels" />
			<state id="Postgraduate_MSc_PhD" />
			<state id="Primary_Education" />
			<state id="SSC_O_levels" />
			<state id="Undergraduate" />
			<parents>Age Case_in_court</parents>
			<probabilities>0.4428571428571428 0.2285714285714286 0.01428571428571429 0.01428571428571429 0.3 0.025 0.025 0.15 0.275 0.525 0.07209302325581396 0.1767441860465116 0.002325581395348837 0.002325581395348837 0.7465116279069768 0.4666666666666667 0.02222222222222222 0.02222222222222222 0.1333333333333333 0.3555555555555556 0.324 0.004 0.004 0.08400000000000001 0.584 0.4 0.025 0.15 0.275 0.15</probabilities>
		</cpt>
		<cpt id="Addicted_person_in_family">
			<state id="No" />
			<state id="Not_sure" />
			<state id="Yes" />
			<parents>Case_in_court</parents>
			<probabilities>0.7891156462585034 0.08843537414965986 0.1224489795918367 0.2727272727272727 0.1363636363636364 0.5909090909090909</probabilities>
		</cpt>
		<cpt id="Living_with_drug_user">
			<state id="No" />
			<state id="Not_sure" />
			<state id="Yes" />
			<parents>Addicted_person_in_family</parents>
			<probabilities>0.7506775067750678 0.002710027100271003 0.2466124661246613 0.0625 0.4375 0.5 0.1666666666666667 0.01041666666666667 0.8229166666666666</probabilities>
		</cpt>
		<cpt id="Frequency_of_drugs">
			<state id="Never_Not_applicable" />
			<state id="Occasionally" />
			<state id="Once_twice_a_week" />
			<state id="Regularly" />
			<parents>Living_with_drug_user</parents>
			<probabilities>0.7346938775510203 0.163265306122449 0.08163265306122448 0.02040816326530612 0.40625 0.40625 0.15625 0.03125 0.265625 0.234375 0.234375 0.265625</probabilities>
		</cpt>
		<cpt id="Enjoyable_amount_of_drugs">
			<state id="I_have_no_idea" />
			<state id="Multiple_drugs" />
			<state id="One_drug" />
			<parents>Case_in_court Frequency_of_drugs</parents>
			<probabilities>0.9666666666666667 0.01111111111111111 0.02222222222222222 0.3448275862068966 0.2413793103448276 0.4137931034482759 0.1666666666666667 0.3888888888888888 0.4444444444444444 0.0303030303030303 0.6666666666666666 0.303030303030303 0.1111111111111111 0.1111111111111111 0.7777777777777778 0.05555555555555556 0.7222222222222222 0.2222222222222222 0.04761904761904762 0.4761904761904762 0.4761904761904762 0.03333333333333333 0.3333333333333334 0.6333333333333333</probabilities>
		</cpt>
		<cpt id="Live_with">
			<state id="Hostel_Hall" />
			<state id="With_Family_Relatives" />
			<probabilities>0.378698224852071 0.6213017751479289</probabilities>
		</cpt>
		<cpt id="Spend_most_time_with">
			<state id="Alone" />
			<state id="Family_Relatives" />
			<state id="Friends" />
			<probabilities>0.1538461538461539 0.2603550295857988 0.5857988165680473</probabilities>
		</cpt>
		<cpt id="Mental_emotional_problem">
			<state id="Anxiety" />
			<state id="Both" />
			<state id="Depression" />
			<state id="Not_any" />
			<state id="Others" />
			<probabilities>0.3076923076923077 0.1834319526627219 0.3609467455621302 0.0650887573964497 0.08284023668639053</probabilities>
		</cpt>
		<cpt id="Failure_in_life">
			<state id="No" />
			<state id="Yes" />
			<parents>Mental_emotional_problem</parents>
			<probabilities>0.5961538461538461 0.4038461538461539 0.4516129032258064 0.5483870967741935 0.2459016393442623 0.7540983606557378 0.9090909090909092 0.09090909090909091 0.7857142857142857 0.2142857142857143</probabilities>
		</cpt>
		<cpt id="Suicidal_thoughts">
			<state id="No" />
			<state id="Yes" />
			<parents>Frequency_of_drugs</parents>
			<probabilities>0.75 0.25 0.7058823529411764 0.2941176470588235 0.5833333333333333 0.4166666666666666 0.4736842105263158 0.5263157894736842</probabilities>
		</cpt>
		<cpt id="Ever_taken_drug">
			<state id="No" />
			<state id="Yes" />
			<parents>Frequency_of_drugs</parents>
			<probabilities>0.9239130434782609 0.07608695652173914 0.1470588235294118 0.8529411764705882 0.04166666666666666 0.9583333333333333 0.2105263157894737 0.7894736842105263</probabilities>
		</cpt>
		<cpt id="Family_relationship">
			<state id="Average" />
			<state id="Communcaiton_gap" />
			<state id="Satisfactory" />
			<parents>Education Ever_taken_drug</parents>
			<probabilities>0.3787878787878788 0.01515151515151515 0.6060606060606061 0.7142857142857142 0.07142857142857142 0.2142857142857143 0.1111111111111111 0.02777777777777778 0.8611111111111112 0.4285714285714285 0.1428571428571428 0.4285714285714285 0.3333333333333333 0.3333333333333333 0.3333333333333333 0.4444444444444444 0.4444444444444444 0.1111111111111111 0.4444444444444444 0.1111111111111111 0.4444444444444444 0.1428571428571428 0.7142857142857142 0.1428571428571428 0.09836065573770492 0.04918032786885246 0.8524590163934427 0.6363636363636364 0.02272727272727273 0.3409090909090909</probabilities>
		</cpt>
		<cpt id="Financials_of_family">
			<state id="Lower_Class" />
			<state id="Medium" />
			<state id="Upper_Class" />
			<parents>Education</parents>
			<probabilities>0.1428571428571428 0.6857142857142857 0.1714285714285714 0.2222222222222222 0.2777777777777778 0.5 0.7777777777777777 0.1111111111111111 0.1111111111111111 0.7333333333333334 0.2333333333333334 0.03333333333333333 0.2952380952380952 0.5238095238095238 0.180952380952381</probabilities>
		</cpt>
		<cpt id="Satisfied_with_workplace">
			<state id="No" />
			<state id="Yes" />
			<probabilities>0.3905325443786982 0.6094674556213018</probabilities>
		</cpt>
		<cpt id="num_of_friends">
			<state id="Few_14" />
			<state id="Many_more_than_5" />
			<state id="Zero" />
			<parents>Satisfied_with_workplace Ever_taken_drug Frequency_of_drugs</parents>
			<probabilities>0.4230769230769231 0.5384615384615385 0.03846153846153846 0.6666666666666667 0.1666666666666667 0.1666666666666667 0.6666666666666667 0.1666666666666667 0.1666666666666667 0.1666666666666667 0.6666666666666667 0.1666666666666667 0.5 0.25 0.25 0.4871794871794872 0.4871794871794872 0.02564102564102564 0.07692307692307693 0.7692307692307693 0.1538461538461539 0.375 0.5 0.125 0.3055555555555555 0.6888888888888888 0.005555555555555554 0.06666666666666667 0.6666666666666667 0.2666666666666667 0.3333333333333333 0.3333333333333333 0.3333333333333333 0.8333333333333334 0.08333333333333333 0.08333333333333333 0.08333333333333333 0.8333333333333334 0.08333333333333333 0.07407407407407408 0.9074074074074076 0.01851851851851852 0.303030303030303 0.6666666666666666 0.0303030303030303 0.1428571428571428 0.7142857142857142 0.1428571428571428</probabilities>
		</cpt>
		<cpt id="Smoking">
			<state id="No_I_dont" />
			<state id="Yes_every_day" />
			<state id="Yes_occasionally" />
			<parents>Gender Frequency_of_drugs</parents>
			<probabilities>0.8333333333333333 0.008333333333333331 0.1583333333333333 0.1666666666666667 0.04166666666666666 0.7916666666666666 0.06666666666666667 0.4666666666666667 0.4666666666666667 0.05555555555555555 0.5555555555555556 0.3888888888888889 0.4339622641509434 0.2830188679245283 0.2830188679245283 0.1111111111111111 0.6666666666666666 0.2222222222222222 0.05 0.8500000000000001 0.1 0.02222222222222222 0.8888888888888887 0.08888888888888886</probabilities>
		</cpt>
		<cpt id="Withdrawal_symptoms">
			<state id="I_have_no_idea" />
			<state id="No" />
			<state id="Yes" />
			<parents>Conflict_with_law Smoking</parents>
			<probabilities>0.9345238095238095 0.05952380952380952 0.005952380952380952 0.2888888888888889 0.2888888888888889 0.4222222222222222 0.6153846153846154 0.2692307692307693 0.1153846153846154 0.04761904761904762 0.761904761904762 0.1904761904761905 0.2173913043478261 0.1739130434782609 0.6086956521739131 0.02222222222222222 0.6888888888888889 0.2888888888888889</probabilities>
		</cpt>
		<cpt id="Friends_influence">
			<state id="No_they_dont" />
			<state id="Yes_often_they_do" />
			<parents>Ever_taken_drug</parents>
			<probabilities>0.8631578947368421 0.1368421052631579 0.3378378378378378 0.6621621621621622</probabilities>
		</cpt>
		<cpt id="Would_try_drugs">
			<state id="i_dont_know_confused" />
			<state id="Ill_try" />
			<state id="no_ill_not" />
			<parents>Enjoyable_amount_of_drugs Smoking</parents>
			<probabilities>0.2321428571428571 0.01785714285714286 0.75 0.4285714285714285 0.1904761904761905 0.3809523809523809 0.4347826086956522 0.3043478260869565 0.2608695652173913 0.1111111111111111 0.4444444444444444 0.4444444444444444 0.1052631578947368 0.8421052631578947 0.05263157894736842 0.02777777777777778 0.2777777777777778 0.6944444444444444 0.3333333333333333 0.3333333333333333 0.3333333333333333 0.03571428571428571 0.8928571428571428 0.07142857142857142 0.3333333333333333 0.3333333333333333 0.3333333333333333</probabilities>
		</cpt>
	</nodes>
	<extensions>
		<genie version="1.0" app="GeNIe 5.0.4708.0 ACADEMIC" name="highacc">
			<node id="Age">
				<name>Age</name>
				<interior color="e5f6f7" />
				<outline color="000080" />
				<font color="000000" name="Arial" size="8" />
				<position>10 10 82 58</position>
			</node>
			<node id="Gender">
				<name>Gender</name>
				<interior color="e5f6f7" />
				<outline color="000080" />
				<font color="000000" name="Arial" size="8" />
				<position>10 72 82 120</position>
			</node>
			<node id="Education">
				<name>Education</name>
				<interior color="e5f6f7" />
				<outline color="000080" />
				<font color="000000" name="Arial" size="8" />
				<position>196 10 268 58</position>
			</node>
			<node id="Enjoyable_amount_of_drugs">
				<name>Enjoyable_amount_of_drugs</name>
				<interior color="e5f6f7" />
				<outline color="000080" />
				<font color="000000" name="Arial" size="8" />
				<position>475 10 547 58</position>
			</node>
			<node id="Live_with">
				<name>Live_with</name>
				<interior color="e5f6f7" />
				<outline color="000080" />
				<font color="000000" name="Arial" size="8" />
				<position>10 134 82 182</position>
			</node>
			<node id="Conflict_with_law">
				<name>Conflict_with_law</name>
				<interior color="e5f6f7" />
				<outline color="000080" />
				<font color="000000" name="Arial" size="8" />
				<position>10 196 82 244</position>
			</node>
			<node id="Spend_most_time_with">
				<name>Spend_most_time_with</name>
				<interior color="e5f6f7" />
				<outline color="000080" />
				<font color="000000" name="Arial" size="8" />
				<position>10 258 82 306</position>
			</node>
			<node id="Failure_in_life">
				<name>Failure_in_life</name>
				<interior color="e5f6f7" />
				<outline color="000080" />
				<font color="000000" name="Arial" size="8" />
				<position>103 10 175 58</position>
			</node>
			<node id="Mental_emotional_problem">
				<name>Mental_emotional_problem</name>
				<interior color="e5f6f7" />
				<outline color="000080" />
				<font color="000000" name="Arial" size="8" />
				<position>171 303 243 351</position>
			</node>
			<node id="Suicidal_thoughts">
				<name>Suicidal_thoughts</name>
				<interior color="e5f6f7" />
				<outline color="000080" />
				<font color="000000" name="Arial" size="8" />
				<position>475 72 547 120</position>
			</node>
			<node id="Family_relationship">
				<name>Family_relationship</name>
				<interior color="e5f6f7" />
				<outline color="000080" />
				<font color="000000" name="Arial" size="8" />
				<position>568 10 640 58</position>
			</node>
			<node id="Financials_of_family">
				<name>Financials_of_family</name>
				<interior color="e5f6f7" />
				<outline color="000080" />
				<font color="000000" name="Arial" size="8" />
				<position>289 10 361 58</position>
			</node>
			<node id="Addicted_person_in_family">
				<name>Addicted_person_in_family</name>
				<interior color="e5f6f7" />
				<outline color="000080" />
				<font color="000000" name="Arial" size="8" />
				<position>196 72 268 120</position>
			</node>
			<node id="num_of_friends">
				<name>num_of_friends</name>
				<interior color="e5f6f7" />
				<outline color="000080" />
				<font color="000000" name="Arial" size="8" />
				<position>568 72 640 120</position>
			</node>
			<node id="Withdrawal_symptoms">
				<name>Withdrawal_symptoms</name>
				<interior color="e5f6f7" />
				<outline color="000080" />
				<font color="000000" name="Arial" size="8" />
				<position>568 134 640 182</position>
			</node>
			<node id="Satisfied_with_workplace">
				<name>Satisfied_with_workplace</name>
				<interior color="e5f6f7" />
				<outline color="000080" />
				<font color="000000" name="Arial" size="8" />
				<position>10 444 82 492</position>
			</node>
			<node id="Case_in_court">
				<name>Case_in_court</name>
				<interior color="e5f6f7" />
				<outline color="000080" />
				<font color="000000" name="Arial" size="8" />
				<position>103 72 175 120</position>
			</node>
			<node id="Living_with_drug_user">
				<name>Living_with_drug_user</name>
				<interior color="e5f6f7" />
				<outline color="000080" />
				<font color="000000" name="Arial" size="8" />
				<position>289 72 361 120</position>
			</node>
			<node id="Smoking">
				<name>Smoking</name>
				<interior color="e5f6f7" />
				<outline color="000080" />
				<font color="000000" name="Arial" size="8" />
				<position>475 134 547 182</position>
			</node>
			<node id="Ever_taken_drug">
				<name>Ever_taken_drug</name>
				<interior color="e5f6f7" />
				<outline color="000080" />
				<font color="000000" name="Arial" size="8" />
				<position>475 196 547 244</position>
			</node>
			<node id="Friends_influence">
				<name>Friends_influence</name>
				<interior color="e5f6f7" />
				<outline color="000080" />
				<font color="000000" name="Arial" size="8" />
				<position>568 196 640 244</position>
			</node>
			<node id="Would_try_drugs">
				<name>Would_try_drugs</name>
				<interior color="e5f6f7" />
				<outline color="000080" />
				<font color="000000" name="Arial" size="8" />
				<position>568 258 640 306</position>
			</node>
			<node id="Frequency_of_drugs">
				<name>Frequency_of_drugs</name>
				<interior color="e5f6f7" />
				<outline color="000080" />
				<font color="000000" name="Arial" size="8" />
				<position>382 10 454 58</position>
			</node>
			<textbox>
				<caption>Input file: finalbanglatrain\nData rows: 169\nElapsed time: 0.797s\n\nLearning algorithm: Bayesian Search\nAlgorithm parameters:\nIterations: 100\nMax parent count: 4\nSample size: 50\nLink probability: 0.05\nPrior link probability: 0.01\nSeed: 42\nMax search time: 0\nScore by accuracy (6-fold), class variable: Frequency_of_drugs\nBackground knowledge was provided:\n  forbidden arcs: 48\n  nodes assigned to tiers: 2\n\nBest accuracy in iteration 17: 0.751479 (127/169)\nEM Log Likelihood: -2992.64</caption>
				<font color="000000" name="Arial" size="8" />
				<position>10 574 323 854</position>
			</textbox>
		</genie>
	</extensions>
</smile>
