<?xml version="1.0" encoding="UTF-8"?>
<!-- This network was created in GeNIe Academic, which can be used for academic teaching and research purposes only -->
<smile version="1.0" id="finalbanglatrain" numsamples="10000" discsamples="10000">
	<nodes>
		<cpt id="Age">
			<state id="above_35" />
			<state id="between_22_to_35_years" />
			<state id="s15_to_22_years" />
			<probabilities>0.1183431952662722 0.5502958579881657 0.3313609467455621</probabilities>
		</cpt>
		<cpt id="Gender">
			<state id="Female" />
			<state id="Male" />
			<probabilities>0.3254437869822485 0.6745562130177515</probabilities>
		</cpt>
		<cpt id="Education">
			<state id="HSC_A_levels" />
			<state id="Postgraduate_MSc_PhD" />
			<state id="Primary_Education" />
			<state id="SSC_O_levels" />
			<state id="Undergraduate" />
			<probabilities>0.2071005917159763 0.106508875739645 0.01183431952662722 0.05325443786982249 0.6213017751479289</probabilities>
		</cpt>
		<cpt id="Suicidal_thoughts">
			<state id="No" />
			<state id="Yes" />
			<probabilities>0.6863905325443787 0.3136094674556213</probabilities>
		</cpt>
		<cpt id="Withdrawal_symptoms">
			<state id="I_have_no_idea" />
			<state id="No" />
			<state id="Yes" />
			<parents>Suicidal_thoughts</parents>
			<probabilities>0.5603448275862069 0.2327586206896552 0.2068965517241379 0.3962264150943396 0.2830188679245283 0.3207547169811321</probabilities>
		</cpt>
		<cpt id="Would_try_drugs">
			<state id="i_dont_know_confused" />
			<state id="Ill_try" />
			<state id="no_ill_not" />
			<parents>Withdrawal_symptoms</parents>
			<probabilities>0.3372093023255814 0.186046511627907 0.4767441860465116 0.09523809523809523 0.4523809523809523 0.4523809523809523 0.1219512195121951 0.6097560975609756 0.2682926829268293</probabilities>
		</cpt>
		<cpt id="Live_with">
			<state id="Hostel_Hall" />
			<state id="With_Family_Relatives" />
			<parents>Would_try_drugs</parents>
			<probabilities>0.4210526315789473 0.5789473684210527 0.35 0.65 0.3802816901408451 0.619718309859155</probabilities>
		</cpt>
		<cpt id="Enjoyable_amount_of_drugs">
			<state id="I_have_no_idea" />
			<state id="Multiple_drugs" />
			<state id="One_drug" />
			<parents>Live_with Would_try_drugs</parents>
			<probabilities>0.875 0.0625 0.0625 0.1904761904761905 0.2857142857142857 0.5238095238095237 0.7407407407407407 0.1111111111111111 0.1481481481481481 0.8181818181818182 0.04545454545454546 0.1363636363636364 0.2051282051282051 0.358974358974359 0.4358974358974359 0.8181818181818182 0.1590909090909091 0.02272727272727273</probabilities>
		</cpt>
		<cpt id="Failure_in_life">
			<state id="No" />
			<state id="Yes" />
			<probabilities>0.4792899408284024 0.5207100591715976</probabilities>
		</cpt>
		<cpt id="Frequency_of_drugs">
			<state id="Never_Not_applicable" />
			<state id="Occasionally" />
			<state id="Once_twice_a_week" />
			<state id="Regularly" />
			<parents>Enjoyable_amount_of_drugs Suicidal_thoughts</parents>
			<probabilities>0.8406250000000001 0.128125 0.028125 0.003125 0.9204545454545455 0.01136363636363636 0.05681818181818182 0.01136363636363636 0.01470588235294118 0.4264705882352941 0.25 0.3088235294117647 0.0625 0.25 0.375 0.3125 0.09523809523809523 0.3333333333333333 0.3809523809523809 0.1904761904761905 0.125 0.375 0.1875 0.3125</probabilities>
		</cpt>
		<cpt id="Case_in_court">
			<state id="No" />
			<state id="Yes" />
			<parents>Would_try_drugs Frequency_of_drugs</parents>
			<probabilities>0.9814814814814814 0.01851851851851852 0.9500000000000001 0.05 0.6666666666666666 0.3333333333333333 0.5 0.5 0.8461538461538463 0.1538461538461539 0.9333333333333333 0.06666666666666667 0.8235294117647058 0.1764705882352941 0.6 0.4 0.9907407407407407 0.009259259259259259 0.6000000000000001 0.4 0.5 0.5 0.25 0.75</probabilities>
		</cpt>
		<cpt id="Conflict_with_law">
			<state id="No" />
			<state id="Yes" />
			<parents>Failure_in_life Case_in_court</parents>
			<probabilities>0.8421052631578947 0.1578947368421053 0.2 0.8 0.8309859154929577 0.1690140845070423 0.1176470588235294 0.8823529411764706</probabilities>
		</cpt>
		<cpt id="num_of_friends">
			<state id="Few_14" />
			<state id="Many_more_than_5" />
			<state id="Zero" />
			<probabilities>0.3017751479289941 0.6568047337278107 0.04142011834319526</probabilities>
		</cpt>
		<cpt id="Spend_most_time_with">
			<state id="Alone" />
			<state id="Family_Relatives" />
			<state id="Friends" />
			<parents>Education num_of_friends</parents>
			<probabilities>0.2 0.4 0.4 0.01333333333333333 0.1333333333333333 0.8533333333333333 0.1666666666666667 0.6666666666666667 0.1666666666666667 0.4444444444444444 0.4444444444444444 0.1111111111111111 0.03333333333333333 0.6333333333333333 0.3333333333333334 0.3333333333333333 0.3333333333333333 0.3333333333333333 0.6666666666666667 0.1666666666666667 0.1666666666666667 0.3333333333333333 0.3333333333333333 0.3333333333333333 0.6666666666666667 0.1666666666666667 0.1666666666666667 0.06666666666666667 0.06666666666666667 0.8666666666666667 0.08333333333333333 0.3333333333333333 0.5833333333333334 0.7777777777777777 0.1111111111111111 0.1111111111111111 0.1111111111111111 0.2592592592592592 0.6296296296296295 0.1466666666666667 0.2266666666666667 0.6266666666666667 0.5833333333333334 0.3333333333333333 0.08333333333333333</probabilities>
		</cpt>
		<cpt id="Mental_emotional_problem">
			<state id="Anxiety" />
			<state id="Both" />
			<state id="Depression" />
			<state id="Not_any" />
			<state id="Others" />
			<probabilities>0.3076923076923077 0.1834319526627219 0.3609467455621302 0.0650887573964497 0.08284023668639053</probabilities>
		</cpt>
		<cpt id="Ever_taken_drug">
			<state id="No" />
			<state id="Yes" />
			<parents>Suicidal_thoughts Frequency_of_drugs</parents>
			<probabilities>0.9710144927536232 0.02898550724637681 0.1666666666666667 0.8333333333333333 0.03333333333333333 0.9666666666666667 0.2222222222222222 0.7777777777777777 0.7826086956521738 0.2173913043478261 0.1 0.9 0.1 0.9 0.2 0.8</probabilities>
		</cpt>
		<cpt id="Family_relationship">
			<state id="Average" />
			<state id="Communcaiton_gap" />
			<state id="Satisfactory" />
			<parents>Conflict_with_law Spend_most_time_with Ever_taken_drug</parents>
			<probabilities>0.2777777777777778 0.02777777777777778 0.6944444444444444 0.761904761904762 0.04761904761904762 0.1904761904761905 0.01041666666666667 0.04166666666666666 0.9479166666666666 0.1904761904761905 0.04761904761904762 0.7619047619047619 0.2391304347826087 0.04347826086956522 0.7173913043478261 0.6153846153846154 0.07692307692307693 0.3076923076923077 0.3333333333333333 0.3333333333333333 0.3333333333333333 0.5555555555555556 0.3333333333333333 0.1111111111111111 0.2666666666666667 0.06666666666666667 0.6666666666666667 0.5833333333333334 0.08333333333333333 0.3333333333333333 0.3333333333333333 0.08333333333333333 0.5833333333333334 0.5833333333333333 0.1666666666666667 0.25</probabilities>
		</cpt>
		<cpt id="Financials_of_family">
			<state id="Lower_Class" />
			<state id="Medium" />
			<state id="Upper_Class" />
			<parents>Spend_most_time_with Suicidal_thoughts</parents>
			<probabilities>0.2 0.6666666666666666 0.1333333333333333 0.6363636363636364 0.2727272727272727 0.09090909090909091 0.3157894736842105 0.2631578947368421 0.4210526315789473 0.3333333333333333 0.1666666666666667 0.5 0.2380952380952381 0.5873015873015872 0.1746031746031746 0.2777777777777778 0.6944444444444444 0.02777777777777778</probabilities>
		</cpt>
		<cpt id="Living_with_drug_user">
			<state id="No" />
			<state id="Not_sure" />
			<state id="Yes" />
			<parents>Conflict_with_law Frequency_of_drugs</parents>
			<probabilities>0.8023255813953488 0.02325581395348837 0.1744186046511628 0.4 0.1 0.5 0.2380952380952381 0.02380952380952381 0.7380952380952381 0.1666666666666667 0.04166666666666666 0.7916666666666666 0.5 0.1666666666666667 0.3333333333333333 0.5714285714285714 0.07142857142857142 0.3571428571428571 0.4545454545454546 0.09090909090909091 0.4545454545454546 0.1025641025641026 0.02564102564102564 0.8717948717948719</probabilities>
		</cpt>
		<cpt id="Addicted_person_in_family">
			<state id="No" />
			<state id="Not_sure" />
			<state id="Yes" />
			<parents>Living_with_drug_user</parents>
			<probabilities>0.9387755102040816 0.01020408163265306 0.0510204081632653 0.04166666666666667 0.9166666666666669 0.04166666666666667 0.46875 0.125 0.40625</probabilities>
		</cpt>
		<cpt id="friends_houses_at_night">
			<state id="No_I_dont" />
			<state id="Sometimes" />
			<state id="Yes_often_I_do" />
			<probabilities>0.2603550295857988 0.5266272189349113 0.2130177514792899</probabilities>
		</cpt>
		<cpt id="Satisfied_with_workplace">
			<state id="No" />
			<state id="Yes" />
			<parents>Mental_emotional_problem Suicidal_thoughts</parents>
			<probabilities>0.3181818181818182 0.6818181818181819 0.125 0.875 0.25 0.75 0.4545454545454546 0.5454545454545454 0.5333333333333333 0.4666666666666667 0.5161290322580645 0.4838709677419355 0.3 0.7000000000000001 0.75 0.25 0.4166666666666666 0.5833333333333333 0.1666666666666667 0.8333333333333333</probabilities>
		</cpt>
		<cpt id="Smoking">
			<state id="No_I_dont" />
			<state id="Yes_every_day" />
			<state id="Yes_occasionally" />
			<parents>Suicidal_thoughts Withdrawal_symptoms Would_try_drugs</parents>
			<probabilities>0.5 0.1818181818181818 0.3181818181818182 0.0303030303030303 0.8484848484848484 0.1212121212121212 0.9090909090909092 0.0303030303030303 0.06060606060606061 0.25 0.5 0.25 0.02380952380952381 0.5952380952380952 0.3809523809523809 0.4 0.2 0.4 0.05555555555555556 0.888888888888889 0.05555555555555556 0.02777777777777777 0.7777777777777777 0.1944444444444444 0.125 0.625 0.25 0.2857142857142857 0.1428571428571428 0.5714285714285714 0.1666666666666667 0.5 0.3333333333333333 0.9259259259259258 0.03703703703703703 0.03703703703703703 0.3333333333333333 0.3333333333333333 0.3333333333333333 0.3333333333333333 0.3333333333333333 0.3333333333333333 0.1111111111111111 0.3333333333333333 0.5555555555555556 0.3333333333333333 0.3333333333333333 0.3333333333333333 0.02222222222222222 0.9555555555555554 0.02222222222222222 0.08333333333333333 0.08333333333333333 0.8333333333333334</probabilities>
		</cpt>
		<cpt id="Friends_influence">
			<state id="No_they_dont" />
			<state id="Yes_often_they_do" />
			<parents>Ever_taken_drug</parents>
			<probabilities>0.8631578947368421 0.1368421052631579 0.3378378378378378 0.6621621621621622</probabilities>
		</cpt>
		<cpt id="Control_use_of_drug">
			<state id="No_Its_not_possible" />
			<state id="Yes_Its_possible" />
			<probabilities>0.242603550295858 0.757396449704142</probabilities>
		</cpt>
	</nodes>
	<extensions>
		<genie version="1.0" app="GeNIe 5.0.4708.0 ACADEMIC" name="highestaccuracy">
			<node id="Age">
				<name>Age</name>
				<interior color="e5f6f7" />
				<outline color="000080" />
				<font color="000000" name="Arial" size="8" />
				<position>355 622 427 670</position>
			</node>
			<node id="Gender">
				<name>Gender</name>
				<interior color="e5f6f7" />
				<outline color="000080" />
				<font color="000000" name="Arial" size="8" />
				<position>208 518 280 566</position>
			</node>
			<node id="Education">
				<name>Education</name>
				<interior color="e5f6f7" />
				<outline color="000080" />
				<font color="000000" name="Arial" size="8" />
				<position>10 134 82 182</position>
			</node>
			<node id="Enjoyable_amount_of_drugs">
				<name>Enjoyable_amount_of_drugs</name>
				<interior color="e5f6f7" />
				<outline color="000080" />
				<font color="000000" name="Arial" size="8" />
				<position>382 10 454 58</position>
			</node>
			<node id="Live_with">
				<name>Live_with</name>
				<interior color="e5f6f7" />
				<outline color="000080" />
				<font color="000000" name="Arial" size="8" />
				<position>289 10 361 58</position>
			</node>
			<node id="Conflict_with_law">
				<name>Conflict_with_law</name>
				<interior color="e5f6f7" />
				<outline color="000080" />
				<font color="000000" name="Arial" size="8" />
				<position>661 10 733 58</position>
			</node>
			<node id="Spend_most_time_with">
				<name>Spend_most_time_with</name>
				<interior color="e5f6f7" />
				<outline color="000080" />
				<font color="000000" name="Arial" size="8" />
				<position>103 10 175 58</position>
			</node>
			<node id="Failure_in_life">
				<name>Failure_in_life</name>
				<interior color="e5f6f7" />
				<outline color="000080" />
				<font color="000000" name="Arial" size="8" />
				<position>10 196 82 244</position>
			</node>
			<node id="Mental_emotional_problem">
				<name>Mental_emotional_problem</name>
				<interior color="e5f6f7" />
				<outline color="000080" />
				<font color="000000" name="Arial" size="8" />
				<position>340 449 412 497</position>
			</node>
			<node id="Suicidal_thoughts">
				<name>Suicidal_thoughts</name>
				<interior color="e5f6f7" />
				<outline color="000080" />
				<font color="000000" name="Arial" size="8" />
				<position>10 320 82 368</position>
			</node>
			<node id="Family_relationship">
				<name>Family_relationship</name>
				<interior color="e5f6f7" />
				<outline color="000080" />
				<font color="000000" name="Arial" size="8" />
				<position>754 10 826 58</position>
			</node>
			<node id="Financials_of_family">
				<name>Financials_of_family</name>
				<interior color="e5f6f7" />
				<outline color="000080" />
				<font color="000000" name="Arial" size="8" />
				<position>196 10 268 58</position>
			</node>
			<node id="Addicted_person_in_family">
				<name>Addicted_person_in_family</name>
				<interior color="e5f6f7" />
				<outline color="000080" />
				<font color="000000" name="Arial" size="8" />
				<position>847 10 919 58</position>
			</node>
			<node id="num_of_friends">
				<name>num_of_friends</name>
				<interior color="e5f6f7" />
				<outline color="000080" />
				<font color="000000" name="Arial" size="8" />
				<position>10 382 82 430</position>
			</node>
			<node id="Withdrawal_symptoms">
				<name>Withdrawal_symptoms</name>
				<interior color="e5f6f7" />
				<outline color="000080" />
				<font color="000000" name="Arial" size="8" />
				<position>103 72 175 120</position>
			</node>
			<node id="friends_houses_at_night">
				<name>friends_houses_at_night</name>
				<interior color="e5f6f7" />
				<outline color="000080" />
				<font color="000000" name="Arial" size="8" />
				<position>10 444 82 492</position>
			</node>
			<node id="Satisfied_with_workplace">
				<name>Satisfied_with_workplace</name>
				<interior color="e5f6f7" />
				<outline color="000080" />
				<font color="000000" name="Arial" size="8" />
				<position>103 134 175 182</position>
			</node>
			<node id="Case_in_court">
				<name>Case_in_court</name>
				<interior color="e5f6f7" />
				<outline color="000080" />
				<font color="000000" name="Arial" size="8" />
				<position>568 10 640 58</position>
			</node>
			<node id="Living_with_drug_user">
				<name>Living_with_drug_user</name>
				<interior color="e5f6f7" />
				<outline color="000080" />
				<font color="000000" name="Arial" size="8" />
				<position>754 72 826 120</position>
			</node>
			<node id="Smoking">
				<name>Smoking</name>
				<interior color="e5f6f7" />
				<outline color="000080" />
				<font color="000000" name="Arial" size="8" />
				<position>289 72 361 120</position>
			</node>
			<node id="Ever_taken_drug">
				<name>Ever_taken_drug</name>
				<interior color="e5f6f7" />
				<outline color="000080" />
				<font color="000000" name="Arial" size="8" />
				<position>568 72 640 120</position>
			</node>
			<node id="Friends_influence">
				<name>Friends_influence</name>
				<interior color="e5f6f7" />
				<outline color="000080" />
				<font color="000000" name="Arial" size="8" />
				<position>661 72 733 120</position>
			</node>
			<node id="Would_try_drugs">
				<name>Would_try_drugs</name>
				<interior color="e5f6f7" />
				<outline color="000080" />
				<font color="000000" name="Arial" size="8" />
				<position>196 72 268 120</position>
			</node>
			<node id="Control_use_of_drug">
				<name>Control_use_of_drug</name>
				<interior color="e5f6f7" />
				<outline color="000080" />
				<font color="000000" name="Arial" size="8" />
				<position>10 506 82 554</position>
			</node>
			<node id="Frequency_of_drugs">
				<name>Frequency_of_drugs</name>
				<interior color="e5f6f7" />
				<outline color="000080" />
				<font color="000000" name="Arial" size="8" />
				<position>475 10 547 58</position>
			</node>
			<textbox>
				<caption>Input file: finalbanglatrain\nData rows: 169\nElapsed time: 0.36s\n\nLearning algorithm: Bayesian Search\nAlgorithm parameters:\nIterations: 35\nMax parent count: 4\nSample size: 50\nLink probability: 0.1\nPrior link probability: 0.005\nSeed: 42\nMax search time: 0\nScore by accuracy (2-fold), class variable: Frequency_of_drugs\nBackground knowledge was provided:\n  forbidden arcs: 48\n  nodes assigned to tiers: 2\n\nBest accuracy in iteration 8: 0.739645 (125/169)\nEM Log Likelihood: -3072.59</caption>
				<font color="000000" name="Arial" size="8" />
				<position>10 574 323 854</position>
			</textbox>
		</genie>
	</extensions>
</smile>
