<?xml version="1.0" encoding="UTF-8"?>
<!-- This network was created in GeNIe Academic, which can be used for academic teaching and research purposes only -->
<smile version="1.0" id="finalbanglatrain" numsamples="10000" discsamples="10000">
	<nodes>
		<cpt id="Age">
			<state id="above_35" />
			<state id="between_22_to_35_years" />
			<state id="s15_to_22_years" />
			<probabilities>0.1183431952662722 0.5502958579881657 0.3313609467455621</probabilities>
		</cpt>
		<cpt id="Gender">
			<state id="Female" />
			<state id="Male" />
			<probabilities>0.3254437869822485 0.6745562130177515</probabilities>
		</cpt>
		<cpt id="Control_use_of_drug">
			<state id="No_Its_not_possible" />
			<state id="Yes_Its_possible" />
			<probabilities>0.242603550295858 0.757396449704142</probabilities>
		</cpt>
		<cpt id="Conflict_with_law">
			<state id="No" />
			<state id="Yes" />
			<parents>Control_use_of_drug</parents>
			<probabilities>0.6341463414634146 0.3658536585365854 0.78125 0.21875</probabilities>
		</cpt>
		<cpt id="Enjoyable_amount_of_drugs">
			<state id="I_have_no_idea" />
			<state id="Multiple_drugs" />
			<state id="One_drug" />
			<probabilities>0.591715976331361 0.1893491124260355 0.2189349112426036</probabilities>
		</cpt>
		<cpt id="Addicted_person_in_family">
			<state id="No" />
			<state id="Not_sure" />
			<state id="Yes" />
			<probabilities>0.7218934911242604 0.09467455621301775 0.1834319526627219</probabilities>
		</cpt>
		<cpt id="Living_with_drug_user">
			<state id="No" />
			<state id="Not_sure" />
			<state id="Yes" />
			<parents>Enjoyable_amount_of_drugs Addicted_person_in_family</parents>
			<probabilities>0.8410852713178295 0.003875968992248062 0.1550387596899225 0.05555555555555556 0.888888888888889 0.05555555555555556 0.303030303030303 0.0303030303030303 0.6666666666666666 0.4912280701754386 0.01754385964912281 0.4912280701754386 0.1428571428571428 0.1428571428571428 0.7142857142857142 0.1666666666666667 0.04166666666666666 0.7916666666666666 0.5666666666666668 0.01666666666666667 0.4166666666666667 0.06666666666666667 0.2666666666666667 0.6666666666666667 0.08888888888888888 0.02222222222222222 0.888888888888889</probabilities>
		</cpt>
		<cpt id="Case_in_court">
			<state id="No" />
			<state id="Yes" />
			<parents>Conflict_with_law Living_with_drug_user</parents>
			<probabilities>0.9876543209876543 0.01234567901234568 0.9 0.1 0.951219512195122 0.04878048780487805 0.7647058823529411 0.2352941176470588 0.6666666666666666 0.3333333333333333 0.3913043478260869 0.6086956521739131</probabilities>
		</cpt>
		<cpt id="Education">
			<state id="HSC_A_levels" />
			<state id="Postgraduate_MSc_PhD" />
			<state id="Primary_Education" />
			<state id="SSC_O_levels" />
			<state id="Undergraduate" />
			<parents>Age Case_in_court</parents>
			<probabilities>0.4428571428571428 0.2285714285714286 0.01428571428571429 0.01428571428571429 0.3 0.025 0.025 0.15 0.275 0.525 0.07209302325581396 0.1767441860465116 0.002325581395348837 0.002325581395348837 0.7465116279069768 0.4666666666666667 0.02222222222222222 0.02222222222222222 0.1333333333333333 0.3555555555555556 0.324 0.004 0.004 0.08400000000000001 0.584 0.4 0.025 0.15 0.275 0.15</probabilities>
		</cpt>
		<cpt id="Live_with">
			<state id="Hostel_Hall" />
			<state id="With_Family_Relatives" />
			<probabilities>0.378698224852071 0.6213017751479289</probabilities>
		</cpt>
		<cpt id="Spend_most_time_with">
			<state id="Alone" />
			<state id="Family_Relatives" />
			<state id="Friends" />
			<probabilities>0.1538461538461539 0.2603550295857988 0.5857988165680473</probabilities>
		</cpt>
		<cpt id="Failure_in_life">
			<state id="No" />
			<state id="Yes" />
			<probabilities>0.4792899408284024 0.5207100591715976</probabilities>
		</cpt>
		<cpt id="Mental_emotional_problem">
			<state id="Anxiety" />
			<state id="Both" />
			<state id="Depression" />
			<state id="Not_any" />
			<state id="Others" />
			<probabilities>0.3076923076923077 0.1834319526627219 0.3609467455621302 0.0650887573964497 0.08284023668639053</probabilities>
		</cpt>
		<cpt id="Suicidal_thoughts">
			<state id="No" />
			<state id="Yes" />
			<parents>Spend_most_time_with</parents>
			<probabilities>0.576923076923077 0.4230769230769231 0.8636363636363636 0.1363636363636364 0.6363636363636365 0.3636363636363636</probabilities>
		</cpt>
		<cpt id="Would_try_drugs">
			<state id="i_dont_know_confused" />
			<state id="Ill_try" />
			<state id="no_ill_not" />
			<probabilities>0.2248520710059171 0.3550295857988165 0.4201183431952663</probabilities>
		</cpt>
		<cpt id="Frequency_of_drugs">
			<state id="Never_Not_applicable" />
			<state id="Occasionally" />
			<state id="Once_twice_a_week" />
			<state id="Regularly" />
			<parents>Conflict_with_law Living_with_drug_user Would_try_drugs</parents>
			<probabilities>0.8214285714285714 0.1071428571428571 0.05952380952380952 0.0119047619047619 0.5555555555555556 0.3333333333333333 0.05555555555555555 0.05555555555555555 0.9602272727272727 0.005681818181818182 0.02840909090909091 0.005681818181818182 0.5625 0.3125 0.0625 0.0625 0.125 0.625 0.125 0.125 0.25 0.25 0.25 0.25 0.6041666666666666 0.3541666666666666 0.02083333333333333 0.02083333333333333 0.0125 0.2125 0.5125000000000001 0.2625 0.6875 0.1875 0.02083333333333333 0.1041666666666667 0.0625 0.5625 0.3125 0.0625 0.3214285714285714 0.1785714285714285 0.4642857142857142 0.03571428571428571 0.125 0.625 0.125 0.125 0.25 0.25 0.25 0.25 0.4166666666666666 0.4166666666666666 0.08333333333333333 0.08333333333333333 0.125 0.125 0.625 0.125 0.125 0.125 0.625 0.125 0.01666666666666667 0.15 0.2166666666666667 0.6166666666666667 0.25 0.375 0.125 0.25</probabilities>
		</cpt>
		<cpt id="Ever_taken_drug">
			<state id="No" />
			<state id="Yes" />
			<parents>Frequency_of_drugs</parents>
			<probabilities>0.9239130434782609 0.07608695652173914 0.1470588235294118 0.8529411764705882 0.04166666666666666 0.9583333333333333 0.2105263157894737 0.7894736842105263</probabilities>
		</cpt>
		<cpt id="Family_relationship">
			<state id="Average" />
			<state id="Communcaiton_gap" />
			<state id="Satisfactory" />
			<parents>Education Ever_taken_drug</parents>
			<probabilities>0.3787878787878788 0.01515151515151515 0.6060606060606061 0.7142857142857142 0.07142857142857142 0.2142857142857143 0.1111111111111111 0.02777777777777778 0.8611111111111112 0.4285714285714285 0.1428571428571428 0.4285714285714285 0.3333333333333333 0.3333333333333333 0.3333333333333333 0.4444444444444444 0.4444444444444444 0.1111111111111111 0.4444444444444444 0.1111111111111111 0.4444444444444444 0.1428571428571428 0.7142857142857142 0.1428571428571428 0.09836065573770492 0.04918032786885246 0.8524590163934427 0.6363636363636364 0.02272727272727273 0.3409090909090909</probabilities>
		</cpt>
		<cpt id="Financials_of_family">
			<state id="Lower_Class" />
			<state id="Medium" />
			<state id="Upper_Class" />
			<parents>Family_relationship</parents>
			<probabilities>0.2542372881355932 0.6271186440677966 0.1186440677966102 0.7948717948717948 0.1794871794871795 0.02564102564102564 0.2448979591836735 0.4795918367346939 0.2755102040816326</probabilities>
		</cpt>
		<cpt id="num_of_friends">
			<state id="Few_14" />
			<state id="Many_more_than_5" />
			<state id="Zero" />
			<parents>Spend_most_time_with</parents>
			<probabilities>0.3846153846153846 0.4230769230769231 0.1923076923076923 0.3409090909090909 0.6136363636363636 0.04545454545454546 0.2633333333333334 0.7333333333333334 0.003333333333333334</probabilities>
		</cpt>
		<cpt id="Smoking">
			<state id="No_I_dont" />
			<state id="Yes_every_day" />
			<state id="Yes_occasionally" />
			<parents>Spend_most_time_with Ever_taken_drug</parents>
			<probabilities>0.4545454545454546 0.4545454545454546 0.09090909090909091 0.3333333333333333 0.5333333333333333 0.1333333333333333 0.6571428571428571 0.1142857142857143 0.2285714285714286 0.03333333333333333 0.7333333333333334 0.2333333333333334 0.5306122448979591 0.1224489795918367 0.3469387755102041 0.04 0.76 0.2</probabilities>
		</cpt>
		<cpt id="Withdrawal_symptoms">
			<state id="I_have_no_idea" />
			<state id="No" />
			<state id="Yes" />
			<parents>Smoking Ever_taken_drug</parents>
			<probabilities>0.9151515151515152 0.07878787878787878 0.00606060606060606 0.2857142857142857 0.5714285714285714 0.1428571428571428 0.4666666666666667 0.1333333333333333 0.4 0.2075471698113207 0.2830188679245283 0.5094339622641509 0.5384615384615385 0.3076923076923077 0.1538461538461539 0.1428571428571428 0.6428571428571428 0.2142857142857143</probabilities>
		</cpt>
		<cpt id="friends_houses_at_night">
			<state id="No_I_dont" />
			<state id="Sometimes" />
			<state id="Yes_often_I_do" />
			<probabilities>0.2603550295857988 0.5266272189349113 0.2130177514792899</probabilities>
		</cpt>
		<cpt id="Satisfied_with_workplace">
			<state id="No" />
			<state id="Yes" />
			<parents>Family_relationship</parents>
			<probabilities>0.4067796610169492 0.5932203389830508 0.8333333333333333 0.1666666666666667 0.3265306122448979 0.673469387755102</probabilities>
		</cpt>
		<cpt id="Friends_influence">
			<state id="No_they_dont" />
			<state id="Yes_often_they_do" />
			<parents>Ever_taken_drug</parents>
			<probabilities>0.8631578947368421 0.1368421052631579 0.3378378378378378 0.6621621621621622</probabilities>
		</cpt>
	</nodes>
	<extensions>
		<genie version="1.0" app="GeNIe 5.0.4708.0 ACADEMIC" name="finalbanglatrain">
			<node id="Age">
				<name>Age</name>
				<interior color="e5f6f7" />
				<outline color="000080" />
				<font color="000000" name="Arial" size="8" />
				<position>10 10 82 58</position>
			</node>
			<node id="Gender">
				<name>Gender</name>
				<interior color="e5f6f7" />
				<outline color="000080" />
				<font color="000000" name="Arial" size="8" />
				<position>144 285 216 333</position>
			</node>
			<node id="Education">
				<name>Education</name>
				<interior color="e5f6f7" />
				<outline color="000080" />
				<font color="000000" name="Arial" size="8" />
				<position>289 10 361 58</position>
			</node>
			<node id="Enjoyable_amount_of_drugs">
				<name>Enjoyable_amount_of_drugs</name>
				<interior color="e5f6f7" />
				<outline color="000080" />
				<font color="000000" name="Arial" size="8" />
				<position>10 134 82 182</position>
			</node>
			<node id="Live_with">
				<name>Live_with</name>
				<interior color="e5f6f7" />
				<outline color="000080" />
				<font color="000000" name="Arial" size="8" />
				<position>10 196 82 244</position>
			</node>
			<node id="Conflict_with_law">
				<name>Conflict_with_law</name>
				<interior color="e5f6f7" />
				<outline color="000080" />
				<font color="000000" name="Arial" size="8" />
				<position>103 10 175 58</position>
			</node>
			<node id="Spend_most_time_with">
				<name>Spend_most_time_with</name>
				<interior color="e5f6f7" />
				<outline color="000080" />
				<font color="000000" name="Arial" size="8" />
				<position>10 258 82 306</position>
			</node>
			<node id="Failure_in_life">
				<name>Failure_in_life</name>
				<interior color="e5f6f7" />
				<outline color="000080" />
				<font color="000000" name="Arial" size="8" />
				<position>10 320 82 368</position>
			</node>
			<node id="Mental_emotional_problem">
				<name>Mental_emotional_problem</name>
				<interior color="e5f6f7" />
				<outline color="000080" />
				<font color="000000" name="Arial" size="8" />
				<position>227 515 299 563</position>
			</node>
			<node id="Suicidal_thoughts">
				<name>Suicidal_thoughts</name>
				<interior color="e5f6f7" />
				<outline color="000080" />
				<font color="000000" name="Arial" size="8" />
				<position>103 72 175 120</position>
			</node>
			<node id="Family_relationship">
				<name>Family_relationship</name>
				<interior color="e5f6f7" />
				<outline color="000080" />
				<font color="000000" name="Arial" size="8" />
				<position>382 10 454 58</position>
			</node>
			<node id="Financials_of_family">
				<name>Financials_of_family</name>
				<interior color="e5f6f7" />
				<outline color="000080" />
				<font color="000000" name="Arial" size="8" />
				<position>475 10 547 58</position>
			</node>
			<node id="Addicted_person_in_family">
				<name>Addicted_person_in_family</name>
				<interior color="e5f6f7" />
				<outline color="000080" />
				<font color="000000" name="Arial" size="8" />
				<position>10 444 82 492</position>
			</node>
			<node id="num_of_friends">
				<name>num_of_friends</name>
				<interior color="e5f6f7" />
				<outline color="000080" />
				<font color="000000" name="Arial" size="8" />
				<position>103 134 175 182</position>
			</node>
			<node id="Withdrawal_symptoms">
				<name>Withdrawal_symptoms</name>
				<interior color="e5f6f7" />
				<outline color="000080" />
				<font color="000000" name="Arial" size="8" />
				<position>597 193 669 241</position>
			</node>
			<node id="friends_houses_at_night">
				<name>friends_houses_at_night</name>
				<interior color="e5f6f7" />
				<outline color="000080" />
				<font color="000000" name="Arial" size="8" />
				<position>10 506 82 554</position>
			</node>
			<node id="Satisfied_with_workplace">
				<name>Satisfied_with_workplace</name>
				<interior color="e5f6f7" />
				<outline color="000080" />
				<font color="000000" name="Arial" size="8" />
				<position>547 260 619 308</position>
			</node>
			<node id="Case_in_court">
				<name>Case_in_court</name>
				<interior color="e5f6f7" />
				<outline color="000080" />
				<font color="000000" name="Arial" size="8" />
				<position>196 10 268 58</position>
			</node>
			<node id="Living_with_drug_user">
				<name>Living_with_drug_user</name>
				<interior color="e5f6f7" />
				<outline color="000080" />
				<font color="000000" name="Arial" size="8" />
				<position>103 196 175 244</position>
			</node>
			<node id="Smoking">
				<name>Smoking</name>
				<interior color="e5f6f7" />
				<outline color="000080" />
				<font color="000000" name="Arial" size="8" />
				<position>382 72 454 120</position>
			</node>
			<node id="Ever_taken_drug">
				<name>Ever_taken_drug</name>
				<interior color="e5f6f7" />
				<outline color="000080" />
				<font color="000000" name="Arial" size="8" />
				<position>289 72 361 120</position>
			</node>
			<node id="Friends_influence">
				<name>Friends_influence</name>
				<interior color="e5f6f7" />
				<outline color="000080" />
				<font color="000000" name="Arial" size="8" />
				<position>356 199 428 247</position>
			</node>
			<node id="Would_try_drugs">
				<name>Would_try_drugs</name>
				<interior color="e5f6f7" />
				<outline color="000080" />
				<font color="000000" name="Arial" size="8" />
				<position>10 568 82 616</position>
			</node>
			<node id="Control_use_of_drug">
				<name>Control_use_of_drug</name>
				<interior color="e5f6f7" />
				<outline color="000080" />
				<font color="000000" name="Arial" size="8" />
				<position>10 630 82 678</position>
			</node>
			<node id="Frequency_of_drugs">
				<name>Frequency_of_drugs</name>
				<interior color="e5f6f7" />
				<outline color="000080" />
				<font color="000000" name="Arial" size="8" />
				<position>196 72 268 120</position>
			</node>
			<textbox>
				<caption>Input file: finalbanglatrain\nData rows: 169\nElapsed time: 1s\n\nLearning algorithm: Bayesian Search\nAlgorithm parameters:\nIterations: 100\nMax parent count: 4\nSample size: 50\nLink probability: 0.1\nPrior link probability: 0.005\nSeed: 42\nMax search time: 0\nScore by accuracy (6-fold), class variable: Frequency_of_drugs\nBackground knowledge was provided:\n  forbidden arcs: 48\n  nodes assigned to tiers: 2\n\nBest accuracy in iteration 17: 0.727811 (123/169)\nEM Log Likelihood: -3117.75</caption>
				<font color="000000" name="Arial" size="8" />
				<position>10 698 323 978</position>
			</textbox>
		</genie>
	</extensions>
</smile>
