<?xml version="1.0" encoding="UTF-8"?>
<!-- This network was created in GeNIe Academic, which can be used for academic teaching and research purposes only -->
<smile version="1.0" id="finalbanglatrain" numsamples="10000" discsamples="10000">
	<nodes>
		<cpt id="Age">
			<state id="above_35" />
			<state id="between_22_to_35_years" />
			<state id="s15_to_22_years" />
			<probabilities>0.1183431952662722 0.5502958579881657 0.3313609467455621</probabilities>
		</cpt>
		<cpt id="Gender">
			<state id="Female" />
			<state id="Male" />
			<probabilities>0.3254437869822485 0.6745562130177515</probabilities>
		</cpt>
		<cpt id="Friends_influence">
			<state id="No_they_dont" />
			<state id="Yes_often_they_do" />
			<probabilities>0.6331360946745562 0.3668639053254438</probabilities>
		</cpt>
		<cpt id="Conflict_with_law">
			<state id="No" />
			<state id="Yes" />
			<parents>Friends_influence</parents>
			<probabilities>0.8504672897196262 0.1495327102803738 0.564516129032258 0.4354838709677419</probabilities>
		</cpt>
		<cpt id="Education">
			<state id="HSC_A_levels" />
			<state id="Postgraduate_MSc_PhD" />
			<state id="Primary_Education" />
			<state id="SSC_O_levels" />
			<state id="Undergraduate" />
			<parents>Age Conflict_with_law</parents>
			<probabilities>0.275 0.4 0.025 0.025 0.275 0.3 0.01428571428571429 0.0857142857142857 0.1571428571428571 0.4428571428571428 0.07948717948717948 0.182051282051282 0.002564102564102564 0.002564102564102564 0.7333333333333334 0.2470588235294118 0.07058823529411765 0.01176470588235294 0.07058823529411765 0.6 0.3302325581395348 0.004651162790697674 0.004651162790697674 0.05116279069767442 0.6093023255813953 0.3466666666666667 0.01333333333333333 0.08 0.28 0.28</probabilities>
		</cpt>
		<cpt id="Case_in_court">
			<state id="No" />
			<state id="Yes" />
			<parents>Conflict_with_law</parents>
			<probabilities>0.9761904761904762 0.02380952380952381 0.5581395348837209 0.4418604651162791</probabilities>
		</cpt>
		<cpt id="Smoking">
			<state id="No_I_dont" />
			<state id="Yes_every_day" />
			<state id="Yes_occasionally" />
			<parents>Gender Education Friends_influence</parents>
			<probabilities>0.25 0.125 0.625 0.06666666666666667 0.2666666666666667 0.6666666666666667 0.7916666666666669 0.04166666666666667 0.1666666666666667 0.3333333333333333 0.3333333333333333 0.3333333333333333 0.3333333333333333 0.3333333333333333 0.3333333333333333 0.3333333333333333 0.3333333333333333 0.3333333333333333 0.08333333333333333 0.3333333333333333 0.5833333333333334 0.1666666666666667 0.6666666666666667 0.1666666666666667 0.9753086419753088 0.01234567901234568 0.01234567901234568 0.04761904761904762 0.1904761904761905 0.7619047619047619 0.3571428571428571 0.3571428571428571 0.2857142857142857 0.1111111111111111 0.5555555555555556 0.3333333333333333 0.04166666666666666 0.6666666666666666 0.2916666666666667 0.06666666666666667 0.6666666666666667 0.2666666666666667 0.1666666666666667 0.1666666666666667 0.6666666666666666 0.1666666666666667 0.6666666666666667 0.1666666666666667 0.3333333333333333 0.3333333333333333 0.3333333333333333 0.05555555555555555 0.3888888888888889 0.5555555555555556 0.3902439024390244 0.4146341463414634 0.1951219512195122 0.15625 0.78125 0.0625</probabilities>
		</cpt>
		<cpt id="Would_try_drugs">
			<state id="i_dont_know_confused" />
			<state id="Ill_try" />
			<state id="no_ill_not" />
			<parents>Smoking</parents>
			<probabilities>0.2295081967213115 0.04918032786885246 0.7213114754098361 0.1764705882352941 0.6617647058823529 0.1617647058823529 0.3 0.3 0.4</probabilities>
		</cpt>
		<cpt id="Enjoyable_amount_of_drugs">
			<state id="I_have_no_idea" />
			<state id="Multiple_drugs" />
			<state id="One_drug" />
			<parents>Age Case_in_court Would_try_drugs</parents>
			<probabilities>0.3333333333333333 0.3333333333333333 0.3333333333333333 0.05555555555555555 0.5555555555555556 0.3888888888888889 0.2 0.6000000000000001 0.2 0.3333333333333333 0.3333333333333333 0.3333333333333333 0.06666666666666667 0.4666666666666667 0.4666666666666667 0.08333333333333333 0.8333333333333334 0.08333333333333333 0.9 0.05 0.05 0.1851851851851852 0.3333333333333333 0.4814814814814815 0.9473684210526315 0.02631578947368421 0.02631578947368421 0.3333333333333333 0.3333333333333333 0.3333333333333333 0.06666666666666667 0.06666666666666667 0.8666666666666667 0.06666666666666667 0.4666666666666667 0.4666666666666667 0.8888888888888887 0.02222222222222222 0.08888888888888886 0.4375 0.25 0.3125 0.9666666666666668 0.01666666666666667 0.01666666666666667 0.1666666666666667 0.1666666666666667 0.6666666666666666 0.06666666666666667 0.4666666666666667 0.4666666666666667 0.1111111111111111 0.4444444444444444 0.4444444444444444</probabilities>
		</cpt>
		<cpt id="Live_with">
			<state id="Hostel_Hall" />
			<state id="With_Family_Relatives" />
			<probabilities>0.378698224852071 0.6213017751479289</probabilities>
		</cpt>
		<cpt id="Spend_most_time_with">
			<state id="Alone" />
			<state id="Family_Relatives" />
			<state id="Friends" />
			<probabilities>0.1538461538461539 0.2603550295857988 0.5857988165680473</probabilities>
		</cpt>
		<cpt id="Failure_in_life">
			<state id="No" />
			<state id="Yes" />
			<probabilities>0.4792899408284024 0.5207100591715976</probabilities>
		</cpt>
		<cpt id="Mental_emotional_problem">
			<state id="Anxiety" />
			<state id="Both" />
			<state id="Depression" />
			<state id="Not_any" />
			<state id="Others" />
			<parents>Age Failure_in_life</parents>
			<probabilities>0.5636363636363637 0.1090909090909091 0.1090909090909091 0.2 0.01818181818181818 0.4727272727272728 0.290909090909091 0.1090909090909091 0.01818181818181818 0.1090909090909091 0.4878048780487805 0.1463414634146342 0.1951219512195122 0.1463414634146342 0.02439024390243903 0.25 0.2307692307692308 0.4615384615384616 0.01923076923076923 0.03846153846153846 0.1666666666666667 0.2333333333333333 0.2 0.06666666666666667 0.3333333333333333 0.1185185185185185 0.08148148148148149 0.7851851851851851 0.007407407407407408 0.007407407407407408</probabilities>
		</cpt>
		<cpt id="Suicidal_thoughts">
			<state id="No" />
			<state id="Yes" />
			<probabilities>0.6863905325443787 0.3136094674556213</probabilities>
		</cpt>
		<cpt id="Frequency_of_drugs">
			<state id="Never_Not_applicable" />
			<state id="Occasionally" />
			<state id="Once_twice_a_week" />
			<state id="Regularly" />
			<parents>Enjoyable_amount_of_drugs Smoking</parents>
			<probabilities>0.969298245614035 0.02192982456140351 0.004385964912280702 0.004385964912280702 0.5568181818181819 0.3295454545454545 0.1022727272727273 0.01136363636363636 0.84375 0.09375 0.05208333333333333 0.01041666666666667 0.4166666666666666 0.4166666666666666 0.08333333333333333 0.08333333333333333 0.0125 0.1625 0.3625 0.4625 0.02083333333333333 0.6041666666666666 0.2708333333333333 0.1041666666666667 0.0625 0.5625 0.3125 0.0625 0.1071428571428571 0.2857142857142857 0.3571428571428571 0.25 0.1785714285714285 0.4642857142857142 0.03571428571428571 0.3214285714285714</probabilities>
		</cpt>
		<cpt id="Family_relationship">
			<state id="Average" />
			<state id="Communcaiton_gap" />
			<state id="Satisfactory" />
			<parents>Suicidal_thoughts Frequency_of_drugs</parents>
			<probabilities>0.1304347826086956 0.02898550724637681 0.8405797101449275 0.4933333333333333 0.01333333333333333 0.4933333333333333 0.5714285714285714 0.1428571428571428 0.2857142857142857 0.6666666666666666 0.2222222222222222 0.1111111111111111 0.3913043478260869 0.04347826086956522 0.5652173913043478 0.7575757575757576 0.2121212121212121 0.0303030303030303 0.3939393939393939 0.0303030303030303 0.5757575757575758 0.3 0.3 0.4</probabilities>
		</cpt>
		<cpt id="Financials_of_family">
			<state id="Lower_Class" />
			<state id="Medium" />
			<state id="Upper_Class" />
			<probabilities>0.2899408284023668 0.5088757396449703 0.2011834319526627</probabilities>
		</cpt>
		<cpt id="Addicted_person_in_family">
			<state id="No" />
			<state id="Not_sure" />
			<state id="Yes" />
			<parents>Education Spend_most_time_with Case_in_court</parents>
			<probabilities>0.7777777777777777 0.1111111111111111 0.1111111111111111 0.3333333333333333 0.3333333333333333 0.3333333333333333 0.4285714285714285 0.1428571428571428 0.4285714285714285 0.6666666666666667 0.1666666666666667 0.1666666666666667 0.7166666666666668 0.01666666666666667 0.2666666666666667 0.3333333333333333 0.04761904761904762 0.619047619047619 0.8666666666666668 0.06666666666666668 0.06666666666666668 0.3333333333333333 0.3333333333333333 0.3333333333333333 0.9393939393939393 0.0303030303030303 0.0303030303030303 0.3333333333333333 0.3333333333333333 0.3333333333333333 0.25 0.25 0.5 0.3333333333333333 0.3333333333333333 0.3333333333333333 0.3333333333333333 0.3333333333333333 0.3333333333333333 0.4444444444444444 0.1111111111111111 0.4444444444444444 0.3333333333333333 0.3333333333333333 0.3333333333333333 0.3333333333333333 0.3333333333333333 0.3333333333333333 0.3333333333333333 0.3333333333333333 0.3333333333333333 0.3333333333333333 0.3333333333333333 0.3333333333333333 0.1666666666666667 0.6666666666666667 0.1666666666666667 0.1666666666666667 0.6666666666666667 0.1666666666666667 0.3333333333333333 0.3333333333333333 0.3333333333333333 0.1666666666666667 0.6666666666666667 0.1666666666666667 0.3333333333333333 0.3333333333333333 0.3333333333333333 0.5833333333333334 0.08333333333333333 0.3333333333333333 0.8666666666666667 0.06666666666666667 0.06666666666666667 0.1666666666666667 0.1666666666666667 0.6666666666666666 0.72 0.04 0.24 0.3333333333333333 0.3333333333333333 0.3333333333333333 0.8678160919540229 0.1264367816091954 0.005747126436781607 0.04166666666666666 0.1666666666666667 0.7916666666666666</probabilities>
		</cpt>
		<cpt id="num_of_friends">
			<state id="Few_14" />
			<state id="Many_more_than_5" />
			<state id="Zero" />
			<probabilities>0.3017751479289941 0.6568047337278107 0.04142011834319526</probabilities>
		</cpt>
		<cpt id="Withdrawal_symptoms">
			<state id="I_have_no_idea" />
			<state id="No" />
			<state id="Yes" />
			<parents>Conflict_with_law Smoking</parents>
			<probabilities>0.9345238095238095 0.05952380952380952 0.005952380952380952 0.2888888888888889 0.2888888888888889 0.4222222222222222 0.6153846153846154 0.2692307692307693 0.1153846153846154 0.04761904761904762 0.761904761904762 0.1904761904761905 0.2173913043478261 0.1739130434782609 0.6086956521739131 0.02222222222222222 0.6888888888888889 0.2888888888888889</probabilities>
		</cpt>
		<cpt id="friends_houses_at_night">
			<state id="No_I_dont" />
			<state id="Sometimes" />
			<state id="Yes_often_I_do" />
			<probabilities>0.2603550295857988 0.5266272189349113 0.2130177514792899</probabilities>
		</cpt>
		<cpt id="Satisfied_with_workplace">
			<state id="No" />
			<state id="Yes" />
			<probabilities>0.3905325443786982 0.6094674556213018</probabilities>
		</cpt>
		<cpt id="Living_with_drug_user">
			<state id="No" />
			<state id="Not_sure" />
			<state id="Yes" />
			<parents>Addicted_person_in_family Frequency_of_drugs</parents>
			<probabilities>0.8541666666666667 0.004166666666666667 0.1416666666666667 0.7666666666666667 0.01666666666666667 0.2166666666666667 0.5208333333333334 0.02083333333333333 0.4583333333333333 0.1333333333333333 0.03333333333333333 0.8333333333333335 0.08333333333333333 0.8333333333333334 0.08333333333333333 0.05555555555555555 0.5555555555555556 0.3888888888888889 0.06666666666666667 0.2666666666666667 0.6666666666666667 0.2666666666666667 0.06666666666666667 0.6666666666666667 0.3939393939393939 0.0303030303030303 0.5757575757575758 0.1212121212121212 0.0303030303030303 0.8484848484848485 0.05555555555555555 0.05555555555555555 0.8888888888888888 0.04761904761904762 0.04761904761904762 0.9047619047619047</probabilities>
		</cpt>
		<cpt id="Ever_taken_drug">
			<state id="No" />
			<state id="Yes" />
			<parents>Frequency_of_drugs</parents>
			<probabilities>0.9239130434782609 0.07608695652173914 0.1470588235294118 0.8529411764705882 0.04166666666666666 0.9583333333333333 0.2105263157894737 0.7894736842105263</probabilities>
		</cpt>
		<cpt id="Control_use_of_drug">
			<state id="No_Its_not_possible" />
			<state id="Yes_Its_possible" />
			<probabilities>0.242603550295858 0.757396449704142</probabilities>
		</cpt>
	</nodes>
	<extensions>
		<genie version="1.0" app="GeNIe 5.0.4708.0 ACADEMIC" name="_66">
			<node id="Age">
				<name>Age</name>
				<interior color="e5f6f7" />
				<outline color="000080" />
				<font color="000000" name="Arial" size="8" />
				<position>10 10 82 58</position>
			</node>
			<node id="Gender">
				<name>Gender</name>
				<interior color="e5f6f7" />
				<outline color="000080" />
				<font color="000000" name="Arial" size="8" />
				<position>10 72 82 120</position>
			</node>
			<node id="Education">
				<name>Education</name>
				<interior color="e5f6f7" />
				<outline color="000080" />
				<font color="000000" name="Arial" size="8" />
				<position>196 10 268 58</position>
			</node>
			<node id="Enjoyable_amount_of_drugs">
				<name>Enjoyable_amount_of_drugs</name>
				<interior color="e5f6f7" />
				<outline color="000080" />
				<font color="000000" name="Arial" size="8" />
				<position>475 10 547 58</position>
			</node>
			<node id="Live_with">
				<name>Live_with</name>
				<interior color="e5f6f7" />
				<outline color="000080" />
				<font color="000000" name="Arial" size="8" />
				<position>10 134 82 182</position>
			</node>
			<node id="Conflict_with_law">
				<name>Conflict_with_law</name>
				<interior color="e5f6f7" />
				<outline color="000080" />
				<font color="000000" name="Arial" size="8" />
				<position>103 10 175 58</position>
			</node>
			<node id="Spend_most_time_with">
				<name>Spend_most_time_with</name>
				<interior color="e5f6f7" />
				<outline color="000080" />
				<font color="000000" name="Arial" size="8" />
				<position>10 196 82 244</position>
			</node>
			<node id="Failure_in_life">
				<name>Failure_in_life</name>
				<interior color="e5f6f7" />
				<outline color="000080" />
				<font color="000000" name="Arial" size="8" />
				<position>10 258 82 306</position>
			</node>
			<node id="Mental_emotional_problem">
				<name>Mental_emotional_problem</name>
				<interior color="e5f6f7" />
				<outline color="000080" />
				<font color="000000" name="Arial" size="8" />
				<position>103 72 175 120</position>
			</node>
			<node id="Suicidal_thoughts">
				<name>Suicidal_thoughts</name>
				<interior color="e5f6f7" />
				<outline color="000080" />
				<font color="000000" name="Arial" size="8" />
				<position>10 320 82 368</position>
			</node>
			<node id="Family_relationship">
				<name>Family_relationship</name>
				<interior color="e5f6f7" />
				<outline color="000080" />
				<font color="000000" name="Arial" size="8" />
				<position>661 10 733 58</position>
			</node>
			<node id="Financials_of_family">
				<name>Financials_of_family</name>
				<interior color="e5f6f7" />
				<outline color="000080" />
				<font color="000000" name="Arial" size="8" />
				<position>10 382 82 430</position>
			</node>
			<node id="Addicted_person_in_family">
				<name>Addicted_person_in_family</name>
				<interior color="e5f6f7" />
				<outline color="000080" />
				<font color="000000" name="Arial" size="8" />
				<position>289 10 361 58</position>
			</node>
			<node id="num_of_friends">
				<name>num_of_friends</name>
				<interior color="e5f6f7" />
				<outline color="000080" />
				<font color="000000" name="Arial" size="8" />
				<position>10 444 82 492</position>
			</node>
			<node id="Withdrawal_symptoms">
				<name>Withdrawal_symptoms</name>
				<interior color="e5f6f7" />
				<outline color="000080" />
				<font color="000000" name="Arial" size="8" />
				<position>382 10 454 58</position>
			</node>
			<node id="friends_houses_at_night">
				<name>friends_houses_at_night</name>
				<interior color="e5f6f7" />
				<outline color="000080" />
				<font color="000000" name="Arial" size="8" />
				<position>10 506 82 554</position>
			</node>
			<node id="Satisfied_with_workplace">
				<name>Satisfied_with_workplace</name>
				<interior color="e5f6f7" />
				<outline color="000080" />
				<font color="000000" name="Arial" size="8" />
				<position>10 568 82 616</position>
			</node>
			<node id="Case_in_court">
				<name>Case_in_court</name>
				<interior color="e5f6f7" />
				<outline color="000080" />
				<font color="000000" name="Arial" size="8" />
				<position>196 72 268 120</position>
			</node>
			<node id="Living_with_drug_user">
				<name>Living_with_drug_user</name>
				<interior color="e5f6f7" />
				<outline color="000080" />
				<font color="000000" name="Arial" size="8" />
				<position>661 72 733 120</position>
			</node>
			<node id="Smoking">
				<name>Smoking</name>
				<interior color="e5f6f7" />
				<outline color="000080" />
				<font color="000000" name="Arial" size="8" />
				<position>289 72 361 120</position>
			</node>
			<node id="Ever_taken_drug">
				<name>Ever_taken_drug</name>
				<interior color="e5f6f7" />
				<outline color="000080" />
				<font color="000000" name="Arial" size="8" />
				<position>661 134 733 182</position>
			</node>
			<node id="Friends_influence">
				<name>Friends_influence</name>
				<interior color="e5f6f7" />
				<outline color="000080" />
				<font color="000000" name="Arial" size="8" />
				<position>10 630 82 678</position>
			</node>
			<node id="Would_try_drugs">
				<name>Would_try_drugs</name>
				<interior color="e5f6f7" />
				<outline color="000080" />
				<font color="000000" name="Arial" size="8" />
				<position>382 72 454 120</position>
			</node>
			<node id="Control_use_of_drug">
				<name>Control_use_of_drug</name>
				<interior color="e5f6f7" />
				<outline color="000080" />
				<font color="000000" name="Arial" size="8" />
				<position>10 692 82 740</position>
			</node>
			<node id="Frequency_of_drugs">
				<name>Frequency_of_drugs</name>
				<interior color="e5f6f7" />
				<outline color="000080" />
				<font color="000000" name="Arial" size="8" />
				<position>568 10 640 58</position>
			</node>
			<textbox>
				<caption>Input file: finalbanglatrain\nData rows: 169\nElapsed time: 0.344s\n\nLearning algorithm: Bayesian Search\nAlgorithm parameters:\nIterations: 35\nMax parent count: 4\nSample size: 50\nLink probability: 0.1\nPrior link probability: 0.005\nSeed: 42\nMax search time: 0\nScore by accuracy (4-fold), class variable: Frequency_of_drugs\nBackground knowledge was provided:\n  forbidden arcs: 48\n  nodes assigned to tiers: 2\n\nBest accuracy in iteration 6: 0.739645 (125/169)\nEM Log Likelihood: -2957.57</caption>
				<font color="000000" name="Arial" size="8" />
				<position>10 760 323 1040</position>
			</textbox>
		</genie>
	</extensions>
</smile>
