<?xml version="1.0" encoding="UTF-8"?>
<!-- This network was created in GeNIe Academic, which can be used for academic teaching and research purposes only -->
<smile version="1.0" id="finalbanglatrain" numsamples="10000" discsamples="10000">
	<nodes>
		<cpt id="Age">
			<state id="above_35" />
			<state id="between_22_to_35_years" />
			<state id="s15_to_22_years" />
			<probabilities>0.1183431952662722 0.5443786982248521 0.3372781065088757</probabilities>
		</cpt>
		<cpt id="Gender">
			<state id="Female" />
			<state id="Male" />
			<probabilities>0.3313609467455621 0.6686390532544378</probabilities>
		</cpt>
		<cpt id="Smoking">
			<state id="No_I_dont" />
			<state id="Yes_every_day" />
			<state id="Yes_occasionally" />
			<parents>Gender</parents>
			<probabilities>0.6428571428571428 0.07142857142857142 0.2857142857142857 0.2300884955752212 0.5575221238938053 0.2123893805309734</probabilities>
		</cpt>
		<cpt id="Ever_taken_drug">
			<state id="No" />
			<state id="Yes" />
			<parents>Smoking</parents>
			<probabilities>0.9032258064516129 0.09677419354838709 0.2238805970149254 0.7761194029850746 0.65 0.35</probabilities>
		</cpt>
		<cpt id="Frequency_of_drugs">
			<state id="Never_Not_applicable" />
			<state id="Occasionally" />
			<state id="Once_twice_a_week" />
			<state id="Regularly" />
			<parents>Ever_taken_drug</parents>
			<probabilities>0.8969072164948454 0.05154639175257732 0.01030927835051546 0.04123711340206185 0.08333333333333333 0.4027777777777777 0.3055555555555555 0.2083333333333333</probabilities>
		</cpt>
		<cpt id="Addicted_person_in_family">
			<state id="No" />
			<state id="Not_sure" />
			<state id="Yes" />
			<parents>Frequency_of_drugs</parents>
			<probabilities>0.860215053763441 0.03225806451612903 0.1075268817204301 0.5588235294117647 0.1470588235294118 0.2941176470588235 0.6086956521739131 0.1739130434782609 0.2173913043478261 0.4736842105263158 0.2105263157894737 0.3157894736842105</probabilities>
		</cpt>
		<cpt id="Education">
			<state id="HSC_A_levels" />
			<state id="Postgraduate_MSc_PhD" />
			<state id="Primary_Education" />
			<state id="SSC_O_levels" />
			<state id="Undergraduate" />
			<parents>Age Addicted_person_in_family</parents>
			<probabilities>0.5555555555555556 0.1111111111111111 0.1111111111111111 0.1111111111111111 0.1111111111111111 0.2 0.2 0.03333333333333333 0.2 0.3666666666666667 0.02857142857142857 0.1714285714285714 0.02857142857142857 0.02857142857142857 0.7428571428571429 0.05675675675675676 0.1918918918918919 0.002702702702702703 0.01621621621621622 0.7324324324324325 0.02857142857142857 0.02857142857142857 0.02857142857142857 0.02857142857142857 0.8857142857142857 0.4428571428571428 0.0857142857142857 0.01428571428571429 0.01428571428571429 0.4428571428571428 0.3707317073170732 0.004878048780487806 0.004878048780487806 0.004878048780487806 0.6146341463414634 0.03333333333333333 0.03333333333333333 0.03333333333333333 0.5333333333333333 0.3666666666666667 0.4769230769230769 0.01538461538461539 0.09230769230769231 0.1692307692307692 0.2461538461538462</probabilities>
		</cpt>
		<cpt id="Conflict_with_law">
			<state id="No" />
			<state id="Yes" />
			<parents>Education Frequency_of_drugs</parents>
			<probabilities>0.9500000000000001 0.05 0.5 0.5 0.1428571428571428 0.8571428571428571 0.25 0.75 0.9090909090909092 0.09090909090909091 0.875 0.125 0.8333333333333333 0.1666666666666667 0.8333333333333333 0.1666666666666667 0.5 0.5 0.25 0.75 0.5 0.5 0.25 0.75 0.25 0.75 0.8333333333333333 0.1666666666666667 0.25 0.75 0.1 0.9 0.9672131147540984 0.03278688524590164 0.5454545454545454 0.4545454545454546 0.7692307692307693 0.2307692307692308 0.5 0.5</probabilities>
		</cpt>
		<cpt id="Case_in_court">
			<state id="No" />
			<state id="Yes" />
			<parents>Age Education Conflict_with_law</parents>
			<probabilities>0.8333333333333333 0.1666666666666667 0.9 0.1 0.875 0.125 0.5 0.5 0.5 0.5 0.25 0.75 0.5 0.5 0.1666666666666667 0.8333333333333333 0.5 0.5 0.5 0.5 0.8333333333333333 0.1666666666666667 0.25 0.75 0.9666666666666667 0.03333333333333333 0.75 0.25 0.5 0.5 0.5 0.5 0.5 0.5 0.25 0.75 0.9913793103448276 0.008620689655172414 0.6666666666666666 0.3333333333333333 0.9705882352941176 0.02941176470588235 0.4 0.6000000000000001 0.5 0.5 0.5 0.5 0.5 0.5 0.25 0.75 0.8333333333333333 0.1666666666666667 0.3333333333333333 0.6666666666666666 0.9615384615384616 0.03846153846153846 0.9 0.1</probabilities>
		</cpt>
		<cpt id="Enjoyable_amount_of_drugs">
			<state id="I_have_no_idea" />
			<state id="Multiple_drugs" />
			<state id="One_drug" />
			<parents>Case_in_court Frequency_of_drugs</parents>
			<probabilities>0.9710144927536233 0.003623188405797102 0.02536231884057972 0.3448275862068966 0.2413793103448276 0.4137931034482759 0.1176470588235294 0.4117647058823529 0.4705882352941176 0.0303030303030303 0.6666666666666666 0.303030303030303 0.1111111111111111 0.1111111111111111 0.7777777777777778 0.05555555555555556 0.7222222222222222 0.2222222222222222 0.04761904761904762 0.4761904761904762 0.4761904761904762 0.03333333333333333 0.3333333333333334 0.6333333333333333</probabilities>
		</cpt>
		<cpt id="Live_with">
			<state id="Hostel_Hall" />
			<state id="With_Family_Relatives" />
			<probabilities>0.3668639053254438 0.6331360946745562</probabilities>
		</cpt>
		<cpt id="num_of_friends">
			<state id="Few_14" />
			<state id="Many_more_than_5" />
			<state id="Zero" />
			<parents>Age</parents>
			<probabilities>0.4 0.55 0.05 0.3695652173913043 0.6195652173913043 0.0108695652173913 0.1578947368421053 0.7719298245614035 0.07017543859649122</probabilities>
		</cpt>
		<cpt id="Spend_most_time_with">
			<state id="Alone" />
			<state id="Family_Relatives" />
			<state id="Friends" />
			<parents>num_of_friends</parents>
			<probabilities>0.196078431372549 0.2941176470588235 0.5098039215686274 0.09821428571428571 0.25 0.6517857142857143 0.6190476190476191 0.3333333333333334 0.04761904761904762</probabilities>
		</cpt>
		<cpt id="Failure_in_life">
			<state id="No" />
			<state id="Yes" />
			<probabilities>0.485207100591716 0.514792899408284</probabilities>
		</cpt>
		<cpt id="Mental_emotional_problem">
			<state id="Anxiety" />
			<state id="Both" />
			<state id="Depression" />
			<state id="Not_any" />
			<state id="Others" />
			<parents>Failure_in_life</parents>
			<probabilities>0.4024390243902439 0.1707317073170732 0.1829268292682927 0.1097560975609756 0.1341463414634146 0.2413793103448276 0.1954022988505747 0.5172413793103449 0.01149425287356322 0.03448275862068965</probabilities>
		</cpt>
		<cpt id="Suicidal_thoughts">
			<state id="No" />
			<state id="Yes" />
			<parents>Enjoyable_amount_of_drugs</parents>
			<probabilities>0.7920792079207921 0.2079207920792079 0.5161290322580645 0.4838709677419355 0.5675675675675675 0.4324324324324325</probabilities>
		</cpt>
		<cpt id="Family_relationship">
			<state id="Average" />
			<state id="Communcaiton_gap" />
			<state id="Satisfactory" />
			<parents>Smoking Frequency_of_drugs</parents>
			<probabilities>0.1228070175438596 0.03508771929824561 0.8421052631578947 0.5 0.25 0.25 0.6666666666666667 0.1666666666666667 0.1666666666666667 0.3333333333333333 0.3333333333333333 0.3333333333333333 0.3333333333333333 0.06666666666666667 0.6 0.4912280701754386 0.01754385964912281 0.4912280701754386 0.543859649122807 0.01754385964912281 0.4385964912280702 0.5625 0.3125 0.125 0.3333333333333333 0.01515151515151515 0.6515151515151516 0.75 0.08333333333333333 0.1666666666666667 0.25 0.25 0.5 0.08333333333333333 0.08333333333333333 0.8333333333333334</probabilities>
		</cpt>
		<cpt id="Financials_of_family">
			<state id="Lower_Class" />
			<state id="Medium" />
			<state id="Upper_Class" />
			<parents>Education</parents>
			<probabilities>0.1351351351351351 0.7027027027027027 0.1621621621621622 0.2222222222222222 0.2777777777777778 0.5 0.7777777777777777 0.1111111111111111 0.1111111111111111 0.7037037037037036 0.2592592592592592 0.03703703703703703 0.2980769230769231 0.5288461538461539 0.1730769230769231</probabilities>
		</cpt>
		<cpt id="Withdrawal_symptoms">
			<state id="I_have_no_idea" />
			<state id="No" />
			<state id="Yes" />
			<parents>Conflict_with_law Smoking</parents>
			<probabilities>0.9367816091954021 0.05747126436781608 0.005747126436781607 0.2888888888888889 0.2888888888888889 0.4222222222222222 0.6153846153846154 0.2692307692307693 0.1153846153846154 0.05555555555555556 0.7222222222222222 0.2222222222222222 0.2272727272727273 0.1363636363636364 0.6363636363636364 0.02222222222222222 0.6888888888888889 0.2888888888888889</probabilities>
		</cpt>
		<cpt id="friends_houses_at_night">
			<state id="No_I_dont" />
			<state id="Sometimes" />
			<state id="Yes_often_I_do" />
			<parents>Enjoyable_amount_of_drugs</parents>
			<probabilities>0.3465346534653466 0.5544554455445545 0.09900990099009901 0.1290322580645161 0.3870967741935484 0.4838709677419355 0.1891891891891892 0.5135135135135136 0.2972972972972973</probabilities>
		</cpt>
		<cpt id="Satisfied_with_workplace">
			<state id="No" />
			<state id="Yes" />
			<probabilities>0.378698224852071 0.6213017751479289</probabilities>
		</cpt>
		<cpt id="Living_with_drug_user">
			<state id="No" />
			<state id="Not_sure" />
			<state id="Yes" />
			<parents>Addicted_person_in_family Frequency_of_drugs</parents>
			<probabilities>0.8559670781893005 0.00411522633744856 0.1399176954732511 0.7666666666666667 0.01666666666666667 0.2166666666666667 0.4888888888888889 0.02222222222222222 0.4888888888888889 0.1333333333333333 0.03333333333333333 0.8333333333333335 0.08333333333333333 0.8333333333333334 0.08333333333333333 0.05555555555555555 0.5555555555555556 0.3888888888888889 0.06666666666666667 0.2666666666666667 0.6666666666666667 0.2666666666666667 0.06666666666666667 0.6666666666666667 0.3939393939393939 0.0303030303030303 0.5757575757575758 0.1212121212121212 0.0303030303030303 0.8484848484848485 0.05555555555555555 0.05555555555555555 0.8888888888888888 0.04761904761904762 0.04761904761904762 0.9047619047619047</probabilities>
		</cpt>
		<cpt id="Friends_influence">
			<state id="No_they_dont" />
			<state id="Yes_often_they_do" />
			<parents>Ever_taken_drug</parents>
			<probabilities>0.865979381443299 0.134020618556701 0.3333333333333333 0.6666666666666666</probabilities>
		</cpt>
		<cpt id="Would_try_drugs">
			<state id="i_dont_know_confused" />
			<state id="Ill_try" />
			<state id="no_ill_not" />
			<parents>Family_relationship Satisfied_with_workplace Frequency_of_drugs</parents>
			<probabilities>0.1428571428571428 0.5714285714285714 0.2857142857142857 0.2857142857142857 0.5714285714285714 0.1428571428571428 0.04166666666666667 0.9166666666666669 0.04166666666666667 0.08333333333333333 0.8333333333333334 0.08333333333333333 0.3333333333333333 0.3333333333333333 0.3333333333333333 0.02380952380952381 0.3809523809523809 0.5952380952380952 0.6000000000000001 0.2 0.2 0.04761904761904762 0.9047619047619049 0.04761904761904762 0.1111111111111111 0.1111111111111111 0.7777777777777778 0.4444444444444444 0.4444444444444444 0.1111111111111111 0.1666666666666667 0.1666666666666667 0.6666666666666666 0.06666666666666668 0.8666666666666668 0.06666666666666668 0.1666666666666667 0.1666666666666667 0.6666666666666666 0.3333333333333333 0.3333333333333333 0.3333333333333333 0.3333333333333333 0.3333333333333333 0.3333333333333333 0.1666666666666667 0.6666666666666667 0.1666666666666667 0.65 0.1 0.25 0.8666666666666668 0.06666666666666668 0.06666666666666668 0.05555555555555556 0.7222222222222222 0.2222222222222222 0.1111111111111111 0.1111111111111111 0.7777777777777778 0.1764705882352941 0.0392156862745098 0.7843137254901961 0.25 0.625 0.125 0.05555555555555556 0.7222222222222222 0.2222222222222222 0.08333333333333333 0.3333333333333333 0.5833333333333334</probabilities>
		</cpt>
		<cpt id="Control_use_of_drug">
			<state id="No_Its_not_possible" />
			<state id="Yes_Its_possible" />
			<parents>Enjoyable_amount_of_drugs</parents>
			<probabilities>0.1683168316831683 0.8316831683168316 0.2903225806451613 0.7096774193548387 0.4054054054054054 0.5945945945945946</probabilities>
		</cpt>
	</nodes>
	<extensions>
		<genie version="1.0" app="GeNIe 5.0.4708.0 ACADEMIC" name="finalbanglatrain">
			<node id="Age">
				<name>Age</name>
				<interior color="e5f6f7" />
				<outline color="000080" />
				<font color="000000" name="Arial" size="8" />
				<position>10 10 82 58</position>
			</node>
			<node id="Gender">
				<name>Gender</name>
				<interior color="e5f6f7" />
				<outline color="000080" />
				<font color="000000" name="Arial" size="8" />
				<position>10 72 82 120</position>
			</node>
			<node id="Education">
				<name>Education</name>
				<interior color="e5f6f7" />
				<outline color="000080" />
				<font color="000000" name="Arial" size="8" />
				<position>475 10 547 58</position>
			</node>
			<node id="Enjoyable_amount_of_drugs">
				<name>Enjoyable_amount_of_drugs</name>
				<interior color="e5f6f7" />
				<outline color="000080" />
				<font color="000000" name="Arial" size="8" />
				<position>754 10 826 58</position>
			</node>
			<node id="Live_with">
				<name>Live_with</name>
				<interior color="e5f6f7" />
				<outline color="000080" />
				<font color="000000" name="Arial" size="8" />
				<position>10 134 82 182</position>
			</node>
			<node id="Conflict_with_law">
				<name>Conflict_with_law</name>
				<interior color="e5f6f7" />
				<outline color="000080" />
				<font color="000000" name="Arial" size="8" />
				<position>568 10 640 58</position>
			</node>
			<node id="Spend_most_time_with">
				<name>Spend_most_time_with</name>
				<interior color="e5f6f7" />
				<outline color="000080" />
				<font color="000000" name="Arial" size="8" />
				<position>196 10 268 58</position>
			</node>
			<node id="Failure_in_life">
				<name>Failure_in_life</name>
				<interior color="e5f6f7" />
				<outline color="000080" />
				<font color="000000" name="Arial" size="8" />
				<position>10 196 82 244</position>
			</node>
			<node id="Mental_emotional_problem">
				<name>Mental_emotional_problem</name>
				<interior color="e5f6f7" />
				<outline color="000080" />
				<font color="000000" name="Arial" size="8" />
				<position>258 326 330 374</position>
			</node>
			<node id="Suicidal_thoughts">
				<name>Suicidal_thoughts</name>
				<interior color="e5f6f7" />
				<outline color="000080" />
				<font color="000000" name="Arial" size="8" />
				<position>847 10 919 58</position>
			</node>
			<node id="Family_relationship">
				<name>Family_relationship</name>
				<interior color="e5f6f7" />
				<outline color="000080" />
				<font color="000000" name="Arial" size="8" />
				<position>382 10 454 58</position>
			</node>
			<node id="Financials_of_family">
				<name>Financials_of_family</name>
				<interior color="e5f6f7" />
				<outline color="000080" />
				<font color="000000" name="Arial" size="8" />
				<position>568 72 640 120</position>
			</node>
			<node id="Addicted_person_in_family">
				<name>Addicted_person_in_family</name>
				<interior color="e5f6f7" />
				<outline color="000080" />
				<font color="000000" name="Arial" size="8" />
				<position>382 72 454 120</position>
			</node>
			<node id="num_of_friends">
				<name>num_of_friends</name>
				<interior color="e5f6f7" />
				<outline color="000080" />
				<font color="000000" name="Arial" size="8" />
				<position>103 72 175 120</position>
			</node>
			<node id="Withdrawal_symptoms">
				<name>Withdrawal_symptoms</name>
				<interior color="e5f6f7" />
				<outline color="000080" />
				<font color="000000" name="Arial" size="8" />
				<position>661 10 733 58</position>
			</node>
			<node id="friends_houses_at_night">
				<name>friends_houses_at_night</name>
				<interior color="e5f6f7" />
				<outline color="000080" />
				<font color="000000" name="Arial" size="8" />
				<position>847 72 919 120</position>
			</node>
			<node id="Satisfied_with_workplace">
				<name>Satisfied_with_workplace</name>
				<interior color="e5f6f7" />
				<outline color="000080" />
				<font color="000000" name="Arial" size="8" />
				<position>10 258 82 306</position>
			</node>
			<node id="Case_in_court">
				<name>Case_in_court</name>
				<interior color="e5f6f7" />
				<outline color="000080" />
				<font color="000000" name="Arial" size="8" />
				<position>661 72 733 120</position>
			</node>
			<node id="Living_with_drug_user">
				<name>Living_with_drug_user</name>
				<interior color="e5f6f7" />
				<outline color="000080" />
				<font color="000000" name="Arial" size="8" />
				<position>475 72 547 120</position>
			</node>
			<node id="Smoking">
				<name>Smoking</name>
				<interior color="e5f6f7" />
				<outline color="000080" />
				<font color="000000" name="Arial" size="8" />
				<position>103 134 175 182</position>
			</node>
			<node id="Ever_taken_drug">
				<name>Ever_taken_drug</name>
				<interior color="e5f6f7" />
				<outline color="000080" />
				<font color="000000" name="Arial" size="8" />
				<position>196 72 268 120</position>
			</node>
			<node id="Friends_influence">
				<name>Friends_influence</name>
				<interior color="e5f6f7" />
				<outline color="000080" />
				<font color="000000" name="Arial" size="8" />
				<position>289 10 361 58</position>
			</node>
			<node id="Would_try_drugs">
				<name>Would_try_drugs</name>
				<interior color="e5f6f7" />
				<outline color="000080" />
				<font color="000000" name="Arial" size="8" />
				<position>475 134 547 182</position>
			</node>
			<node id="Control_use_of_drug">
				<name>Control_use_of_drug</name>
				<interior color="e5f6f7" />
				<outline color="000080" />
				<font color="000000" name="Arial" size="8" />
				<position>847 134 919 182</position>
			</node>
			<node id="Frequency_of_drugs">
				<name>Frequency_of_drugs</name>
				<interior color="e5f6f7" />
				<outline color="000080" />
				<font color="000000" name="Arial" size="8" />
				<position>289 72 361 120</position>
			</node>
			<textbox>
				<caption>Input file: finalbanglatrain\nData rows: 169\nElapsed time: 0.969s\n\nLearning algorithm: Bayesian Search\nAlgorithm parameters:\nIterations: 100\nMax parent count: 4\nSample size: 50\nLink probability: 0.1\nPrior link probability: 0.005\nSeed: 42\nMax search time: 5000\nScore by accuracy (5-fold), class variable: Frequency_of_drugs\nBackground knowledge was provided:\n  forbidden arcs: 48\n  nodes assigned to tiers: 2\n\nBest accuracy in iteration 52: 0.775148 (131/169)\nEM Log Likelihood: -2906.9</caption>
				<font color="000000" name="Arial" size="8" />
				<position>10 326 323 606</position>
			</textbox>
		</genie>
	</extensions>
</smile>
