<?xml version="1.0" encoding="UTF-8"?>
<!-- This network was created in GeNIe Academic, which can be used for academic teaching and research purposes only -->
<smile version="1.0" id="finalbanglatrain" numsamples="10000" discsamples="10000">
	<nodes>
		<cpt id="Age">
			<state id="above_35" />
			<state id="between_22_to_35_years" />
			<state id="s15_to_22_years" />
			<probabilities>0.1183431952662722 0.5443786982248521 0.3372781065088757</probabilities>
		</cpt>
		<cpt id="Gender">
			<state id="Female" />
			<state id="Male" />
			<probabilities>0.3313609467455621 0.6686390532544378</probabilities>
		</cpt>
		<cpt id="friends_houses_at_night">
			<state id="No_I_dont" />
			<state id="Sometimes" />
			<state id="Yes_often_I_do" />
			<probabilities>0.272189349112426 0.514792899408284 0.2130177514792899</probabilities>
		</cpt>
		<cpt id="Spend_most_time_with">
			<state id="Alone" />
			<state id="Family_Relatives" />
			<state id="Friends" />
			<parents>friends_houses_at_night</parents>
			<probabilities>0.1521739130434783 0.4782608695652174 0.3695652173913043 0.1609195402298851 0.2413793103448276 0.5977011494252873 0.1111111111111111 0.05555555555555555 0.8333333333333333</probabilities>
		</cpt>
		<cpt id="Education">
			<state id="HSC_A_levels" />
			<state id="Postgraduate_MSc_PhD" />
			<state id="Primary_Education" />
			<state id="SSC_O_levels" />
			<state id="Undergraduate" />
			<parents>Age Spend_most_time_with</parents>
			<probabilities>0.5499999999999999 0.04999999999999999 0.2999999999999999 0.04999999999999999 0.04999999999999999 0.2 0.2 0.03333333333333333 0.2 0.3666666666666667 0.2461538461538462 0.1692307692307692 0.01538461538461539 0.09230769230769231 0.4769230769230769 0.01333333333333333 0.28 0.01333333333333333 0.01333333333333333 0.6799999999999999 0.1555555555555556 0.3407407407407407 0.007407407407407409 0.007407407407407409 0.4888888888888889 0.1169811320754717 0.04150943396226416 0.003773584905660377 0.02264150943396226 0.8150943396226416 0.02222222222222222 0.02222222222222222 0.1333333333333333 0.2444444444444445 0.5777777777777777 0.28 0.01333333333333333 0.01333333333333333 0.01333333333333333 0.6799999999999999 0.4777777777777777 0.005555555555555556 0.005555555555555556 0.08888888888888889 0.4222222222222222</probabilities>
		</cpt>
		<cpt id="Addicted_person_in_family">
			<state id="No" />
			<state id="Not_sure" />
			<state id="Yes" />
			<parents>Age Education</parents>
			<probabilities>0.761904761904762 0.1904761904761905 0.04761904761904762 0.3333333333333333 0.3333333333333333 0.3333333333333333 0.6666666666666667 0.1666666666666667 0.1666666666666667 0.4444444444444444 0.4444444444444444 0.1111111111111111 0.125 0.25 0.625 0.3939393939393939 0.0303030303030303 0.5757575757575758 0.8958333333333334 0.02083333333333333 0.08333333333333333 0.3333333333333333 0.3333333333333333 0.3333333333333333 0.6666666666666667 0.1666666666666667 0.1666666666666667 0.8181818181818182 0.09090909090909091 0.09090909090909091 0.696969696969697 0.01515151515151515 0.2878787878787879 0.3333333333333333 0.3333333333333333 0.3333333333333333 0.1666666666666667 0.1666666666666667 0.6666666666666666 0.05555555555555555 0.5555555555555556 0.3888888888888889 0.8333333333333334 0.06666666666666667 0.1</probabilities>
		</cpt>
		<cpt id="Case_in_court">
			<state id="No" />
			<state id="Yes" />
			<parents>Education Addicted_person_in_family</parents>
			<probabilities>0.875 0.125 0.75 0.25 0.6666666666666666 0.3333333333333333 0.96875 0.03125 0.75 0.25 0.8333333333333333 0.1666666666666667 0.25 0.75 0.5 0.5 0.25 0.75 0.1666666666666667 0.8333333333333333 0.5 0.5 0.5 0.5 0.9938271604938271 0.006172839506172839 0.9 0.1 0.5 0.5</probabilities>
		</cpt>
		<cpt id="Enjoyable_amount_of_drugs">
			<state id="I_have_no_idea" />
			<state id="Multiple_drugs" />
			<state id="One_drug" />
			<parents>Case_in_court</parents>
			<probabilities>0.6870748299319728 0.1428571428571428 0.1700680272108843 0.0144927536231884 0.4492753623188406 0.5362318840579711</probabilities>
		</cpt>
		<cpt id="Live_with">
			<state id="Hostel_Hall" />
			<state id="With_Family_Relatives" />
			<probabilities>0.3668639053254438 0.6331360946745562</probabilities>
		</cpt>
		<cpt id="Mental_emotional_problem">
			<state id="Anxiety" />
			<state id="Both" />
			<state id="Depression" />
			<state id="Not_any" />
			<state id="Others" />
			<probabilities>0.3195266272189349 0.1834319526627219 0.3550295857988165 0.05917159763313609 0.08284023668639053</probabilities>
		</cpt>
		<cpt id="Family_relationship">
			<state id="Average" />
			<state id="Communcaiton_gap" />
			<state id="Satisfactory" />
			<parents>Education</parents>
			<probabilities>0.5135135135135136 0.02702702702702703 0.4594594594594595 0.2222222222222222 0.05555555555555555 0.7222222222222222 0.4444444444444444 0.4444444444444444 0.1111111111111111 0.25 0.5 0.25 0.3269230769230769 0.03846153846153846 0.6346153846153847</probabilities>
		</cpt>
		<cpt id="Smoking">
			<state id="No_I_dont" />
			<state id="Yes_every_day" />
			<state id="Yes_occasionally" />
			<parents>Gender Family_relationship</parents>
			<probabilities>0.2666666666666667 0.2 0.5333333333333333 0.7777777777777777 0.1111111111111111 0.1111111111111111 0.7692307692307692 0.02564102564102564 0.2051282051282051 0.1333333333333333 0.6666666666666667 0.2 0.1111111111111111 0.6666666666666666 0.2222222222222222 0.3220338983050847 0.4576271186440678 0.2203389830508475</probabilities>
		</cpt>
		<cpt id="Withdrawal_symptoms">
			<state id="I_have_no_idea" />
			<state id="No" />
			<state id="Yes" />
			<parents>Mental_emotional_problem Smoking</parents>
			<probabilities>0.9696969696969698 0.01515151515151515 0.01515151515151515 0.5 0.25 0.25 0.3095238095238095 0.6666666666666666 0.02380952380952381 0.8333333333333333 0.08333333333333333 0.08333333333333333 0.07142857142857142 0.07142857142857142 0.8571428571428571 0.2 0.4 0.4 0.7301587301587301 0.253968253968254 0.01587301587301587 0.1818181818181818 0.2272727272727273 0.5909090909090909 0.5 0.2222222222222222 0.2777777777777778 0.8333333333333334 0.08333333333333333 0.08333333333333333 0.4 0.2 0.4 0.4444444444444444 0.4444444444444444 0.1111111111111111 0.761904761904762 0.1904761904761905 0.04761904761904762 0.1666666666666667 0.6666666666666666 0.1666666666666667 0.4444444444444444 0.4444444444444444 0.1111111111111111</probabilities>
		</cpt>
		<cpt id="Conflict_with_law">
			<state id="No" />
			<state id="Yes" />
			<parents>Withdrawal_symptoms Case_in_court</parents>
			<probabilities>0.9529411764705882 0.04705882352941176 0.6666666666666666 0.3333333333333333 0.71875 0.28125 0.05555555555555555 0.9444444444444444 0.7 0.3 0.09090909090909091 0.9090909090909092</probabilities>
		</cpt>
		<cpt id="Failure_in_life">
			<state id="No" />
			<state id="Yes" />
			<parents>Mental_emotional_problem</parents>
			<probabilities>0.611111111111111 0.3888888888888888 0.4516129032258064 0.5483870967741935 0.25 0.75 0.9 0.1 0.7857142857142857 0.2142857142857143</probabilities>
		</cpt>
		<cpt id="Suicidal_thoughts">
			<state id="No" />
			<state id="Yes" />
			<probabilities>0.6923076923076923 0.3076923076923077</probabilities>
		</cpt>
		<cpt id="Financials_of_family">
			<state id="Lower_Class" />
			<state id="Medium" />
			<state id="Upper_Class" />
			<parents>Spend_most_time_with</parents>
			<probabilities>0.4 0.52 0.08 0.3111111111111111 0.2666666666666667 0.4222222222222222 0.2424242424242424 0.6363636363636365 0.1212121212121212</probabilities>
		</cpt>
		<cpt id="num_of_friends">
			<state id="Few_14" />
			<state id="Many_more_than_5" />
			<state id="Zero" />
			<parents>Education</parents>
			<probabilities>0.2972972972972973 0.6756756756756757 0.02702702702702703 0.4912280701754386 0.4912280701754386 0.01754385964912281 0.4444444444444444 0.1111111111111111 0.4444444444444444 0.375 0.375 0.25 0.2596153846153846 0.7211538461538461 0.01923076923076923</probabilities>
		</cpt>
		<cpt id="Satisfied_with_workplace">
			<state id="No" />
			<state id="Yes" />
			<probabilities>0.378698224852071 0.6213017751479289</probabilities>
		</cpt>
		<cpt id="Ever_taken_drug">
			<state id="No" />
			<state id="Yes" />
			<parents>Enjoyable_amount_of_drugs</parents>
			<probabilities>0.8613861386138614 0.1386138613861386 0.1612903225806452 0.8387096774193548 0.1351351351351351 0.8648648648648649</probabilities>
		</cpt>
		<cpt id="Frequency_of_drugs">
			<state id="Never_Not_applicable" />
			<state id="Occasionally" />
			<state id="Once_twice_a_week" />
			<state id="Regularly" />
			<parents>Conflict_with_law Case_in_court Smoking Ever_taken_drug</parents>
			<probabilities>0.9863636363636363 0.004545454545454545 0.004545454545454545 0.004545454545454545 0.75 0.08333333333333333 0.08333333333333333 0.08333333333333333 0.7321428571428571 0.2321428571428571 0.01785714285714286 0.01785714285714286 0.06666666666666667 0.3333333333333333 0.4333333333333333 0.1666666666666667 0.9166666666666666 0.0119047619047619 0.0119047619047619 0.05952380952380952 0.03571428571428571 0.8928571428571428 0.03571428571428571 0.03571428571428571 0.125 0.625 0.125 0.125 0.25 0.25 0.25 0.25 0.4166666666666666 0.08333333333333333 0.08333333333333333 0.4166666666666666 0.25 0.25 0.25 0.25 0.25 0.25 0.25 0.25 0.25 0.25 0.25 0.25 0.625 0.125 0.125 0.125 0.05 0.65 0.25 0.05 0.25 0.25 0.25 0.25 0.1666666666666667 0.3333333333333333 0.1666666666666667 0.3333333333333333 0.625 0.125 0.125 0.125 0.05 0.65 0.25 0.05 0.25 0.25 0.25 0.25 0.25 0.25 0.25 0.25 0.25 0.25 0.25 0.25 0.02272727272727273 0.1136363636363636 0.2954545454545455 0.5681818181818182 0.2 0.2 0.2 0.4 0.05 0.45 0.45 0.05</probabilities>
		</cpt>
		<cpt id="Living_with_drug_user">
			<state id="No" />
			<state id="Not_sure" />
			<state id="Yes" />
			<parents>Addicted_person_in_family Frequency_of_drugs</parents>
			<probabilities>0.8559670781893005 0.00411522633744856 0.1399176954732511 0.7666666666666667 0.01666666666666667 0.2166666666666667 0.4888888888888889 0.02222222222222222 0.4888888888888889 0.1333333333333333 0.03333333333333333 0.8333333333333335 0.08333333333333333 0.8333333333333334 0.08333333333333333 0.05555555555555555 0.5555555555555556 0.3888888888888889 0.06666666666666667 0.2666666666666667 0.6666666666666667 0.2666666666666667 0.06666666666666667 0.6666666666666667 0.3939393939393939 0.0303030303030303 0.5757575757575758 0.1212121212121212 0.0303030303030303 0.8484848484848485 0.05555555555555555 0.05555555555555555 0.8888888888888888 0.04761904761904762 0.04761904761904762 0.9047619047619047</probabilities>
		</cpt>
		<cpt id="Friends_influence">
			<state id="No_they_dont" />
			<state id="Yes_often_they_do" />
			<parents>Ever_taken_drug</parents>
			<probabilities>0.865979381443299 0.134020618556701 0.3333333333333333 0.6666666666666666</probabilities>
		</cpt>
		<cpt id="Would_try_drugs">
			<state id="i_dont_know_confused" />
			<state id="Ill_try" />
			<state id="no_ill_not" />
			<parents>Enjoyable_amount_of_drugs num_of_friends Smoking</parents>
			<probabilities>0.2424242424242424 0.01515151515151515 0.7424242424242424 0.1666666666666667 0.6666666666666667 0.1666666666666667 0.8148148148148148 0.1481481481481481 0.03703703703703703 0.2522522522522523 0.009009009009009009 0.7387387387387387 0.4444444444444444 0.1111111111111111 0.4444444444444444 0.2142857142857143 0.4285714285714285 0.3571428571428571 0.1666666666666667 0.6666666666666667 0.1666666666666667 0.6666666666666667 0.1666666666666667 0.1666666666666667 0.1666666666666667 0.1666666666666667 0.6666666666666666 0.3333333333333333 0.3333333333333333 0.3333333333333333 0.5 0.25 0.25 0.1111111111111111 0.1111111111111111 0.7777777777777778 0.1666666666666667 0.1666666666666667 0.6666666666666666 0.02380952380952381 0.9523809523809523 0.02380952380952381 0.03333333333333333 0.3333333333333334 0.6333333333333333 0.3333333333333333 0.3333333333333333 0.3333333333333333 0.1111111111111111 0.7777777777777777 0.1111111111111111 0.3333333333333333 0.3333333333333333 0.3333333333333333 0.4444444444444444 0.4444444444444444 0.1111111111111111 0.0303030303030303 0.8484848484848484 0.1212121212121212 0.3333333333333333 0.08333333333333333 0.5833333333333334 0.1666666666666667 0.1666666666666667 0.6666666666666666 0.05882352941176471 0.8823529411764706 0.05882352941176471 0.3333333333333333 0.5833333333333334 0.08333333333333333 0.3333333333333333 0.3333333333333333 0.3333333333333333 0.1666666666666667 0.6666666666666667 0.1666666666666667 0.3333333333333333 0.3333333333333333 0.3333333333333333</probabilities>
		</cpt>
		<cpt id="Control_use_of_drug">
			<state id="No_Its_not_possible" />
			<state id="Yes_Its_possible" />
			<parents>Case_in_court</parents>
			<probabilities>0.2108843537414966 0.7891156462585034 0.4545454545454546 0.5454545454545454</probabilities>
		</cpt>
	</nodes>
	<extensions>
		<genie version="1.0" app="GeNIe 5.0.4708.0 ACADEMIC" name="finalbanglatrain">
			<node id="Age">
				<name>Age</name>
				<interior color="e5f6f7" />
				<outline color="000080" />
				<font color="000000" name="Arial" size="8" />
				<position>10 10 82 58</position>
			</node>
			<node id="Gender">
				<name>Gender</name>
				<interior color="e5f6f7" />
				<outline color="000080" />
				<font color="000000" name="Arial" size="8" />
				<position>10 72 82 120</position>
			</node>
			<node id="Education">
				<name>Education</name>
				<interior color="e5f6f7" />
				<outline color="000080" />
				<font color="000000" name="Arial" size="8" />
				<position>196 10 268 58</position>
			</node>
			<node id="Enjoyable_amount_of_drugs">
				<name>Enjoyable_amount_of_drugs</name>
				<interior color="e5f6f7" />
				<outline color="000080" />
				<font color="000000" name="Arial" size="8" />
				<position>475 10 547 58</position>
			</node>
			<node id="Live_with">
				<name>Live_with</name>
				<interior color="e5f6f7" />
				<outline color="000080" />
				<font color="000000" name="Arial" size="8" />
				<position>10 134 82 182</position>
			</node>
			<node id="Conflict_with_law">
				<name>Conflict_with_law</name>
				<interior color="e5f6f7" />
				<outline color="000080" />
				<font color="000000" name="Arial" size="8" />
				<position>568 10 640 58</position>
			</node>
			<node id="Spend_most_time_with">
				<name>Spend_most_time_with</name>
				<interior color="e5f6f7" />
				<outline color="000080" />
				<font color="000000" name="Arial" size="8" />
				<position>103 10 175 58</position>
			</node>
			<node id="Failure_in_life">
				<name>Failure_in_life</name>
				<interior color="e5f6f7" />
				<outline color="000080" />
				<font color="000000" name="Arial" size="8" />
				<position>103 72 175 120</position>
			</node>
			<node id="Mental_emotional_problem">
				<name>Mental_emotional_problem</name>
				<interior color="e5f6f7" />
				<outline color="000080" />
				<font color="000000" name="Arial" size="8" />
				<position>368 487 440 535</position>
			</node>
			<node id="Suicidal_thoughts">
				<name>Suicidal_thoughts</name>
				<interior color="e5f6f7" />
				<outline color="000080" />
				<font color="000000" name="Arial" size="8" />
				<position>10 258 82 306</position>
			</node>
			<node id="Family_relationship">
				<name>Family_relationship</name>
				<interior color="e5f6f7" />
				<outline color="000080" />
				<font color="000000" name="Arial" size="8" />
				<position>289 10 361 58</position>
			</node>
			<node id="Financials_of_family">
				<name>Financials_of_family</name>
				<interior color="e5f6f7" />
				<outline color="000080" />
				<font color="000000" name="Arial" size="8" />
				<position>196 72 268 120</position>
			</node>
			<node id="Addicted_person_in_family">
				<name>Addicted_person_in_family</name>
				<interior color="e5f6f7" />
				<outline color="000080" />
				<font color="000000" name="Arial" size="8" />
				<position>289 72 361 120</position>
			</node>
			<node id="num_of_friends">
				<name>num_of_friends</name>
				<interior color="e5f6f7" />
				<outline color="000080" />
				<font color="000000" name="Arial" size="8" />
				<position>289 134 361 182</position>
			</node>
			<node id="Withdrawal_symptoms">
				<name>Withdrawal_symptoms</name>
				<interior color="e5f6f7" />
				<outline color="000080" />
				<font color="000000" name="Arial" size="8" />
				<position>392 228 464 276</position>
			</node>
			<node id="friends_houses_at_night">
				<name>friends_houses_at_night</name>
				<interior color="e5f6f7" />
				<outline color="000080" />
				<font color="000000" name="Arial" size="8" />
				<position>10 320 82 368</position>
			</node>
			<node id="Satisfied_with_workplace">
				<name>Satisfied_with_workplace</name>
				<interior color="e5f6f7" />
				<outline color="000080" />
				<font color="000000" name="Arial" size="8" />
				<position>10 382 82 430</position>
			</node>
			<node id="Case_in_court">
				<name>Case_in_court</name>
				<interior color="e5f6f7" />
				<outline color="000080" />
				<font color="000000" name="Arial" size="8" />
				<position>382 10 454 58</position>
			</node>
			<node id="Living_with_drug_user">
				<name>Living_with_drug_user</name>
				<interior color="e5f6f7" />
				<outline color="000080" />
				<font color="000000" name="Arial" size="8" />
				<position>754 10 826 58</position>
			</node>
			<node id="Smoking">
				<name>Smoking</name>
				<interior color="e5f6f7" />
				<outline color="000080" />
				<font color="000000" name="Arial" size="8" />
				<position>382 72 454 120</position>
			</node>
			<node id="Ever_taken_drug">
				<name>Ever_taken_drug</name>
				<interior color="e5f6f7" />
				<outline color="000080" />
				<font color="000000" name="Arial" size="8" />
				<position>568 72 640 120</position>
			</node>
			<node id="Friends_influence">
				<name>Friends_influence</name>
				<interior color="e5f6f7" />
				<outline color="000080" />
				<font color="000000" name="Arial" size="8" />
				<position>661 10 733 58</position>
			</node>
			<node id="Would_try_drugs">
				<name>Would_try_drugs</name>
				<interior color="e5f6f7" />
				<outline color="000080" />
				<font color="000000" name="Arial" size="8" />
				<position>568 134 640 182</position>
			</node>
			<node id="Control_use_of_drug">
				<name>Control_use_of_drug</name>
				<interior color="e5f6f7" />
				<outline color="000080" />
				<font color="000000" name="Arial" size="8" />
				<position>508 267 580 315</position>
			</node>
			<node id="Frequency_of_drugs">
				<name>Frequency_of_drugs</name>
				<interior color="e5f6f7" />
				<outline color="000080" />
				<font color="000000" name="Arial" size="8" />
				<position>661 72 733 120</position>
			</node>
			<textbox>
				<caption>Input file: finalbanglatrain\nData rows: 169\nElapsed time: 1.047s\n\nLearning algorithm: Bayesian Search\nAlgorithm parameters:\nIterations: 100\nMax parent count: 4\nSample size: 100\nLink probability: 0.1\nPrior link probability: 0.005\nSeed: 42\nMax search time: 5000\nScore by accuracy (5-fold), class variable: Frequency_of_drugs\nBackground knowledge was provided:\n  forbidden arcs: 48\n  nodes assigned to tiers: 2\n\nBest accuracy in iteration 42: 0.745562 (126/169)\nEM Log Likelihood: -2925.54</caption>
				<font color="000000" name="Arial" size="8" />
				<position>10 450 323 730</position>
			</textbox>
		</genie>
	</extensions>
</smile>
